-2.480683624364621032e-01,-1.269873410804548963e-01,-6.956790654013782216e-02,3.932240237664671456e-01,-1.290289228362971052e-01,-3.017953877077776959e-01,5.875242248595506922e-01,2.578788514641011664e-01,-3.094608240104803620e-01,3.170411996353206252e-01,8.583575742772181494e-02,-2.489627111158987660e-01,1.175717876981576676e-01,2.810408451683262809e-01,1.513781945409219953e-01,-3.111510070756086099e-01,-2.492272035580882505e-01,-3.929240728526586235e-01,2.155464045892858949e-01,6.083312620053786812e-01,-3.568718014989826770e-01,2.213513572182110589e-01,1.064075871374464272e-01,-4.973537917304099998e-01,-1.665833657149127511e-01,6.691433475955177283e-03,3.454998875415939835e-02
-2.378781241883825559e-01,-5.831682059276688951e-02,7.703133445673035484e-02,2.895082316233854591e-02,-1.294597780724476843e-01,-8.620384171418982167e-02,2.566550000978797264e-01,-2.096273194732424516e-01,-1.245484142776254605e-01,9.563764172462325963e-02,-5.707223410323030571e-02,6.162112871097539385e-02,-1.600254319629695332e-01,-7.572965336985446050e-02,1.088442720977253059e-01,1.683600401133761304e-01,1.563361336122855438e-01,3.329924404862925624e-01,-6.825008340196142553e-02,6.850378488733532834e-02,1.531523691591005210e-01,2.161541807427162787e-01,3.226993274005458129e-03,-1.184462404564649574e-01,-1.077448747450784755e-01,-1.439031484270642258e-01,-1.321730974518163237e-01
-4.481290652554081322e-01,-1.379081794006929707e-01,-2.198645024064145026e-01,1.123951038818046255e-01,-3.864864155180777749e-02,9.607846002254374906e-02,1.396644613455068629e-01,4.013119549106949902e-02,-3.400669806859681898e-01,3.088919517297966100e-01,-1.556450492727347312e-01,-1.152950530969615167e-01,-1.139305998122637636e-01,6.589034877081204056e-02,-1.479640570624849993e-01,2.235485699497086476e-01,3.104383283608391775e-01,1.750530236886950475e-01,-9.540716798350320398e-04,-3.372541358813190004e-02,-1.706821756038508220e-01,-2.523100722386621975e-01,-3.025550154276830384e-01,3.982153391832087275e-01,8.429736660905026713e-02,1.415548277729414273e-01,3.616229090377070521e-01
-1.696645942135308893e-01,1.659358421517579119e-01,4.565505945315606606e-01,-2.814494930786557436e-01,-1.133898867645515840e-01,-2.154257221083153275e-04,-1.191796792586752307e-01,4.330454614413696210e-03,2.477382024961779713e-02,1.297938461533357235e-01,1.293662605956441836e-01,2.870773715457628494e-01,1.395703696677217942e-01,8.156818472298142664e-02,-4.093835477323825439e-02,-5.636416533402650864e-02,1.331439649038794748e-01,-2.347291002059792298e-01,-8.535594628276904627e-02,-5.583766011970515974e-02,-2.220933502724672104e-01,-5.397937663715896006e-02,2.540027737389635165e-01,-4.081405199131244235e-03,-1.364852011076746474e-01,-1.950903688971941941e-01,1.293254326818403695e-02
5.790786480712429435e-02,-1.178888614145262997e-01,2.558230724078051216e-02,-2.052033922834866492e-02,-9.522832138659400106e-03,-1.366655615845377147e-01,-9.902611444010722686e-02,-4.792419760190193972e-02,1.626860323951582754e-01,-2.689690249920612466e-02,-1.800109207189409116e-02,-2.820439061738230779e-01,4.189599921115424314e-02,1.917266506208486349e-02,-1.393808334944605758e-02,2.505459367328843889e-02,1.975406205397899351e-01,-1.838559115572553082e-01,-1.081211874649537635e-01,-6.144347972733023300e-02,7.835563435741364768e-02,5.611133570347976995e-01,-7.605827313258523015e-02,8.897155105091893862e-03,-9.821794649688646295e-02,-1.564482344300394123e-01,2.287365441140376821e-01
-3.945424995036630467e-01,-1.107549455239951047e-01,2.027822802518338199e-02,-3.690092252100812820e-01,9.129357681499773725e-02,7.399975638102430919e-02,-9.916418129760823374e-03,-3.132544584310093527e-01,3.457835090490617158e-02,4.438283921889422667e-01,-1.011737299785932381e-01,3.240794797343747868e-01,3.349154359493137223e-01,6.628512210289769224e-02,-2.400150061709629135e-01,-1.191583568989279390e-01,3.929962669843046347e-02,4.258144182674580835e-02,1.949674530662907912e-01,-1.164117629249822039e-01,-2.912601388693752957e-01,-3.701524191078935933e-01,7.706169500432828549e-03,-3.359458313205347657e-02,3.660809573694536745e-01,-2.057173538969655213e-01,6.271816360320427997e-01
1.029155326910837776e-01,4.184763321788164542e-02,3.397749735072250199e-02,-1.039189524311936730e-01,-3.407258630751798523e-02,-5.944879875017647364e-02,-1.455150883003603068e-01,2.007352634870515351e-01,-1.501318998288592999e-01,-9.768064664592641250e-03,-1.550210295630561064e-01,-1.271601602438653805e-02,-1.671131467484359978e-01,-3.408191002652131985e-02,8.606588767134003282e-02,-9.681101646992801291e-02,3.701195834593145606e-01,6.321894661663601811e-02,2.532538984973732865e-01,6.154466638909019544e-02,-1.361119800116242229e-02,-3.210670329220203234e-01,2.325247201584940970e-01,-5.989274598144376377e-02,-2.840033211509885858e-01,1.356930760618828280e-01,9.929236907369726195e-02
8.344960661755292108e-02,3.603327745687961992e-02,1.569947365178418486e-01,-3.339734881725290871e-01,8.296941009817784818e-02,7.823945244960415352e-03,-3.386766536672335126e-02,3.290137285144812546e-02,5.572229014047703349e-02,1.353059035332789262e-01,-1.643465215374148927e-02,1.822202518169897811e-01,-1.011365551238766619e-01,3.267833187460128519e-02,-2.418743369343929195e-01,1.415391308912840596e-01,-2.232082960149489037e-01,-1.475988362402315124e-01,-1.806306936570254151e-01,-2.464970802478929635e-01,4.083269679944886293e-02,-6.581229930784240900e-02,6.898436208579530882e-02,2.050573351012950352e-01,2.083958519775689355e-01,1.683090720854257261e-01,-2.463679965117794579e-02
-6.171137980951527102e-02,-1.139452218623010632e-01,-1.609081029485769782e-02,-1.242153159631457712e-02,-7.258319022302078816e-02,-4.868632302231746048e-03,3.202531493312119060e-02,9.770697318657960151e-02,4.862135240306923734e-02,-1.077242585687892829e-01,-1.281616788235468984e-01,7.189904319633649843e-02,-9.622840009006503048e-02,-5.144069593911299726e-02,-3.338847182225331001e-02,-3.847332038232451068e-02,1.262692251249882824e-01,2.056988828647300094e-01,9.012358957119631642e-02,2.010243054036958965e-01,7.662569864391333141e-02,7.469471670492461302e-02,-2.807037539554559369e-01,-3.208590601672449416e-02,-5.673908621632799826e-02,3.124309319839638777e-01,-2.694931529246426538e-01
-2.520915664023183345e-01,3.191083460098112501e-01,1.741331304863249496e-01,-2.979499867297580318e-01,7.591907824253069093e-02,-3.927278678094735520e-01,-2.873287020863171115e-01,-3.352526376579138823e-02,5.353680606339947801e-01,2.839322818141329918e-01,-1.619748120175052222e-02,7.530847666309919974e-02,-8.003579800672054601e-02,-4.909599823112238970e-01,2.495798226033614856e-02,-1.560139175223153873e-01,-1.965256503046263481e-01,-1.143272962403666243e-01,3.872350277899199722e-01,-1.593488802647839431e-01,6.911602043510839399e-02,1.964013384711593979e-01,-2.215730340335733337e-02,-2.183431515400755807e-01,3.282873588099875506e-01,2.445107450567166746e-02,1.632444494990727968e-01
9.699465442767915557e-02,-2.780051692280485418e-02,3.259416115691744775e-02,-1.754735818359767080e-02,-4.475457891170052382e-02,1.600917372716331444e-01,-1.488316089590725755e-01,7.462419866971914395e-02,-2.027759890215684868e-01,-1.535303511987581304e-01,-4.460886651183835344e-02,-5.534163069548300729e-02,-8.016831695559847870e-02,-6.370842024351466848e-02,-5.975501763799975774e-02,1.134491975992749646e-01,9.256262272983303840e-03,-1.146891818329609791e-01,-6.436807397028304623e-02,6.349179934183572793e-02,7.987507831594890806e-02,1.832960790611958546e-01,4.643767366562259052e-02,2.030183568774214797e-01,-1.258716517039256966e-01,9.240047559957488554e-02,3.194509746957343438e-02
-7.113748140150916166e-02,2.360221815335439566e-01,-7.351127506653772070e-02,2.739053571976757251e-02,-8.968480508558676623e-02,5.801765301007282688e-02,9.380329921134340429e-03,1.005813539315763801e-04,1.973472435286111742e-02,-1.246851662921106829e-01,2.438876869654004170e-03,-9.526513303542838429e-02,5.430395441407621926e-02,6.066088276858296047e-02,9.458335002413023607e-02,6.176822727476607988e-02,-3.478845069533562095e-02,9.244115996091720189e-03,3.162137206962579994e-02,2.625091117259694545e-02,1.882096816500436823e-02,8.497853466315484147e-03,-1.674684254685807061e-01,-1.071515808749591292e-01,-6.995360971209834073e-04,1.257420109790823720e-02,5.672809761652482935e-02
-1.504203508239629339e-01,1.317020302396870457e-01,2.146302881495792125e-01,1.495997352368007294e-01,9.744825099599780174e-03,6.240238538221933029e-02,4.391048213106875375e-02,1.805994387458097483e-01,-1.576971390218255276e-01,4.857760761596578020e-02,-7.287208803719030792e-02,-2.663654205847045819e-01,-5.607632414267035847e-02,1.498427957009556555e-01,-1.294309083713380826e-01,-5.450128910022697393e-02,-3.220425501885031648e-03,5.858729094873103144e-02,7.648689678888467847e-02,-7.482844722636940171e-02,-2.689930414311852980e-01,-1.753949278492419606e-01,-4.731293574507177552e-02,-2.963846832755678493e-02,2.863599549583218384e-01,3.642323996135167496e-02,2.200134001463158444e-03
-4.634462370306337287e-02,-5.875554403493341710e-02,-4.052783735830259304e-02,2.884321872049481691e-02,7.697067077003034996e-02,1.715488314234258072e-01,9.671955949220242821e-02,2.514942240372403104e-01,-1.248263239905665622e-01,-2.279174663083543498e-03,5.606600616834590822e-02,-1.528632564481527123e-01,-1.206079695505880706e-01,1.999216706955413494e-02,6.389854690173354945e-02,-4.120175701126488690e-03,4.241545066418637988e-02,6.798290125742777190e-02,1.175826843114429789e-02,2.173186725549263454e-01,1.502488942770964682e-02,-1.641035305216980433e-01,-1.525059718128774500e-01,-8.614983862657341063e-02,3.880973806113418439e-02,-1.144089074399143174e-01,-3.120084925452027216e-02
-6.781907747659438046e-02,-1.622098452419418746e-01,-1.994901273074461689e-01,-3.126318235374923871e-02,1.584235220437204411e-02,8.442198326584576806e-02,1.295082534023834775e-01,-1.065088979358432969e-01,7.789586018186489547e-02,1.824236858574545053e-02,-9.808581295181211315e-03,6.958685966242075804e-02,-2.279295554806948926e-02,7.706313364726670445e-02,-9.814466971340791990e-02,1.459400488467302581e-01,-1.366074672925632616e-01,3.047021175814835711e-02,2.063641945944652903e-02,-2.990791803778579394e-02,-1.291468696763045099e-01,3.742276398535194365e-02,-1.894037031607931909e-01,3.329488715742778826e-02,1.472194279357784963e-01,3.431923305572489591e-01,-1.673914731457132668e-02
-3.276554709908902074e-02,3.053396712333063534e-01,3.248545694664244365e-01,-2.193623341890923450e-01,3.031067960303145473e-02,-7.840321708207770995e-03,-2.001946040334550980e-01,-1.564166507634347780e-01,2.858748851661881418e-01,-3.444924897578274248e-01,1.086548416415117763e-01,3.332003316755949296e-01,2.199851238221252892e-01,-2.646048154616991166e-01,-1.772472193482905745e-01,1.649443697360807037e-01,-3.343936438859192450e-01,3.275603979295031443e-01,-3.549254545591574161e-01,-3.625851484268848707e-02,-6.084050079517804716e-02,-2.802992103192393225e-01,2.150690149384381078e-01,1.517574312302417405e-01,-6.060542400309695127e-02,1.294079675578747590e-01,-3.939497065112205348e-02
-2.317035757566373311e-01,4.673957893983076706e-01,3.751295816036696092e-03,2.146553544295322913e-01,3.605230121947786137e-02,-1.606117325233270277e-01,-2.121469295378216602e-01,-1.158599780160695925e-01,1.920050616018587897e-01,-7.607115711878413566e-02,5.894672019890682957e-02,-1.005285650449310730e-01,4.022525636988892594e-02,-1.342791288047109066e-01,1.027160480561975509e-02,-4.609528688474363173e-02,4.529373747599246131e-02,-1.395858191544104010e-01,2.956025146713043283e-01,-1.018688265528036041e-01,9.381869831697152440e-02,-9.418640974248305986e-02,-9.814598174190579394e-02,4.666469080512534312e-02,-3.287782608401370460e-02,9.886118769303418874e-02,8.794544881921774818e-03
1.446967061920479414e-01,-1.554295602213397187e-01,-4.671333431052466234e-01,-2.514462443531481628e-01,1.393102627018897033e-01,-2.640342160335888422e-01,8.510531018938835568e-02,-2.036997199211569298e-01,-1.265126135774553573e-01,1.104012951790310365e-01,6.046256979076060356e-02,5.916888330323569894e-02,2.520079842542236603e-01,2.122936592276500889e-01,-2.288605619544817060e-01,1.080281510423336117e-01,-9.903218627353396752e-02,-9.115985080392260964e-02,1.142905542089704407e-01,6.652077635471374817e-02,-1.717637188502668319e-02,2.472296084894614887e-01,3.260199921434528414e-01,-3.022601804547748738e-01,2.488491293020511086e-01,-1.400319446683208902e-01,1.153220453567380677e-01
-4.141955433682447674e-01,1.175279436662684668e-01,-5.514340822359031780e-02,2.874756696620227592e-01,-1.790263913909116364e-02,2.045493300840176276e-01,1.027571261374998629e-01,1.694565912548184339e-01,-1.895886574653679324e-01,2.855733106794681175e-01,-3.847397861322401913e-02,-1.671546663777430664e-01,4.613143203387882751e-01,1.335966501544950669e-01,-1.600274602538264423e-01,-2.448102017838611200e-01,-2.109803564728257586e-01,1.060825858521633608e-01,6.047325829386273471e-02,-1.311082354053760279e-01,-4.835205721327980877e-01,7.262142754944202194e-02,-1.690966470329855753e-01,1.780042317857360168e-01,7.786332373493509706e-02,-2.346840485782289154e-01,2.256067250830335047e-01
-1.164919645106468615e-01,2.423332319299251747e-01,6.387698608125509658e-02,-2.635500259250777577e-01,1.296553833383370657e-01,-9.308623048903381936e-02,5.924923664867411122e-02,5.540522351475441615e-02,-3.366079823509680879e-02,3.142832459285146984e-02,1.984083553593104024e-02,1.066420275470448403e-01,7.753826241910021649e-03,-1.131039595587532559e-01,8.371905383448693949e-02,-9.944653513414680734e-02,1.240719867001477128e-01,-1.857241469817755286e-01,-4.120422082584026396e-02,-2.165048238606622627e-02,-7.733360336271213886e-02,-4.046894398681885607e-02,-1.018620763533340523e-01,1.946037865199572447e-01,-1.101072564227457834e-01,3.059124672562045233e-01,-1.184212428913969800e-01
-1.485931289502790964e-01,4.368495921194742032e-02,-1.647099444102080867e-01,1.068820770048784646e-01,-5.461561065921498315e-02,3.042517538905335495e-01,1.447473810718103715e-01,3.148976932712815174e-02,1.952810248472794941e-01,9.327306035785816463e-02,-1.531744736782644223e-01,-4.635542539788816557e-02,6.842378919756500477e-02,2.100149803763137757e-01,-2.439267770154581461e-01,-1.000002030477416953e-01,1.611048928941543612e-01,-9.548615432908186262e-02,-2.956348787864456762e-01,2.231798766539291184e-02,7.947603074024782444e-02,-3.365134531360201575e-01,-2.598728018185574862e-01,1.863942383672778369e-01,1.982887180017578188e-01,-6.576064325077135564e-02,1.417134005733289293e-01
-2.918092785336254269e-01,-1.849348178591090908e-01,-6.504469088253798936e-02,1.453616472809979576e-01,3.694381451390523208e-01,1.203464887383157156e-02,-8.374491076759367492e-02,-1.064990534677814071e-01,2.446169329205766518e-01,1.929809334870575058e-02,-7.533994703559196600e-03,1.096137183365904905e-02,1.689366612865394190e-01,1.872118653142659517e-01,1.268557592570042358e-01,1.841455599522512018e-02,8.318356661150064224e-02,2.137526398191725574e-01,-7.985985076335172517e-02,-2.475277070252177580e-01,-9.057116815287954981e-02,-1.452654580134981055e-01,1.320452050203472782e-01,-4.497421729278840985e-01,-5.216496189688114328e-03,-1.830692731487401359e-01,2.313785737364016937e-01
-3.982152152064201422e-02,-1.059318808177432819e-01,-2.844075170007158149e-01,3.458668766436560904e-02,1.105139329983725882e-01,2.589042680296470555e-01,2.472673640072916568e-01,1.640883814783449315e-02,-9.259159581500471525e-02,3.540908122384201495e-01,-9.445879327605660389e-03,3.096610162935020116e-01,3.615447953263373898e-02,2.837705219753479738e-02,-1.379725092365395311e-01,-1.805064024507718398e-02,5.761840164604216386e-02,-2.270175532165977506e-01,-4.201787066242254065e-01,-7.775137434245629753e-02,-3.965733664382810608e-01,-4.077742721171383547e-03,9.296161512395548568e-03,8.772144016499525132e-02,1.670387259039687045e-01,-9.687564030828084427e-02,1.956814755435173359e-01
1.169717553582026170e-01,-2.824100799848556775e-01,-4.308902748691633700e-01,8.530035946697833715e-02,3.215446091341738755e-01,4.459049194983100151e-02,2.339065432287833202e-01,-1.786905064167047252e-01,1.553458077482238464e-01,6.092435093336614907e-04,-3.975696622211871006e-02,5.030096070248679663e-02,1.734005204117464519e-02,9.424003742713829568e-02,-3.335939995074760356e-01,-2.049337912154718389e-01,4.607072146492903475e-02,-1.822498156513852746e-03,-9.431872226132409498e-02,6.765449110593718673e-02,6.475612622520708628e-02,2.537057104632077162e-02,-1.776099927405959400e-01,-5.919610797064170371e-02,1.914899819365100120e-01,2.753336104129563977e-01,3.430388720290291314e-03
-1.048703865884841463e-01,1.239896352971282811e-01,2.308453659408268022e-01,4.015331440044589417e-02,-2.817076755425950152e-01,-3.523027018458680520e-02,6.083680850314964611e-02,-1.442843928643731399e-01,3.138682015375838241e-01,1.357184667948461709e-01,1.672041317380738856e-01,1.534412381453876262e-01,1.125514672801111449e-01,1.074944208774102489e-01,-1.939744901936519272e-01,2.066982198052840503e-01,-1.034593882292000611e-01,-2.423087343730808696e-01,-9.086819073562929505e-02,-3.668581983076570352e-01,-2.995372484008429828e-02,-1.415606883061735766e-01,-2.481873155013143428e-01,2.618321612487642391e-01,-2.047304384606682959e-01,-1.140826532711808165e-02,3.338056968333259489e-01
-2.982899335265816188e-01,2.369793021377276654e-01,4.199673410043509025e-01,-5.029963759772390630e-02,-2.157916393038498692e-01,-3.112080726172248291e-01,3.793915850479561702e-01,1.287943955499911697e-01,-1.099478078141322979e-01,2.472716397756576368e-01,1.711993601840968715e-01,-1.168241414811550805e-01,-2.207545163348435813e-02,-7.651311750439768189e-02,3.704493508834790783e-01,4.655479435775913312e-03,-7.167741034598322514e-03,1.246502481729463568e-01,-9.672589529356935556e-03,2.779759025533908856e-01,1.067329497532923943e-01,-2.141418420398832345e-01,-3.815089695136565373e-01,-1.383981270912011119e-01,-5.078746107978642232e-01,1.565887478427235857e-01,-1.619699677748672462e-01
2.417891293220369442e-01,-3.583122485238129928e-01,2.818442560851565359e-02,2.029039236379743746e-02,-1.345255190149741709e-01,7.848019577851561568e-02,2.604606152581115906e-03,2.081426297897938094e-01,-2.060019758874970797e-01,7.903266158392992236e-02,2.061050509065948458e-02,2.479974942169486662e-01,-1.315861938859646252e-01,1.070261842934845109e-01,-1.274699303074572909e-01,2.955145579030468012e-02,7.787148966317580454e-03,-8.137678469651526969e-02,-3.434205931178491711e-01,2.420877183649513056e-02,1.754567104865933369e-01,2.147444698402939112e-01,-7.949678150231942464e-02,1.494183091921582884e-01,1.458160366026911570e-01,-4.412471410617179596e-02,-2.743559142631642467e-01
-2.901708554616716507e-02,3.423440312653867890e-02,-1.004796301363584249e-02,7.180088369763601951e-03,-2.722628995451362860e-02,-6.976369316004968346e-02,1.778776252158279225e-01,5.515649436352714624e-02,1.043544438471530472e-01,8.968905180724189019e-02,1.075796248068068041e-02,6.969924028376479896e-02,-8.641317765888127667e-02,-1.412222651394892947e-01,2.003085582204476023e-01,-9.439479127367063349e-02,2.270209204125860341e-03,-1.258843331172243285e-01,5.209679320339363588e-03,-1.070911074943790842e-01,7.631820489226037729e-02,-1.710523333194624018e-01,-7.658686553088167766e-03,6.355482372348618403e-02,4.009934322106400301e-03,5.219250865269534079e-02,-7.567511035030273503e-02
-1.910552119613613820e-01,-2.639759696243902387e-01,3.550457938759452592e-01,3.769140633273427299e-01,2.479743539913687247e-02,1.191984655413191319e-01,1.901665377115779876e-01,1.318600989161937687e-01,3.210592926469101882e-01,-5.279451027047057377e-01,-2.050590135232745470e-01,3.011374804379093884e-01,3.274889276446291825e-02,2.373887352839107179e-01,2.816841655537782318e-01,1.656080055537826889e-01,4.479560560606810626e-01,2.230680164735692472e-01,-4.768347990412214465e-01,1.351388690050611728e-03,1.952487642449073080e-01,-2.323226942063455203e-01,-1.519021148870096094e-01,-3.783499692665617808e-01,-3.419745572043123572e-01,-3.606310630133093831e-01,-2.833329821679833604e-01
1.495112941019770270e-01,-1.287227725148098675e-02,-5.582595712242987424e-02,-2.674928059726927598e-01,9.102221328079219964e-02,1.853798641549529447e-01,1.173124056824551426e-01,-4.048369142588656433e-01,3.135398704610942722e-01,-2.540683789698098827e-01,-4.810083159500003203e-02,2.781735892609968896e-01,-3.324768122042672663e-02,-8.468842727165699913e-02,-1.663592363798686025e-01,1.646858941725394820e-01,-3.851679904023533885e-01,9.220563714541596401e-02,-1.757490874286321003e-01,8.342891886706936544e-02,1.049024515658528584e-01,-1.608484040809036175e-01,-9.744184679569931062e-02,1.884135174528125956e-01,2.204564940703820086e-01,2.929897275400992346e-02,1.597923684565864255e-01
1.017403416049276754e-01,-1.614807954379157140e-01,-4.662795691865857795e-02,2.362099415885565018e-02,-2.472272194582411653e-01,2.453386777815789177e-01,1.897280274240396303e-01,6.622694271212843653e-02,5.835021144890308042e-02,4.234734810762483953e-02,1.195788859350732092e-01,3.718477431977698644e-01,-2.031205159983153208e-01,-3.735170751603221206e-01,-2.330622048385484202e-01,-4.421756514540317595e-02,-1.868492171512763367e-01,1.908621737922055334e-02,-4.171332834627873576e-02,3.066335996274056064e-01,6.831425806050857481e-03,1.958884424383164624e-01,-1.726637879607843262e-01,-1.642109501069082267e-01,2.045180422084938721e-01,-4.087125402482157804e-02,-1.682373953319655016e-02
-6.877320518855765952e-02,1.032185099420059593e-01,2.177286547822478990e-01,-9.863577342798932057e-02,-2.383332434994293869e-01,-6.983315078000131015e-02,3.121677520406770934e-01,1.180208755604690435e-01,-1.936618981015662266e-01,-9.417193677164559240e-02,9.967567367065918726e-02,6.471441216652633333e-02,-3.195181434016736849e-02,-5.287329058868172390e-04,1.309305309688190144e-01,-2.343249407666075923e-01,5.447417700149694009e-02,2.385367350219509686e-01,-1.181248795568645288e-01,1.136630464850416911e-01,-1.720557190951826909e-01,-2.140701184154172182e-02,1.052926493568858007e-01,-2.318757350443744203e-01,-4.514752169805264816e-03,1.248943047522549921e-01,-7.237794914334962082e-02
2.543243849478801222e-01,-4.025697026978448112e-01,1.328417460758745949e-01,9.536024930623301921e-02,-7.293077068787559569e-02,2.971844605941936224e-01,3.729513550500632157e-01,-6.159984224797157570e-02,-9.726985752892232384e-02,1.418845795466195346e-02,-1.404765554282305651e-02,1.030614101269890642e-01,1.910266370030901106e-02,-2.128185866422954708e-01,-3.771674051772554853e-02,-2.604694740859902352e-02,-1.500852374241883891e-01,1.845047466038587936e-01,9.067458693995344987e-02,-3.256164188132046333e-02,-4.087954011486213401e-01,-2.997255032504548833e-01,9.635207527292941054e-02,-1.772364418293349009e-01,-1.137975271294587240e-02,1.585576634676911789e-01,2.591130441725725264e-01
5.164355923778198854e-01,-7.384530824205266797e-02,-2.870946604063594476e-01,-8.314376542517931245e-04,-1.525560733068155872e-01,-1.256834810245365808e-01,2.088355822769189518e-01,-1.910033865053659963e-01,-4.749966829630349052e-02,3.562406412024601149e-02,1.963197743269999296e-01,-2.837907438002905680e-01,-2.465717119530565563e-02,2.260548061354996641e-01,9.120349037125556613e-02,-2.083459493642367544e-01,-3.406267143060034419e-01,-3.685207395513971640e-02,1.136166190574853241e-01,1.064231881950783304e-01,-7.673045985999492336e-02,1.264274515091682038e-01,-4.526515387532793755e-02,1.340760108963520159e-01,1.768327399666734523e-01,1.882514770197452891e-01,-2.466261715040294344e-01
4.179534955099072913e-01,-3.538474331404885525e-03,-1.134112748541031973e-01,-2.592290981100822678e-02,-2.647577464899091293e-01,2.547369210847476029e-01,4.304013339346110523e-02,-2.511287296880750780e-02,2.702384182073107599e-01,1.163418387937208975e-01,-1.126906186745734034e-01,8.150550596017147598e-02,-1.379799292863274351e-01,1.717881062122222913e-01,-8.033448291843990618e-02,-5.657788433793400212e-02,-2.172150838873787848e-01,-1.190043009642445387e-01,-9.597022991574828688e-02,-3.627080701378888189e-02,-1.734427209055873220e-01,5.184071754481745647e-02,1.396671769080324310e-01,-2.781552641433236023e-02,1.072928055237566958e-01,1.638000152434845869e-02,-1.272133420975788687e-01
-2.035648014595621905e-02,-2.190613737084717572e-01,1.666423093581411927e-02,1.130481287438859506e-01,-3.611076234081067593e-02,1.236081541551444785e-01,-1.122497327619377122e-01,9.677227293429888078e-02,-1.349322303595738015e-01,5.722083849741026879e-02,-8.417779727096298334e-03,1.732567554143411848e-02,1.080774788139943487e-01,7.248610392985084527e-02,7.410025711668363768e-02,6.503693352526380977e-02,-8.323651271423035403e-02,4.447018203235019729e-01,-1.232593364906520578e-01,-4.922028037077347956e-02,-5.607519130184243639e-03,1.468347677423911535e-01,-2.731601556952599763e-01,9.261037860024461110e-03,-2.228087537418241282e-01,-1.260083098807426305e-01,9.005484903711127864e-03
-1.738712588438406648e-01,-1.422167643464531950e-01,6.964472055624570945e-02,9.199107076254689486e-02,-5.541274585590131446e-02,-6.392524239286974386e-02,7.099750595413117926e-02,-9.566682690831458669e-02,4.360089387841421110e-02,6.692453828210963469e-03,9.755373495315697308e-02,-1.495321544560082039e-01,-2.120198842126609987e-03,-1.372509155458011831e-01,2.200918165332446663e-02,6.534092894081099112e-02,1.189426395554206151e-01,-6.973213394595574599e-02,1.406777177873261009e-01,2.679372937544194366e-02,-1.063226076384669871e-02,1.565678659538504713e-01,-9.562681667657539630e-02,8.175704984593570868e-02,-1.463068355023910971e-01,9.054175948633838567e-02,9.913645469838305857e-02
-1.665526418037886203e-01,-1.568039678260165770e-01,8.137920494237350921e-02,4.446998404494755669e-02,5.165325123810191391e-03,1.300817544320445329e-01,-2.271097796654290846e-02,8.803626214072143852e-02,4.599267811469966855e-02,-9.933341904952865120e-02,8.419550367986940176e-02,-7.234728135177845298e-02,2.605292044654851803e-03,1.805673939752189261e-02,-5.000243158970447271e-02,2.647269689465503451e-02,5.392002486275470491e-02,-1.225530636844414378e-01,1.129695767843568871e-01,-1.792103413434232018e-01,3.299850359540656974e-02,1.070532352408683635e-01,-5.515297360176318192e-03,-1.424572551841957746e-01,1.215658302824363379e-01,-3.649954100627417208e-02,1.382029185265894189e-01
-3.187172324397689188e-02,2.824277545652860710e-01,1.300809245083244248e-01,2.799562705250714933e-01,-2.399194978782817345e-01,-2.734713982917667541e-01,-2.097925948197507107e-01,1.790695588373233393e-01,-7.628178026452610283e-02,-7.719377139809318125e-03,8.009343115938662161e-02,1.359222707489066845e-02,-2.691336430385242728e-01,-5.064344650301581124e-02,7.511799122396761730e-02,-9.966211771442411681e-04,2.244353286066682329e-01,-8.807750222795555917e-02,2.225404401745814942e-01,2.200151578709491351e-01,7.187789782338085964e-02,-3.110441888739930438e-01,-1.127933901476381034e-01,7.544994447760212941e-02,-1.851499559054637367e-01,2.241188528690447046e-01,-2.437299574463819840e-01
1.441970885648951872e-01,-7.298880256135030498e-02,8.433928692897030288e-02,2.875072232373927505e-01,-2.036001223822596698e-02,-7.114392556684878688e-02,4.810876283859658736e-02,-1.897323196486989938e-01,5.441776642032870870e-02,3.561166137098494694e-02,4.606141956983772490e-02,1.996505355730795669e-02,2.447206178766365703e-01,-8.905523790493596881e-02,5.168024649381119939e-02,-9.469205348110452947e-02,4.745069153672763773e-02,-9.456458517349473902e-02,-8.035854309580628407e-02,1.275409481966909842e-01,-1.732981656410604865e-01,-1.478904995865071015e-01,-5.812360911220068593e-02,-2.510506384184828937e-02,-1.390704816140505284e-01,1.922391750309921515e-02,2.588381885754671360e-02
-6.908756380464653457e-02,-1.173243743729747990e-01,7.551554190024964419e-02,-3.809203309618903587e-03,4.336256389624488367e-02,1.034703969570968107e-01,-2.271890417953115193e-01,1.081992864795901926e-01,5.728007224945320941e-02,2.283022116192948980e-01,-2.565297410602098149e-01,2.129107988987710004e-02,1.284776184214196371e-01,-1.691758697386136212e-01,1.549197318189536599e-01,-3.355737499686847758e-02,3.406813172471612888e-02,1.563751645899064402e-01,-1.824807893754286370e-01,1.545233549124028494e-01,-3.408443014258066839e-01,4.679084200456096881e-02,-4.895277380870380335e-02,5.380688477127634067e-02,3.158540817637338349e-02,7.719523761485462543e-02,-4.658277095481716881e-03
-1.716833552172648825e-01,7.607809487909684976e-02,-1.374642499741293624e-03,2.851492716931748328e-01,-7.164281517192323465e-03,-2.190172201532953819e-02,-3.916585403462521237e-02,8.487788500820322990e-02,2.138549850767702265e-01,2.384555688555730080e-01,8.440241483426182134e-02,-3.468492368873540149e-02,8.752437899725055374e-04,1.123406631136265876e-01,1.592694549856785158e-01,-1.398825870552041217e-01,1.006462631287723952e-01,2.438714516917146191e-01,1.020375134299469772e-01,-3.215515946848085393e-01,-2.655480136174714900e-01,-5.573511644658996761e-02,-2.120236442487305473e-01,-8.657274271595011284e-02,-3.029045720325311830e-01,-8.423059088641507430e-02,7.310795119293299338e-02
8.516848275501972404e-03,-1.588242451228445359e-02,3.936280644917920790e-02,-3.272928486839987716e-02,-2.678538229329042574e-03,-3.112059815396934701e-02,-8.096039109521058208e-02,3.836171844010027171e-02,3.271687856254468230e-01,-8.385160360337781671e-02,9.168995595081007310e-02,-1.399376030892775513e-01,-7.779645351928222985e-02,-5.843053626392345073e-02,1.228381580542294432e-01,1.025123425372148900e-01,-4.758835438476949342e-02,1.880884100085560839e-01,1.433343560174444864e-01,8.185257335846797544e-02,-3.660877148068768933e-02,-1.734697892267793029e-01,-8.465360098780965944e-03,3.074952116764903196e-02,-7.243691339118392414e-02,-1.899557502557981947e-01,-9.836176737669276304e-02
-6.271120067582866553e-02,-1.570663672274670852e-01,1.252908609036020304e-01,8.168295003506649554e-02,4.632157920673945356e-02,1.828217782462950303e-01,1.336844588732886020e-03,-6.659051998328430200e-02,-1.208378328283221809e-01,1.268267901643520441e-02,-1.318701081697745414e-01,-7.412635513832378786e-02,-3.377679290817019869e-02,-1.441000959041470186e-01,-1.007910083533398136e-02,-1.602625198085050329e-01,1.650247998932596327e-01,2.985687004580937498e-01,3.733391475408002341e-02,2.468390453704925533e-02,1.550150082118916528e-01,-1.303803277845075881e-01,2.418888634313326111e-02,-1.066995916676713174e-01,-1.492490878867481184e-02,1.509050354018637297e-01,-7.796120924435678834e-02
1.959879031661663773e-01,-1.788913508482084525e-02,3.907073463618675191e-02,-1.774324786960150002e-01,3.096530060993409883e-01,-3.914653673699298175e-01,-1.003967565431890252e-01,2.621527055033556208e-01,4.170683690327053189e-02,-1.245811973083574969e-01,-1.282607310265728162e-01,6.830015771395253621e-02,2.241267092033947805e-01,-1.845865348728680244e-01,-5.275164472069618360e-02,-3.361544220376358472e-02,3.524571808582004917e-01,-1.441378319065253488e-01,-1.484187324205247550e-02,9.951839911657681115e-02,-3.727825025439807649e-01,-1.246564861435921351e-01,1.136808966151362649e-01,3.003758654034643927e-01,8.715195987047458237e-02,-1.547754918710736727e-01,-4.820172725824762444e-02
-4.685496842313607857e-02,-7.436323134580856420e-02,-3.117156142717255121e-02,-2.792950599302114131e-02,1.801619491985093635e-01,1.188568203804713508e-01,1.071467091154548051e-01,-3.369774128732531265e-02,2.587157220570438648e-02,8.363745959914642425e-02,-2.000464330417185133e-01,-3.003658306589362254e-02,2.849017134847870933e-02,3.619459685206181249e-02,7.361912097727326201e-03,-1.190694486146302022e-01,1.806249776061832901e-02,-2.195616815004063777e-02,-3.902527747986326342e-03,2.164233104977481004e-02,-7.495963881152387098e-02,5.601000565615696369e-02,-1.828239379890783389e-01,9.930443947055421494e-02,-9.573759545827299766e-02,1.342429392362387008e-01,2.580546287041798892e-02
6.716572447013030578e-02,-6.884311179611926623e-02,1.439081235309084272e-01,-2.156988407163279720e-01,-2.747389172631498622e-01,3.036303520392539257e-01,8.297547945201723396e-02,-1.428743105479893527e-01,-9.106484034759705637e-02,-2.528701899324034552e-01,4.384315344388559632e-01,-2.505694629011728791e-01,2.163615735248072824e-01,4.865643537077955078e-02,-1.612987822309373265e-01,-6.740879383879821996e-02,-2.610399599057343645e-01,2.728889349270141595e-01,1.368437500843369958e-01,8.446099987523131292e-02,1.010594256851667233e-01,1.200551128140246171e-01,-1.591464021342941237e-01,1.289634286751768950e-02,-9.575389882264874475e-02,1.142750760870849952e-01,-9.760664020830525645e-02
-1.046426083771557526e-02,9.876757196772859015e-02,6.034749391939779953e-03,4.606846327677795866e-02,4.704452939060334987e-02,1.515589952279952635e-01,3.232373213149096654e-03,5.941482558265599734e-02,3.861483427651867667e-02,-2.567677071616258910e-01,6.322983884846729297e-02,8.274844799319984456e-02,7.076621332459696878e-02,-1.280336577374755758e-01,-3.210258331573500462e-02,-1.586792109945789897e-01,1.954344030903112928e-02,5.066989466652972729e-02,6.086505936126784116e-02,1.145292369623591572e-01,-3.960100636224059972e-02,-1.608314328812607275e-01,6.407398223504451318e-02,1.340435399706882968e-01,2.345147277930487856e-02,-3.962219535499939549e-01,5.738683926961868353e-02
-2.014258283426060420e-02,5.838795050115463264e-02,-2.859939517295328332e-02,-3.997939248359494435e-02,8.284459875559418984e-02,-2.930429804576552971e-02,-1.326224176137798527e-01,5.728575494431596693e-02,-1.235959610424051669e-01,1.074792876792340229e-01,-9.142534078675784714e-02,2.046331835876487593e-01,-5.307172090101804074e-02,1.939305949573057186e-01,8.377046878673061192e-02,1.149266362474648390e-01,3.596140177547457184e-01,-1.132388500268693560e-01,8.716629955084796016e-03,4.480638224288713278e-02,6.403587704936737623e-02,-1.089740681100139635e-01,-1.443745004520473885e-01,-2.614731342571411377e-01,-6.725908385354789631e-02,-1.462187011773274925e-01,-8.687706178058152151e-02
1.080134222309191705e-01,-2.756180953887000240e-01,1.551062132648387826e-01,2.253588509267986095e-01,-1.036983221059892407e-01,1.185993731635996001e-01,-1.212092218014975270e-01,3.107749285521127502e-01,-3.241299036952648843e-02,-2.065779479136031216e-01,-5.462834586054931413e-02,9.888215828784767403e-02,2.814693182950680703e-02,-1.756121330017088311e-01,-9.932205955367415240e-02,-2.201896904434697544e-01,-5.015223520330417545e-02,1.691606619941675438e-01,-1.085757990510664711e-01,2.103361970766414735e-01,-1.822989311400006161e-04,1.178492212216965124e-01,-4.519506924366818446e-01,-4.956401063091328552e-02,2.241245471188727245e-01,3.194457519587263761e-01,-1.323543570748288434e-01
2.368519723474579730e-02,-6.585383040049691550e-02,2.269396600746071968e-01,-5.297850029742477707e-02,-1.113556705645136341e-01,-4.675809254904944590e-02,-2.260390060735157913e-01,1.391235568926352858e-03,2.213477354588338445e-03,-1.133604475234620962e-01,-1.781345795187308512e-03,-2.367808258992119136e-02,6.736036016890235845e-02,-2.072158350978016983e-01,6.584859077047858960e-04,-3.883021741379691361e-02,1.997453480520059721e-01,1.498182809274042626e-01,1.320358656015759857e-01,2.130063520449498177e-02,-1.992140642273649287e-01,1.162558037529268576e-02,7.050745706559610748e-02,-8.588286085734991859e-02,7.202078672200358522e-02,2.793431535835576573e-01,-6.540351245193976037e-02
-3.677814274392760541e-01,5.423273696625603435e-01,5.106809620530119442e-01,1.666934292590290315e-02,-2.084582026759957407e-01,-3.750795534101874495e-01,-4.029169556125037494e-02,4.522161736254262099e-01,3.630600264636787283e-02,1.713100293636912394e-02,-5.290592570900166935e-02,-2.699983437874426406e-01,-1.577058458443191535e-01,5.895989579093621064e-03,8.974305208158082914e-02,-5.557539933734276794e-01,2.143114804539992535e-01,3.618730687710539629e-01,2.998703144204081239e-01,1.797134743280059399e-01,4.555960006082969416e-02,-1.608447987685618086e-01,-4.533635616909441612e-01,2.888681601091115381e-01,-1.302485713305640003e-01,2.305034937998685918e-01,-5.304100148669727011e-01
2.778619043740188435e-02,2.668496452413792602e-02,-2.463418408612488494e-02,-1.257075276917372919e-01,-1.227841427983241557e-01,6.491862151062711105e-03,-3.230673978938130575e-01,1.393042963216594571e-02,1.454456588427976982e-01,4.965522430378806196e-02,-1.016351519185294539e-01,1.359848438195055964e-01,-2.183459932077151944e-01,-1.326349531039615059e-01,-2.188975090921925493e-01,9.294140973063604039e-02,-2.831123559021579417e-01,1.605094406956595887e-01,2.764491121853496214e-01,6.121400551902130005e-02,1.440936001625295060e-01,4.540028409400492793e-01,2.826394413990637039e-02,-3.887359597587804472e-01,3.951576914661427686e-01,6.450301895371055028e-02,-1.470397231007389838e-01
5.886519043998103551e-02,2.822581734702025447e-01,-2.763314590122479750e-03,-4.220403750263803655e-01,-2.806012048770611389e-01,-4.192918193868795385e-01,1.298886776918983799e-01,-2.189243980219316710e-01,1.365832435109876342e-01,-1.915727283690553950e-01,2.764059452135249617e-01,1.783453866326741299e-01,-2.444691093183621877e-01,6.886157576297669003e-02,-9.625240247408717309e-02,4.655930020259246294e-01,5.679814579399498908e-03,-2.227030057233490012e-01,-1.826079178000531156e-01,-2.463593888976746693e-01,5.712216582978236756e-01,7.522316785402889672e-02,-2.383826527629438474e-01,2.065027044376373244e-02,2.611744807698138104e-01,4.946010748264212942e-01,-2.122295436231108889e-01
1.512578058295575290e-01,2.169345885396219836e-02,1.913717678989548809e-01,3.602394768256506619e-01,-3.226404749142393613e-01,-8.757562786317175940e-02,9.447545654247377356e-02,-5.959987284087955861e-02,2.223178255871029532e-02,5.417325023918936888e-03,2.284617541688823694e-01,-2.201013233787062484e-01,-3.798389722102918364e-03,-5.304962193797017889e-02,3.084697341067242915e-01,3.601956294700541239e-01,-2.388522344584109725e-01,3.670382683096342635e-01,-9.076244552294407408e-02,1.382148637015166437e-01,-1.608004912945197040e-01,-2.809948344338734638e-01,-2.334226744601110015e-01,-2.392232032255482144e-01,-4.835447548252564953e-01,3.858154942072005711e-01,-2.325042077007718755e-01
8.546459121992680541e-02,-1.557256833269189955e-01,1.348840514395305556e-01,-2.975480851555649120e-01,7.400365213219635419e-02,9.671914937595182948e-02,1.663138764772430778e-01,-4.268520231438185375e-01,3.739300685760857390e-01,-1.509606517650539381e-01,3.254132126665541525e-01,-1.779843335901848678e-01,-1.587336702506786656e-01,7.702269216087143100e-02,-2.336648477818049352e-01,2.103813529688527695e-01,-1.104669418967226674e-02,3.127755819527968523e-02,-1.148642676535987089e-01,1.523291627540155901e-01,-1.655809683500184537e-01,2.962637139495010175e-01,-3.675120985212951968e-02,1.093834299691662515e-01,-6.498439731354106741e-02,-2.187843643366743293e-02,-1.077105645632352726e-01
5.216200215896186348e-02,7.558455076051372179e-02,3.381512322906793377e-01,3.736420987230671537e-02,-1.094115234077604748e-01,1.206460104276206313e-01,-2.536616370558445466e-01,-9.028789052173666341e-02,1.757326327003269073e-01,-4.357971194660310160e-02,-3.968012220451364730e-02,-1.106075495822044646e-01,-1.850010288755835619e-01,-1.436555515040076614e-01,-1.729267669145164166e-01,2.993305372594387004e-01,-3.463145420904449323e-01,1.371395878741574759e-01,-6.928186085817156226e-02,1.124715935934683109e-01,9.181340087755882062e-02,2.701407455298076021e-01,1.078362297907398404e-01,2.715201003328233109e-01,-3.580763293890288357e-01,-3.738699274981645976e-02,-1.731892400401100485e-01
9.035833812329770176e-02,8.870198190907030433e-02,-8.748685791741173112e-02,-1.092258408013081772e-01,-1.547018426651372569e-01,1.535908295867182858e-03,1.499121065753617754e-01,-1.040942425468438688e-02,2.726692864694692242e-02,-3.301228831359496324e-02,-5.848973929933615201e-02,-6.424249926385160181e-02,1.126538803978961861e-01,1.920912018286431155e-01,-3.293971506272376504e-02,5.272483522349800250e-02,-1.825864237350668662e-01,6.113961106595608430e-03,-7.035836790912608149e-03,2.481447102410455630e-02,-3.464220109909776912e-02,1.345147402524485558e-01,-8.378921422938100105e-02,2.583488798422087229e-03,6.667073647257716618e-02,-1.422344224175500216e-01,3.308909874090967818e-02
7.428555641350169381e-02,-2.003501990118441156e-01,-2.440463765673851204e-01,8.164725537563216617e-02,1.432804903323247891e-01,1.846142107331302795e-01,9.055731462438583457e-02,1.998693295346562829e-02,-1.400891549431821370e-01,2.572389841696547108e-02,-6.095682825529710747e-02,1.807022396220157312e-01,-6.265324117527298897e-02,-1.609770255351604951e-01,-3.878123733062937561e-01,3.391362631855649162e-03,1.069517802390216599e-01,-8.955574914017017107e-02,-1.042145302982749044e-01,9.402891419367377657e-02,8.929191971974094477e-02,1.232960035108834757e-01,-1.261718893594939994e-01,1.087778623802995587e-01,1.248126039638522838e-01,3.712742249016594970e-02,1.133337082095739606e-01
5.451288833733620651e-03,-1.843231425105177068e-01,1.044470875895159301e-01,5.711288995763050269e-02,-4.363704627660131008e-01,-2.400925321218138619e-01,1.324940034008658396e-01,-1.228214747345122149e-01,-3.366193563283731982e-01,2.044732368166619629e-01,1.763733715061497342e-01,2.119788542898091710e-01,6.325850743445966817e-02,1.130530689915736214e-01,8.912274726870969555e-02,-2.445831731942514353e-01,2.450101695011884795e-01,-8.385949514856175235e-02,1.355558769795098539e-01,1.952265713414511883e-01,-4.919934579185324813e-02,-3.784624447142271864e-01,-5.922917574532338136e-02,9.164879936752934331e-02,1.833026748270397133e-01,-2.598264500241881728e-02,9.692531796487234563e-02
4.868081562013388403e-02,2.895840685068502840e-02,-3.258780680817636166e-01,-4.127410036874763766e-02,7.688841831569133076e-03,9.810054602210345476e-02,-1.560109018404923741e-02,-3.193414013644139959e-02,-7.888128372697116031e-02,3.357882553271548387e-01,-2.260857628868530311e-01,-1.073541008764499621e-01,1.499575167900938644e-01,5.466209626937040128e-03,-1.541299799754088651e-01,3.227499768101779049e-02,2.838910889634044254e-01,-1.443149246057877366e-01,1.489710889010246175e-01,9.185435949444582804e-02,-6.324066785107790301e-02,3.867834075160326290e-01,-2.645366591925502053e-01,-3.384531384404516063e-01,3.718560659419589132e-01,-3.918942888931318258e-01,2.056258335448833963e-01
-1.636460001515644413e-01,1.258528760638239763e-01,1.881491946304660601e-01,-1.862168953685534312e-01,-7.454642410483915127e-02,-7.573441976726733027e-02,-1.336192949120737217e-01,1.807471124384208913e-02,2.617971322449000882e-01,1.598932619017387480e-01,1.921585357522719306e-01,1.000989261480771247e-01,-5.811850170820682601e-03,-1.768354801238544716e-01,-1.424162890102149970e-01,2.079111001148065407e-01,-6.648050613957630361e-02,1.940754960454073655e-02,4.259351170411422582e-02,5.618080189597479679e-02,-1.361288748556183648e-01,4.754506595919601869e-02,-1.294415593424081967e-01,5.223868871117651885e-02,-2.400180107858541356e-01,-2.270796048074831888e-02,7.837302236721246929e-02
-9.163103809069495995e-03,6.269531311673670615e-02,-2.647736654350523605e-02,-1.073181034781718890e-01,5.627445031206317061e-02,-9.108826906042132368e-03,-1.095633809406115072e-01,2.780571535265911887e-02,9.858412772038799288e-02,3.182917118640096743e-01,1.917781566598020238e-01,2.077011320807412298e-01,-1.518060491260645184e-01,-2.511502220045411793e-01,-1.574268015034084589e-02,1.604116895458155001e-01,-1.936593824693268739e-01,-7.466870867483606233e-02,2.759838157810713677e-02,-2.053102949888206130e-01,-1.154904575621290425e-01,-3.152307370309082035e-01,-1.378147843503639003e-01,2.608213223488721755e-01,-1.118700360196177301e-02,2.018949136136835576e-01,9.784957036103233974e-02
1.437725310259716296e-02,-2.748009739862760075e-03,-1.708368319064308138e-01,2.971220666520426809e-02,2.339302352564148063e-02,-1.684295360064174893e-02,5.435795145638966375e-02,8.379017678433232919e-02,-8.792664028969461587e-02,-5.564241961004515180e-02,-1.175056673255764489e-01,-6.981394325723143043e-03,4.073085405445775464e-02,1.513578352467601779e-03,-1.180122339930422398e-01,-4.449367859798360192e-02,1.738964166927574329e-01,-1.274658610520041924e-01,4.005816381231433465e-02,-4.944845900567034630e-02,-5.119265211186986575e-02,4.237990274629926946e-02,9.418693529143529197e-02,-1.208095444695657383e-02,3.558048788497938236e-02,1.317475731425258589e-01,5.526286438666497963e-02
-2.870145595296596519e-01,1.437268753032336643e-01,1.610070606559403095e-01,6.584277607871140414e-02,-5.181590935783634416e-02,-1.208638233881291907e-01,2.342403254444979377e-01,3.673037824274682367e-02,-2.655927566722353084e-01,-2.448337526857351509e-01,-1.379656780419480366e-01,4.574752212151651787e-02,-1.496969785541910070e-01,-2.147116864215488086e-01,6.675055442149030460e-02,1.821731192619494566e-01,6.307981571608529958e-02,-2.665906666581496776e-01,2.332865395630333016e-01,1.150320121363375830e-01,4.219366514820374614e-02,-7.504468916382260602e-02,2.113015307729376457e-01,1.864549568787032263e-01,1.908751375208614376e-01,-1.247963776612731474e-01,-6.230500139536202658e-02
-6.249645045248813230e-03,-2.421329627641078952e-01,-8.637612190310584026e-02,3.025357742869433930e-01,3.500240868831079322e-01,4.441029648017062043e-02,1.415351435644934264e-01,1.038558484504587681e-01,1.206857210878389819e-01,-1.013186133104125031e-01,-5.752783976126723403e-02,-2.465874423620502409e-01,1.813034589953791131e-01,-9.633767131520873384e-02,8.961487506463788888e-02,-3.220739414251525545e-01,4.116771344408304834e-01,-2.265835961425647083e-01,-2.261163320358330064e-01,2.591985923972431882e-01,-5.550827308781672853e-01,-2.160726711592659277e-01,2.082343632968267910e-01,-9.177517655570240074e-02,9.923802315876326108e-02,-2.122336694374940269e-01,3.541532245987858984e-01
-4.067817477796896730e-01,1.008557461827503110e-01,2.425635517076222322e-03,1.814985169625712436e-01,-1.882596235084347813e-01,4.179732996508762066e-01,8.853762256943358000e-02,2.540998207003666298e-01,-5.405259953413289464e-01,3.193120327912420398e-01,4.674475876758631132e-02,-1.239364329114254759e-01,-1.264014170196010589e-01,-3.032964079722181294e-01,9.777048259001497321e-02,-1.584561727923884666e-01,2.168993322654569067e-01,3.856798883995417038e-01,1.777122588182658558e-01,-5.268566874086366009e-02,-3.809830006371832667e-01,-2.903333543152264995e-01,-3.933429159320550039e-01,6.103231000853287513e-02,2.217310386853324766e-01,2.665257427752446562e-01,1.130645924860140400e-01
6.631608692555752693e-01,1.280997592420524411e-01,-6.681203922877968493e-01,-4.253771773218945063e-01,-6.497360651804517939e-02,-2.020309091041422311e-01,5.462319309066115958e-01,-2.938128137668881146e-01,6.846148059581526335e-02,1.720762370092225324e-01,1.256360143033359300e-01,3.704035768758218161e-02,9.661744025104956890e-02,2.296211894837087847e-02,-2.776363621312254448e-01,6.340603129605153210e-02,-3.599606677870088034e-01,-3.220084854822814480e-01,-1.952027587595025204e-01,-9.095258067276412728e-02,1.063338242511395471e-02,2.692744660874345497e-01,-1.392536259568888102e-01,-2.232555164319455221e-01,4.282466847036094371e-01,2.522314151687354289e-01,3.873013255220770223e-01
2.755107401868523431e-01,-2.599037283844412571e-01,2.123424171281852180e-01,1.419891583719449790e-01,1.742899608255935873e-01,-8.754063313418668918e-03,-2.541684209162071717e-01,-1.763761581326630384e-02,-1.284585164773879573e-01,2.026112320303277009e-02,1.592229642862741656e-01,3.921194898689878139e-01,2.174786461134563531e-01,-1.433231904436213788e-01,-2.123188882101368635e-01,1.612426312319656385e-01,5.268711028156682075e-02,-3.086698889957791292e-01,-9.741780747433129509e-03,-1.861667381985064318e-01,-1.658048932457215074e-01,5.324345928487198704e-02,2.746515940391193178e-01,-2.635946254113117893e-01,-3.658138287871529615e-01,1.149480078676262673e-02,1.991938259547169909e-01
2.038669164524762323e-01,-2.378121140833751868e-01,7.984468483777223957e-02,-4.601720924395940465e-02,1.272251092270046402e-01,1.380712055036933950e-01,1.267357520249069169e-01,-2.951492337676573374e-01,2.285232703256864784e-01,-1.481526484447477643e-01,1.730278835435847262e-02,4.134964815959995404e-02,-1.336982123336719341e-01,1.130472106009005598e-03,-4.331738880970334438e-02,1.725391200717716067e-01,-3.765126062532215406e-02,-1.696173528773210204e-01,-2.451018931246496391e-01,-6.217792513920247788e-02,3.179763081155217441e-01,-3.524609894852476916e-02,1.786404730414640207e-01,-1.714484207444441910e-01,2.769549409258522665e-01,2.999462026350820879e-03,-2.534623323966433972e-01
-1.820618327521084934e-01,1.025070080563093150e-02,7.109961981784508334e-01,-2.967260057527638592e-02,-1.105441570511781629e-01,2.358722960576313810e-01,-2.017234687720163011e-01,-1.344693718922377879e-01,-2.591151668280007869e-01,-1.362320704893598688e-01,2.068625708549242520e-02,6.820007985597578704e-02,-1.694328924118409518e-01,-3.330248154673580707e-01,1.762187982558317267e-01,8.158704137363122222e-02,3.398168333643665773e-01,4.251746765608597212e-01,-7.936370479183020576e-02,-2.438729295162836153e-01,1.278364981662325275e-02,-2.787605765548518133e-01,4.488287872114909982e-01,1.013019457483159830e-01,-3.860082990553196369e-01,-1.669987546123114230e-01,2.651188805202083290e-02
-1.594095347956073494e-01,-5.195490365291589585e-01,-2.450595945598454672e-01,-1.154191719883944367e-01,-3.428493025747292866e-01,2.489658507859193182e-01,3.470427677261098132e-01,2.882708886530429464e-04,-3.659148059048704660e-01,1.334856802428276701e-01,-4.867702475705917159e-02,1.794421565881807734e-01,-4.913963667702033605e-02,4.937027764796628748e-01,-9.925675278777414123e-02,9.382802786903636505e-02,-2.710968942088332612e-01,-1.346981522651285179e-01,-1.582045360606022244e-01,6.058961038698434248e-02,2.748880707819605917e-01,1.503360599364768693e-02,4.413635831211212834e-01,6.524075481914815011e-02,1.677486982477521260e-01,1.052580275878127331e-01,-1.095130777981377784e-01
1.741047494106608695e-01,-6.930084767924653277e-02,2.186956768245910954e-01,1.689922389616896892e-01,-2.193969592829076443e-01,9.664493938254073435e-02,1.020853146297580338e-01,8.593680160829958448e-02,-1.196738438628005136e-01,-2.118012902624875349e-01,1.000957790310445517e-01,5.865592810053311956e-02,-3.669589518622727309e-01,1.038063082838615175e-01,1.061507503377669137e-02,2.163212262024520258e-02,-7.604617811002384320e-02,8.894704189747237866e-02,-5.418484295540235141e-02,-3.246319387913797205e-02,2.042825806178533987e-01,-1.828431045871717064e-01,2.170791808390484523e-01,7.692850083760364999e-02,-2.087165378791441261e-01,-4.871787724521653429e-02,-2.182340430757818694e-01
3.497557023211088634e-01,-9.724765571713805956e-02,-1.614046088721937666e-01,-1.288992182304447009e-01,2.943205222142034061e-01,5.123767755616781550e-02,-2.733011645456930316e-01,-5.223596277194899468e-02,2.625493395024992571e-01,-1.291146790109251596e-01,-2.053175734255761609e-01,1.448316197355848933e-01,-1.022289566089543550e-01,-3.268093284418183142e-02,-1.594910193928510134e-01,3.146633876054498180e-01,-2.508129515523960240e-01,-2.231840385978689223e-01,7.219274437767422836e-02,-1.349083816235925881e-01,2.198808606548297850e-01,1.895977096240547277e-01,-7.048217203745102410e-02,1.163306136711539235e-01,6.449798441111424807e-02,-1.216276006968791505e-02,-4.725594923746104237e-02
3.298874092220342030e-02,1.265853510718647212e-01,2.131058927340389042e-01,1.260920061586150720e-01,1.322738119216428088e-01,-6.883854448296057409e-03,-2.916450756190713811e-01,-1.114794176376699003e-01,1.594618607424747730e-02,-1.568232204986785283e-01,6.509388797831430762e-02,-8.599225786264569349e-02,-5.641376213289243935e-02,-1.650686387757611950e-01,1.464753351554851091e-01,2.631649302965256565e-01,1.696758006365718108e-01,-1.704156438833134002e-01,-2.134198488428948326e-01,-2.060695183869481334e-02,-9.386580214000677909e-04,-2.182128268070531590e-02,-1.322417507790693558e-01,-1.151528942642537912e-01,-6.688302511019648955e-02,2.930325438892006362e-01,3.536906133102029476e-02
-2.659840417363402154e-01,1.521939620479016431e-01,3.202374540273986714e-01,-7.265932045999569378e-02,-3.100853695280552172e-02,-8.573400843812646610e-02,-8.362905902088167698e-02,3.194183161772206070e-01,-1.343960965036111732e-01,1.291887494125020797e-01,-1.865644707318519224e-01,-1.776240690361352015e-01,-2.104258773923420311e-01,-1.201726565097422511e-01,1.861949869102581256e-01,5.959551374911749994e-02,2.554524738976120535e-01,3.735554122484083250e-02,1.908477933543965277e-01,-6.765932813910392751e-03,-6.699662827165039913e-02,-8.293253792332150320e-02,-2.005655588904872444e-01,1.592184028033689913e-01,-3.890263368969266999e-02,4.090448755171330309e-04,-5.499229226043658020e-02
-1.131902466350771658e-01,-3.380624137690843578e-02,3.303306354162614117e-02,-3.463436894352477091e-02,1.824646196419505151e-01,-9.725681487175873163e-02,-5.904611302181461685e-02,-1.297214593480634781e-01,-1.152015239769016014e-01,-1.411637673340666692e-02,-1.009850443453682717e-01,6.630426525020538531e-02,-9.467645304177266241e-02,-1.332400846769208648e-02,4.837335304089564192e-02,-1.119223963122484289e-01,1.632940058389309723e-01,2.675455235382491748e-01,1.855610897073145249e-01,4.470064163559112763e-02,1.717735433760736452e-01,1.191683284421320016e-01,-1.909368900662499480e-01,1.745908722068939892e-02,-8.933933514920325281e-02,-8.434148144001267500e-02,-4.801967928638308653e-02
1.372738998207292394e-01,2.849787124836796262e-02,5.210091809239107696e-02,2.653738445124074197e-01,1.246876292453690449e-03,-1.362277464607803967e-01,-2.086844386904519733e-01,1.065887921118863352e-01,-2.611801284043562821e-01,-7.322674824337013777e-02,3.320108383863035750e-01,-9.198765367940914262e-02,3.654454227679044404e-02,2.753446632536522137e-02,2.559452721002764553e-01,-2.327601033343048853e-01,2.647412293322010113e-01,9.378786153711581031e-02,2.900852437909615666e-01,-1.426864642288125373e-01,-5.296231072600834228e-02,-7.633152232790213487e-01,-1.476777700613388367e-01,5.496472083528967933e-02,-2.437637277177339117e-03,3.602219634292408434e-01,-1.933435389591352804e-01
6.930229845333372996e-02,-9.449065456326065371e-02,4.706500269919465518e-02,2.229776494753501481e-01,-5.994569590524759239e-02,8.914675830370338838e-02,5.039545390786755868e-02,-1.363209866083694120e-02,4.818247897584591877e-02,5.967704902267983308e-02,-1.926678393152473634e-01,-4.115864837545957222e-01,-7.861394415955778869e-02,8.749769306082803844e-02,-3.480117982692831208e-02,-1.316419885421265916e-02,6.660652765295084488e-02,2.929483111712767596e-02,3.394883352194034976e-02,1.795945926734004994e-02,3.156895125065073415e-01,4.833840596643335097e-02,-1.531964873719400544e-01,1.250021770333214211e-01,-1.237798730090643312e-01,3.033116826782711328e-02,-1.923373566976750437e-01
1.273983438434363735e-01,6.891972752816240277e-02,-5.843362337842371301e-02,-4.571494135338182579e-02,6.043947215671935380e-02,-7.965366308714295907e-02,-1.233226104170337054e-02,2.794015449914225013e-02,4.361838226862588264e-02,-4.126323426076018014e-02,-5.041694825452203849e-02,-4.642226278016828474e-03,2.875896292496313636e-02,-1.020651570514030104e-01,6.265918643203476253e-03,2.373852217829203540e-02,-2.136099702350794521e-03,-1.255197798367549411e-01,-1.899100976910584812e-02,2.122667783728170998e-01,-7.559900359465959729e-02,1.307473004175366549e-01,1.033144257327894833e-01,-3.032880484491431647e-02,-1.274646729477817708e-01,-1.787092926249564950e-01,9.846649161880342838e-02
5.763688066978951696e-02,3.006343952061777403e-01,-3.733522792595673767e-01,-1.806727014848623913e-01,4.151039946480948595e-02,1.492197025528465282e-01,1.721350998977911884e-01,5.621486876240047031e-02,-6.442330905104798333e-02,-1.906269803851166622e-01,2.436374236472430566e-01,4.949482433001985149e-02,-9.129309799976316475e-02,2.342490867605273863e-01,-8.923657147751737351e-02,2.264498419362448722e-01,-1.691808088818846922e-01,-9.162543378906337632e-02,-2.302200713683849320e-01,-1.501161730358417934e-01,5.025453961028757410e-01,1.027413479317531020e-01,-2.626287036263864061e-01,3.048391221512964516e-02,6.010364431837399851e-02,-1.460749353813170226e-01,-1.753201603811057885e-01
-5.954619430498631766e-02,-1.182305379934075334e-01,1.019260660315019287e-02,-6.012981312393980010e-02,2.316123871142177978e-02,-9.914067266556786384e-02,1.409167978868818283e-01,-2.554746758163676801e-01,-1.670348355589864608e-01,-1.946163365813546597e-01,2.143006946220828990e-01,2.056251971903502451e-01,5.771670751077012662e-02,4.404006318275270095e-03,3.153273016628599934e-01,2.623682980376049884e-02,-7.395533600666871765e-02,7.310676691084790069e-02,-1.128253641235756194e-01,2.885194517786450752e-01,-1.509411442439249351e-01,-1.169255969716940513e-01,1.330685764207923116e-01,-2.989851878829916654e-01,1.021268486372666484e-01,5.050906153299602325e-02,2.562938473394341370e-03
-3.708285988491296595e-03,-9.214896958642745939e-02,1.165091423302605789e-01,-2.273697815013883683e-01,9.003670406563896167e-02,-2.573366483760637993e-02,6.662688934013968889e-02,-9.382019458471999029e-02,3.144215249713264854e-02,1.362332327405748472e-02,2.084754531938485395e-02,-1.144890269216265570e-02,-1.853873649707945409e-02,-9.222844570906968409e-03,-2.212104005511491417e-02,1.653846186317061567e-02,-3.921401637071184054e-02,-3.104465158598927223e-03,-4.104703538676933439e-02,4.279813436619407663e-03,-1.292604068657777876e-02,-6.018407470271662507e-02,1.209023921372988364e-01,-1.209729982299674080e-02,-4.588389931735058214e-02,2.174925472408094085e-01,-2.383978334462356560e-02
3.353880033439508596e-03,-1.121976967170369571e-01,1.438663796548890761e-01,2.481890569054780171e-01,7.097787834001192953e-02,-2.044431752313375372e-01,9.873856234224134831e-02,7.676621361809060629e-02,1.253329816068025071e-01,-1.118434877697067342e-01,1.359118544307474363e-01,-1.466524906760746094e-01,1.850058873456348479e-02,-5.395373028393242454e-02,-6.408938662587118640e-02,1.050915327184976794e-01,-1.341367801575574503e-01,-6.851460319425121959e-02,-1.531545244537191753e-03,5.222215949258886963e-02,1.064052810281055222e-01,-1.240387269550119465e-01,-1.948695204366785450e-01,-9.337775347462315412e-02,-8.147852422248759441e-02,2.507337565816439295e-01,-6.084878367406904541e-03
-1.963823026631710544e-01,1.548256080263537282e-01,7.215920935939641734e-02,-7.447562365648183191e-02,-1.513133462398645775e-02,8.880412057082406885e-02,1.957184117354597297e-01,6.799814290131224979e-03,8.986888049547317459e-02,-9.408801514031924287e-03,-1.170860382204800682e-01,1.253130882552974945e-01,2.218405682052174838e-02,1.098770856374007010e-01,2.205984567530813734e-01,-7.830015390772419870e-02,7.497652943938781789e-02,-4.142500890731902197e-01,-1.671341700205074554e-01,2.768551361897920726e-01,-9.461072778036982989e-02,2.759344881485041243e-02,1.695880721700735727e-01,-3.132693952121216041e-01,-1.413013461364410472e-01,3.361175451577697731e-02,-6.538799255454148807e-02
-2.743877173380431314e-02,-5.293866374272137307e-04,-1.222040674869665916e-01,-3.783611684637776945e-02,1.071494553615992690e-01,2.130053951710675353e-01,3.285819825780454673e-02,-2.074644064056019033e-01,1.060639465595312886e-01,-2.378310843797866447e-01,5.743431104136009768e-02,-8.805536205274818937e-03,-8.946161462687081400e-02,-4.032705737148173375e-02,1.188415789370548120e-01,1.017287208153768302e-01,-4.118876698642798817e-01,1.812623292361542904e-01,1.830069844847114491e-01,3.790375773879800514e-01,4.365026997749766463e-02,-1.294538256988957137e-01,2.130219715438755324e-01,-1.498615709346587666e-01,-3.005543285667474848e-02,8.457469368115844155e-02,-3.122788367408826926e-01
1.337677942350557758e-01,-5.456184297436588587e-02,-7.156934082809282560e-02,6.152957239834074693e-02,9.620076165799396756e-03,-1.165118121332660295e-02,6.013783092673390812e-02,-1.969889348308299371e-01,2.914642909066871707e-02,-1.208691037297544985e-01,-1.619087029397281441e-02,3.226342316995405302e-01,3.553232125550296328e-01,-1.841926373974516751e-01,-1.353241258199670838e-01,5.248793592521321799e-02,-3.119035580675996733e-01,9.359176029434959632e-02,-9.920955110567007684e-02,-1.934249857228186043e-01,6.212175279173492819e-03,-2.345987334958264114e-01,3.575731481468952810e-01,-2.204228624865136599e-01,-5.769827588953816561e-02,1.092431311067006972e-01,2.977459385632640343e-01
-1.434586218531377355e-01,5.892878675094161134e-02,-1.862658744844665482e-02,-1.834106784315175098e-01,-1.205987973061287827e-01,-6.202756136968969047e-02,-1.454975275839172910e-01,2.971649365571274459e-01,-1.710965570297170169e-01,-9.481489355725616908e-02,2.508507484161796031e-01,-1.099202904938218206e-01,-1.221187012996515081e-01,-7.426557690967416914e-02,1.491779447799859992e-01,-5.659991368951938079e-02,2.951614646722642843e-01,-1.739758050819368573e-01,3.254266057037457083e-01,-6.606202430209463794e-02,2.259759168847055855e-01,-8.886856289581546164e-02,-2.975189727656606803e-02,1.711405715797033600e-01,-5.675665187645541343e-02,8.730852102830163755e-04,-8.522008213771671559e-02
1.495722519939655382e-01,-1.101193189997668742e-01,1.305301758784523924e-01,1.454661724149519490e-02,2.062866614531090256e-02,3.045317445514910543e-02,-1.071574512599611367e-01,-7.798965308052972778e-02,-1.042869240218236571e-01,-4.038684722153709772e-02,-9.567249018177682862e-02,-1.304713087852396036e-01,-4.611349680341444296e-02,-5.948419779247370552e-03,-4.386812204691590417e-02,2.788810820777056637e-03,-1.037128774903367523e-01,-6.055953429730025206e-02,2.186320523588302644e-01,9.462907652211474674e-02,2.404229967530691764e-02,-4.827105036056661413e-02,1.955734808822765791e-01,3.199995732389460806e-02,1.634069447066009428e-01,-7.091642705627600185e-02,-5.557482335275630569e-02
-6.746982820063096575e-02,-5.729399985219026797e-02,7.200667194802398696e-02,6.602276968143693274e-04,2.407615258980783657e-01,5.300977688174399877e-02,1.708576573683957545e-01,-1.045309405158374449e-01,-1.732996932214754815e-01,2.298370450073703442e-01,-7.633485433260801811e-02,2.875320586935187217e-02,-2.148634981333631955e-01,1.138262113841372325e-01,4.831614873054666109e-02,-3.010941583227457266e-02,-2.282029055896939995e-01,2.827640273008121680e-02,1.724591336376168071e-01,9.081712595048255926e-03,1.813049058647256129e-01,-4.376467283282501827e-03,-1.479557339523742410e-01,-8.164049706932902106e-02,-1.553809416032338880e-02,-2.977014454214287342e-01,9.650146740340495577e-02
-3.129344219259860838e-02,1.296859613550652157e-01,-3.026927637134639235e-02,5.854965784934976908e-02,5.148301787534108331e-02,-1.792858333327600195e-01,-3.979016943547116630e-02,-7.203319476042599478e-02,2.225624545204503424e-02,1.646423167113412675e-02,9.363932489534981807e-02,9.929745578066741241e-02,1.772442132406514825e-01,1.376512376856464381e-01,-3.517520348982998424e-02,5.970053476518567825e-02,-2.348807058125737361e-03,-1.825789539285857799e-01,-8.418258472125571268e-02,4.544298152911629973e-02,3.461632390911982826e-01,-8.286971028336946599e-02,1.622255109207703938e-01,-4.455771464530829951e-01,-1.489262567283369532e-01,-1.198768434616014344e-01,5.759629113768963138e-02
1.784921042633333399e-01,1.983301152254204197e-02,-2.557052615591877756e-02,-8.579166814681782327e-02,7.792796767047047157e-02,-1.374566532110417794e-01,-1.629762065876932606e-02,-8.957578620107540732e-03,-2.822322874440921434e-02,2.553024891073873634e-02,1.794682883082401870e-01,8.632039439888440982e-03,1.166993566675884053e-01,-9.399015601474566481e-03,1.004066678291207215e-01,-2.408237345173207256e-02,-1.161994907485501272e-01,-3.060585893937985830e-02,-4.045568845518845991e-02,-1.496055663214582443e-01,-9.155437596117881049e-02,4.512289713025969054e-03,1.414632083179583610e-01,-7.884987256838303649e-02,1.502261779639808559e-01,-1.916713309850966995e-01,4.438902303694513413e-02
1.506921709540169074e-01,-2.705043773894743042e-01,-5.450603706026976858e-02,1.754829883630618648e-01,1.047755120808136625e-02,1.502228324342597121e-01,2.644840777009909161e-01,-1.416487132870760668e-01,-3.572395145664612470e-01,1.722992602724019717e-01,-1.781141584326791372e-01,-7.335129351372352002e-02,-9.809289032689733415e-03,-2.235649676795332247e-02,-1.006203119050474853e-01,-8.504617413358127320e-02,-4.697362563111699002e-02,-1.209788230255045283e-01,8.496061621740265413e-02,2.820257640289232093e-01,-1.313126914124665423e-01,-2.247412185449871869e-01,1.243792061272286538e-02,-2.802162620587704892e-02,2.932005615717410141e-01,1.100993485257639737e-01,1.440132402382915122e-01
-1.569453740537494202e-01,2.472652036259109232e-01,5.993337437802405410e-02,-4.950575028933396071e-02,-1.026443370033861546e-01,-2.761230721546806821e-01,1.874787734175436260e-01,1.964639920694549041e-02,-2.182559199809311068e-01,1.364404612244847492e-01,1.506654785038571420e-01,-4.369161738051196009e-01,1.075204843696950935e-01,8.644790628667314847e-02,-1.713165106291473505e-01,-1.839625433158439127e-01,-3.412518702916815527e-02,8.898814361753698554e-02,3.804256845958330358e-01,-2.795028161622689633e-01,1.725999800568950027e-01,1.294929112101785573e-01,3.473283336746548211e-01,1.385169826730396903e-01,-1.683706339257050044e-01,4.626244173970522726e-03,-1.510071188752449278e-01
-2.472782876503628602e-01,-2.471305698963447428e-01,1.384550617263720362e-01,2.771331057896805339e-01,7.706200261091129822e-02,6.438489030920870049e-02,-1.839743055407810218e-02,-2.395671697953111190e-01,-2.543242167287231015e-02,-1.040735227797874723e-01,5.705567144763603465e-02,-5.200953995456375489e-02,3.987864768854074843e-03,-3.147784754420152042e-01,3.415815632121065731e-02,2.041318005877855724e-01,3.829131959045759676e-02,1.410066047657904109e-01,-2.081106118399191907e-01,2.354328910816515519e-01,2.588049603505710589e-02,-1.454564707934568046e-01,1.290613833181965264e-01,1.849783669495921878e-01,-3.125381180427245220e-01,1.718411558800160555e-01,1.007002596555175988e-01
9.671620465219764318e-02,-1.094869115841399926e-01,-2.671662850147884516e-01,-2.189217183233332833e-03,-2.465276313039026918e-02,1.646778859172789711e-01,1.031186724674305333e-01,-2.385276981225954024e-02,3.924825646981671551e-02,1.238466381461680033e-01,-7.896525868042585106e-02,1.617920213476770341e-01,1.661387736649442004e-01,-2.913685530268664281e-01,1.074934977026760774e-01,2.065994806019368912e-01,-8.172502955223001631e-02,1.980433262463886235e-01,-2.689519593375723217e-01,-1.279936892003028792e-01,-5.052793251771806743e-02,-8.926406197318249858e-02,-6.535224490583114998e-02,-2.912836397881883935e-02,1.031503858098343010e-02,1.846035862143324824e-01,-6.008228183386403465e-02
-6.865455265859547740e-02,1.326253779963509349e-01,1.102864348565173458e-01,-4.176279278546971702e-02,2.902976427566767922e-02,2.321595500318078542e-02,2.491556523481316676e-01,-1.618871570265891791e-01,-1.191525252062425461e-01,6.183114222964305323e-02,-3.862611449941488750e-02,-4.960923074571879643e-02,-9.486266686644523327e-02,-2.277263414883404918e-02,1.772618062246499315e-01,1.103193690783533798e-01,3.004729417579689310e-02,2.291906173251954948e-02,-5.307969180043849849e-02,-4.821729532397350110e-02,-8.804275784567593133e-02,2.165641974649565316e-02,-1.122284891197653373e-01,-2.463443451525596517e-01,1.584204692187906882e-01,-8.000226639682610219e-02,5.200707119529753703e-02
5.607050164015606880e-02,-1.106767394593319645e-02,1.560884398493225626e-02,8.393930245571760984e-02,5.762047951714929228e-01,-1.722576347165979127e-01,-1.107722995675773370e-01,-9.210682027041910969e-02,-1.151344577697738514e-01,-2.422994873221512302e-01,-1.607733391751519497e-02,-3.033293635502105068e-01,-1.423806052598587391e-01,-3.749649527492999318e-02,2.007188422248217252e-01,-3.887626046168658756e-02,9.810822522534519419e-02,3.086535103070858210e-01,-1.750527004673058107e-02,-1.853632387641207802e-01,4.896474529099541922e-02,-8.939867692941876054e-02,3.157023384789973686e-01,-4.262635129058903183e-02,-2.264129480132946182e-01,1.891074526600823036e-01,-4.457801515458669622e-02
2.945320787676902197e-01,-6.762701646442059733e-02,-2.228171317024720544e-01,-3.890152053971344670e-01,2.760339854951092686e-01,1.256350487126023374e-01,1.242464902965916829e-01,-1.161092160990347677e-01,1.448654456475770465e-02,-2.318379621030354498e-01,2.053190280757325181e-01,1.372498675167792004e-01,1.302531571118946130e-01,1.895510066173395625e-01,-4.601540610450931962e-02,-8.613441159284029869e-02,-3.612177114030066249e-01,-3.699720806816855084e-02,-9.607934707172824385e-02,-3.999362181472240763e-02,3.170995120383117150e-01,1.471777991757167170e-01,4.132977849473208343e-01,-4.974838966274088281e-01,-1.089951392704076837e-02,-3.774153896850813150e-01,1.823559744463031929e-01
-3.002640237078024188e-01,-9.388502828232241082e-02,4.926069627829922637e-01,-6.733453753040426204e-02,1.127924161450782198e-01,8.004966356961415452e-02,2.242664407231988524e-02,9.466378522545949858e-02,-7.365124022417657290e-02,-8.743851469631901130e-02,-9.870916512613321647e-02,-1.325242167177997921e-01,9.766935417531101560e-02,-7.484600887993200780e-02,-1.655065451043173930e-01,1.084142894850076144e-01,3.469557835690932346e-01,2.029840108411100907e-01,1.740727199988307827e-01,-1.734207770410458593e-01,-2.574840964733508542e-01,-1.056808355376442216e-01,-1.135698279786149095e-01,-7.533310471499064798e-02,-1.702784273145784566e-01,2.292985118783190668e-01,8.377933367060078074e-02
-2.979079180593414630e-02,3.589636167690259949e-01,2.389117738006501235e-01,1.194525765325245431e-01,-8.650712659584373909e-02,-3.812039323048059813e-01,-2.084952393599725506e-01,-3.772310104484927727e-03,3.008151151351147745e-01,-2.593777320840531808e-01,5.909851323816956575e-02,2.027940438824060165e-01,-1.515888056676671300e-02,6.436224780865172634e-02,5.687850115333010353e-02,-6.432533797042581936e-02,-3.251170989718741439e-02,2.433533144809114090e-01,-2.569260855394416843e-01,-1.880078366721625593e-02,-1.218788912217254189e-01,-1.732652453821336147e-01,4.757941635924763935e-01,-1.676310243399655731e-01,-1.774540952929686277e-01,-6.351529119159843306e-02,-1.125436002443886141e-01
9.823060536054516179e-02,-3.668938543293140953e-01,9.687904781035081014e-02,1.830557651176072387e-01,1.498368811748060914e-01,2.515710510144550036e-02,1.840887566608378212e-01,4.638521740751474359e-02,-1.362264563778824433e-01,1.491887565499199764e-01,-2.676072020781691263e-01,-2.916768244334991267e-01,-2.380980015203221778e-01,-9.425385889123967520e-02,1.344179953181684484e-01,8.992400585495187448e-02,2.119829020370854189e-01,-6.636804489577975696e-02,1.226274036901641301e-01,-1.398330069913121705e-02,1.015949710754520258e-01,4.705617427137095965e-02,-1.471703981196498257e-01,5.809581163407444293e-02,-7.284307732073837249e-02,1.017661004084519510e-01,-1.112387077648867989e-01
-2.989719119151659221e-01,-4.498656378882874840e-01,2.145893424432237379e-02,3.075830040340857274e-01,1.342415299317987476e-01,2.011036772143384166e-01,2.866424671783466271e-01,-6.027701605730859113e-02,1.096285357641462732e-01,2.626393622861529775e-01,-6.356866394700118328e-02,3.786499464519746394e-01,-2.179570740379926583e-02,-7.288309228165469611e-02,-1.851506907018474202e-01,-2.529790669125588365e-01,-2.618954324533195877e-01,1.336184710557848654e-01,-2.689881707800183541e-01,1.184755079275844752e-01,-3.874118098795771657e-03,1.139810319033340014e-01,-5.734965726636350736e-01,-1.101214384997033641e-01,3.702525359129772986e-01,-3.556052472628725564e-02,2.060323224614788451e-01
8.660537278414991158e-02,-1.195255636042054093e-01,1.238420016860304479e-01,8.991009579603796709e-02,-1.564659703022338588e-01,2.017073822601365973e-02,-2.867014969381186801e-02,-1.200434346758127643e-02,1.097593042164605043e-01,-3.655851765111547969e-01,2.725650987534775083e-01,2.206688033472961885e-01,-1.860769361531598373e-02,-1.983095872433794371e-01,-1.708263157986489571e-03,3.028191964063356792e-02,-9.582084946301282213e-02,3.781472587870143287e-01,-1.610529235051001706e-01,-4.803296219590030280e-01,2.513469984600701368e-01,-1.584945254891685362e-01,1.576156354956986250e-01,-3.234006097228296350e-01,2.066144984732445622e-01,1.164469057580327926e-01,3.971805714507354451e-02
-1.565572766796797521e-01,1.982447091969379571e-01,1.504629414920820862e-01,-5.029715621583483176e-02,-3.370239660990703157e-01,1.914655757305201433e-01,4.806450694040622501e-02,1.829352379528616790e-01,-1.349352034834742364e-01,-9.370798966763645155e-02,4.352216042726018280e-02,3.479355120326117767e-02,-5.756225569814122506e-02,3.313026148030860374e-01,2.660645555502684223e-01,2.125488347459997263e-01,7.012653636679352931e-02,4.243530683463375697e-02,-1.329603575760386625e-01,1.733002083788409697e-01,3.655186582139229867e-01,-4.515947065204711230e-01,-3.004546362471297583e-01,-1.765217120516199278e-01,-2.217049533899788094e-01,8.560064235381026343e-02,-2.398022998064450739e-01
2.056642498991239354e-01,-4.761722977124422523e-02,3.818372545791004491e-02,2.624512641084473796e-01,9.252190351482583730e-02,-2.374246449772532686e-01,3.129252406022282051e-01,-1.427081920258576053e-01,-9.475169383961231165e-03,6.280703274246310364e-02,7.781823651292583965e-02,1.871123524239749480e-01,1.207243275668576782e-01,-4.379827260803068056e-02,-2.076455886339194645e-01,-2.228154984369865310e-01,-1.616274244465883414e-01,2.561765904183496353e-02,-2.651851065304141053e-01,1.812911843821752578e-01,-2.041151701687942965e-01,-1.104279759962857738e-01,1.477266272428843230e-01,-1.849026617483493784e-01,-1.353755073095067318e-01,1.423268338304475022e-01,1.116532986477686146e-01
3.759363268612906928e-01,1.773563308966397412e-01,-1.852945213632176957e-01,-1.564976200623375835e-01,-1.572540533819583031e-01,-1.142093850622577789e-01,-1.233475389601401129e-01,9.198628366023600678e-02,1.057396562869894821e-02,-1.902263376640145054e-01,-1.107792243479322272e-02,5.606046849888311062e-02,-1.797905006033044262e-01,2.242238552344544555e-01,1.915133884436116540e-01,3.998517030831584274e-01,-1.049512257298048645e-01,-4.957369907015908572e-02,-7.970960616052087666e-02,3.631903454354794974e-02,1.505254363300480847e-01,3.586581207880339128e-02,-1.466564687675951661e-01,-1.714711437060535137e-01,1.040752885468477773e-01,-1.803527040172049900e-01,3.329298496462330947e-02
5.851479086892252823e-02,9.855353565773372626e-02,-1.010067082751836820e-01,1.032817474546488326e-02,8.656335639536254234e-02,1.682895212597644852e-01,7.981240450248541785e-02,7.159318706405892740e-02,6.323665130993641470e-02,-4.954003714113362072e-02,-9.306965840816741262e-03,-1.232706037479073674e-01,5.955720060815556868e-03,1.707665481248641370e-01,1.670127498075428540e-01,-1.026684412498107823e-01,-2.733831772491889245e-01,-1.601124034850797684e-01,-1.478870690519316633e-01,2.237957926688385057e-01,-3.864771848111729635e-02,-1.905133959751949269e-02,2.607851693264858217e-01,-3.288749195353937171e-01,-1.170836809673096585e-01,1.267513728366669729e-02,-1.900767887446930607e-02
1.892030619020524870e-02,-1.210017700536748508e-01,2.093961229522963985e-01,-2.398349745532457958e-02,6.039988397670773002e-02,-4.046144067780271802e-02,-8.986060489509713201e-02,-1.101191735926318194e-01,8.660196218221012654e-02,-1.542020074575386757e-01,6.309151866145963627e-02,3.365875701949559984e-01,-2.066773127522970044e-01,-1.264627378336455332e-01,-1.793007453624350864e-02,-2.946626204404395599e-02,1.057477427308892298e-01,7.047543883382438867e-01,-9.139564398852374760e-02,1.339178253363937365e-01,-3.338751903633228046e-01,-2.391109051252907625e-01,-1.597275036114711444e-01,7.290565329318715593e-02,-3.437898685183796155e-01,2.781934868120083948e-01,2.180357183409043983e-02
2.653396672976629164e-02,4.828288676833590587e-02,-3.102439019179976665e-01,-1.579057462526920474e-01,-1.461853949045620604e-01,9.216461316900734224e-02,-3.995766350982862813e-02,-2.189052209908870228e-01,3.337429189978775856e-02,8.759091260476449536e-02,1.058292044521236541e-01,-6.638553173740320557e-02,3.248114717875769802e-02,5.329525348053442552e-02,-2.544673636870264377e-01,1.923046338148829970e-01,-6.821469260717247240e-02,-1.095584922443349485e-01,5.041733726664733573e-02,1.805359440972393870e-01,2.611465667753996578e-01,8.681749306284526624e-02,8.144800713925039182e-02,-2.138442546797792998e-01,7.687865574621054188e-02,3.122364453222621627e-02,1.413660253264738820e-01
-2.149628637710743195e-01,-1.135367038458326983e-01,8.185677907989266644e-02,2.784543410178950268e-02,5.578524794920888949e-04,-6.457836130010902176e-02,-3.433640745421479706e-02,-1.623395407538258395e-01,1.455176375480621842e-01,5.292122863332202748e-02,8.142757938828808217e-02,6.318738167112904203e-02,1.036596792689138402e-01,7.111335668226632760e-03,8.131747703133393457e-02,-1.829901259075082942e-01,-2.116731812024947035e-01,-1.160507912914944539e-02,-1.434622761908186661e-01,5.070636058358424236e-02,6.029126283848449536e-02,2.335901774237761075e-01,5.180204451711184835e-03,-1.215152472160985486e-01,2.814462161214462688e-01,1.633789231284722351e-02,-6.408182653716494592e-02
-7.193224340310119813e-02,1.424677847561904298e-01,-7.207780768967828045e-02,1.009220186449593937e-01,8.343867049586969897e-02,1.246810699472077760e-01,1.470574791659040315e-01,1.883946212343612370e-01,-9.614530221281683553e-02,1.503757479796924978e-01,-2.845687717433153519e-01,-1.582452525690067335e-01,1.252224630385874171e-01,2.982960832348781066e-01,-1.081932759804126454e-01,9.141534486309181584e-02,5.276842603356656225e-01,-2.734099246964307728e-01,-1.066807937548361167e-02,4.554659263513469863e-02,1.031987307535389281e-01,-4.528197978510185157e-02,-6.811055900836260335e-01,-1.315105002436214587e-01,8.712563936707334866e-02,-5.856001760604319095e-01,2.820097838002691426e-01
2.756783506237763803e-01,-1.821245246621631397e-01,1.206101949802466100e-01,1.789714368885083062e-01,-6.408225158138179667e-02,2.475629111526745918e-01,2.818378304875389095e-01,-5.087159752013582781e-02,6.590777581505261051e-02,-1.376005495269897461e-01,-3.813501469829264079e-01,3.234497930744898442e-01,1.153773366700519554e-01,-3.345505598502134803e-01,-2.051159159073870086e-01,4.663938514870049484e-02,-8.125663385985217035e-02,2.577071590148737323e-01,-1.016146820602213396e-01,4.390373527125080999e-01,-7.537217986507288581e-02,-3.091108594424524236e-01,-1.921415818749167004e-01,-2.348023833187065090e-01,6.784242848709681750e-02,-2.981514331286536090e-01,2.463605776695329264e-01
-1.546426824900394015e-01,1.139653720933669623e-01,5.875786511530340511e-02,2.200485141793819266e-01,-6.076947725850202764e-02,8.041108748414631247e-02,-6.240780198653089229e-03,6.734642611375678267e-02,-1.817837152783980115e-01,-2.551436070061835482e-01,1.797112679649404965e-01,-6.636376638802180539e-01,-8.750436420547187677e-02,1.531744939010851181e-01,-6.737983460986074480e-02,7.523538518121880569e-02,8.945926708528741111e-02,1.859037929633541864e-01,-1.480408012963401465e-01,-2.073445885970550406e-01,3.226901753143736618e-01,3.803448909723656235e-01,2.729270582568614212e-01,1.180860645658484420e-01,-3.381864818168833775e-01,1.907374068724221328e-01,-3.204907667805234062e-01
2.368043447455450701e-01,-1.844889206892995348e-01,2.549537340710397171e-01,2.820768075871197822e-01,-1.181560050004521779e-02,2.026791322562215003e-01,1.218005424057546360e-01,-1.598854011809833220e-01,1.296674395754566222e-01,1.583398738412818488e-02,1.019512263258045143e-01,-2.745210208849359623e-01,3.609089747624090183e-01,2.076370533347523042e-02,1.725008066743799820e-02,3.991937802680881053e-02,3.101103799097162939e-02,1.704158287613203038e-01,-2.691405502924267834e-01,3.788498038630667974e-02,-2.966523170119079178e-01,-3.231661359134797573e-01,-1.752509128851257314e-01,-2.525183285230999664e-01,-1.476917518049956912e-01,2.916967801342654903e-02,8.971224417354767278e-02
-2.972491848366070125e-02,2.024894721204309189e-01,8.772121285559503906e-03,-1.322429301204658403e-01,1.257941225267122098e-01,-2.373105004358638803e-01,6.068210856599155767e-02,1.272568466647770180e-01,1.780394026808335972e-01,-6.873917820780310606e-02,-2.208700811761457605e-02,-2.018873754297888512e-01,3.079745497520798569e-02,7.326929692281854145e-02,4.055128665401958044e-02,-8.397122675054165264e-02,1.650504258816692105e-01,-9.471433674526090474e-02,2.680369104863107865e-01,-1.507990281021127643e-01,1.134784265018965316e-01,7.991852242191156697e-02,-7.878569815534428034e-02,-2.964095901372519326e-01,-1.255275519652551131e-01,7.821833028651352382e-03,-4.094237416446799838e-02
2.117174609433656318e-01,1.523928069124043036e-02,1.028915748815603104e-01,-2.689499021398056300e-01,-1.797261304645237645e-01,-1.884741589071276813e-01,7.689853632479162759e-02,-1.974762259703724543e-01,5.193138312844398745e-03,2.171442504298533027e-01,2.968234598636438348e-01,-1.783077640627121485e-01,-8.012656643964029268e-02,-1.201957558311115559e-01,5.722000931904299564e-02,5.855872758858191029e-02,1.485472420097747881e-01,-8.825234015862327974e-02,-1.353215446125546340e-01,1.192682996863648898e-01,-2.882393132692597781e-01,-1.352159999226521525e-01,1.153795745488278568e-01,2.333755452668965225e-01,-1.408695398838213930e-01,2.991356773152689663e-01,8.582864389819604492e-03
1.787157403112480669e-01,-3.808485360531307373e-01,2.794359220843904007e-02,-2.229445122355655159e-02,-1.183137579329953670e-01,1.278035414455166163e-01,1.983890987911398618e-01,1.204561855466612375e-01,-9.044760576908632407e-04,-7.786487583461867978e-02,-3.908996817386496958e-01,-6.426231203913831957e-02,-2.323073690487710008e-01,1.212702235723260302e-01,-1.217360958217585387e-01,-6.235535802642170472e-02,1.790241213613117388e-01,-4.021291068378258782e-01,-2.180917185259789726e-02,3.089131152066371122e-01,-5.171592589913202864e-02,1.913891273607984389e-01,1.565348273182148864e-01,3.664394031457097189e-01,3.620306241665098568e-02,1.471598766458396407e-02,-8.721489380877274489e-02
1.363234632525058276e-01,5.081792305379103508e-02,4.205042876723385503e-01,-2.263633837697733298e-01,-1.960695578281009543e-01,-1.015687763939562699e-01,-1.445711251924276519e-01,1.441592181250265885e-02,9.520372152976644409e-02,-2.187298249640854120e-01,-6.072492030311103794e-02,1.119171309722704136e-02,8.981390262010679332e-03,7.115155968796721409e-02,4.163391297608220326e-02,-1.221910537498982902e-01,-1.089736016362961024e-01,3.244511845266094263e-01,-3.192449494011530969e-02,9.837963442563435468e-02,1.990130279882433573e-01,-1.018309855568065997e-01,-2.246703125397626621e-01,1.910544489658576317e-01,-2.036684903374921529e-01,9.308118994523742473e-02,-1.635786127760377462e-02
-2.706853508598888042e-02,-2.367178795392205493e-01,4.891878280431169457e-01,-2.642872139679592128e-02,1.557107790488562737e-01,-3.403790036926816753e-02,-3.956021560073409993e-01,1.323611739257744280e-01,6.949428067384711971e-01,-1.851346606988906462e-01,-3.500317262047156729e-03,-2.299922101638941230e-01,7.839741065866559500e-02,-1.205691133587499797e-02,3.011594681332949164e-02,1.196881263617372362e-02,2.673509978824624156e-01,-1.870513079733039929e-01,-1.208346808391309868e-01,-1.388967370332090390e-01,1.657513857919630518e-01,1.921441317481358546e-01,-1.293339103617503760e-02,-1.451730018287518409e-01,-3.919256930484563139e-01,1.111334020585293680e-01,-1.807815395108956502e-01
-3.895651123988724818e-02,4.695870383451879876e-02,1.132388814121492171e-01,9.256546231478388065e-02,1.307330505784947416e-01,4.045893610099750987e-02,5.480045809216075453e-02,-9.439526871697612176e-02,-1.356313515982371098e-01,-2.646622378003068432e-01,-7.693275347014950916e-03,-2.170245521750776771e-02,7.328593650760684142e-02,-1.121281627767541089e-01,-6.195536099301016120e-02,-7.674488005798504875e-02,7.389920134143219965e-02,1.485378372561764193e-01,-1.019208767482334688e-01,-6.725201133991358035e-03,1.350448292759601904e-03,5.996013185196517187e-02,6.918113858313808262e-02,-5.112163813530001821e-02,7.568735780049846984e-02,2.472183466556574991e-02,-1.975648737686805378e-02
6.804928224603912744e-03,-1.298133147702188184e-01,-2.077854310979478925e-01,1.172946752960477429e-01,-7.485771665044582690e-02,4.876620509356452970e-01,-1.614903882957977321e-01,1.025655390964997915e-01,3.019738751376079278e-01,-3.293576871326103772e-01,2.499892346828742201e-02,-2.205345168068716388e-01,-3.110196623154455886e-01,-2.288229827785290549e-01,-3.813625498433313894e-03,1.172194523525447452e-01,-1.593001095838364814e-02,4.206756755973192069e-02,1.457052645946013691e-01,3.758435519568513461e-02,1.944904801874437206e-01,2.799900951796231996e-01,-3.686027912100636739e-02,9.830892203935112650e-02,9.732898286697749812e-02,-1.758260785563777739e-01,-1.855758161376871995e-01
8.019239810097524013e-02,-2.783934000458172520e-01,-2.388246092357071693e-01,2.544838826217014904e-02,1.045949933240649353e-02,-3.559537022948406487e-02,1.936335533197074965e-01,6.558717113007450639e-02,8.003603738777644028e-02,-4.908904669889603556e-02,4.837643330124091756e-02,1.360060992490678099e-02,-1.209549277616530152e-02,-1.678457823007759725e-02,6.974411131734362806e-03,-5.511940959827463932e-02,6.568204365197641455e-03,-1.926243728930183419e-01,-1.153724862707856957e-01,-5.735539843571652030e-02,1.187672766160546012e-01,1.935044250426802281e-01,8.823609310705127218e-02,1.631764735986511103e-02,2.655899659801450735e-02,3.199461759035009817e-02,3.655871744251981432e-03
-2.552179674041378243e-01,7.192922924055763362e-03,-8.723882276890046125e-03,-2.028542849603545695e-01,1.794757371571098215e-01,-1.955755947400228123e-01,-4.826067328574674964e-02,1.597039433252377405e-01,2.331700650434600508e-01,1.445713575583191801e-01,-8.144899801984758700e-03,-1.847703092378015499e-01,-1.303449161421534330e-01,-9.401008220705026064e-02,-2.633245975212263335e-01,1.996937617630266393e-01,-9.174231446962560418e-03,-1.493131675681885207e-01,-1.298772614341328901e-01,3.287793740008817384e-02,-7.873888533539344370e-02,1.094072280896304511e-01,2.348289173732883706e-01,1.936396373465452958e-01,1.734374632908343983e-01,1.129173948791355464e-01,-2.778842202248964569e-02
9.828372225484356683e-02,-1.551699423293957745e-03,1.539850692593942583e-01,2.557814327204311899e-01,-8.119940953069956779e-02,-2.238196011405553520e-02,3.165521718019010944e-01,-5.025247713997018500e-02,-4.617464152110610787e-01,-1.717267566654182287e-01,1.112399797480804475e-01,3.073100044452036980e-02,-2.954429982244428932e-02,-2.109104733608145599e-01,-4.695783404558931395e-02,-6.667716950795758712e-02,-3.818666154269244606e-01,-1.221832586390926151e-01,3.065640987289415254e-01,1.202432463403080298e-01,7.192292478492152974e-02,2.431427761819925926e-01,-4.293054003658097750e-02,3.108405193843447045e-01,1.187077929235724333e-01,1.895762943446355486e-01,-6.268135945910340290e-01
2.510141621760560438e-01,-3.445067259957180217e-01,-2.346373967108627834e-01,-4.617256994942832149e-01,2.166682918868992613e-01,2.584701364004959520e-02,2.348719714407066783e-01,-1.619027121405007541e-01,1.473157699346541727e-01,6.199044632845035832e-03,2.726387246202258141e-02,4.635466399428154333e-02,2.854764818636128521e-01,1.903539905129449927e-01,-2.781236375286420537e-01,3.345030778750643363e-01,-2.146743194358596840e-01,-1.209173536162735929e-02,-1.481082967473410783e-01,-1.693405938855117032e-01,-1.228712698980121837e-01,-1.241241093780601039e-03,-3.731327318274092752e-02,-2.569677198221756997e-01,3.872479212935021065e-01,-1.538275638796855471e-01,4.614313268949653546e-01
-9.863201982685242120e-02,1.053237159126762801e-01,-1.848011922378878791e-01,9.200031230946439931e-02,-2.026627039584945333e-01,3.159043609275729962e-03,1.421349806931724857e-01,-1.990182787869262393e-01,1.138914840057239780e-01,6.262815597003010271e-02,8.321636771761516116e-02,-3.014540135224198503e-01,-1.978063818073841004e-02,1.126272612748403790e-01,-1.047990566591889758e-02,1.465874950040194913e-01,1.423759010005095638e-01,-4.131203422977038076e-02,1.055448553817267127e-01,-1.296618534555700752e-01,2.213436949318117655e-03,4.175203550694078086e-02,-2.063573186298635620e-01,-1.359154163462009957e-01,3.682225726554071155e-02,2.474469622999851681e-01,1.170202084120631897e-01
-1.443988679398412189e-01,-1.857659838773512984e-01,-1.765027182807278605e-01,8.358488700336656751e-02,2.452870324459593410e-01,1.234018195898963222e-01,1.825840880595619442e-01,-2.385353067982006470e-01,-1.379270112222202582e-01,-2.152520902257321900e-01,-7.785317887095691280e-02,2.155676905776147123e-01,8.238367496798101874e-02,9.892532029820914896e-02,-2.321068641222514273e-01,1.966151788423415869e-01,-1.678347544818339365e-01,-2.926261959949905123e-02,-2.108456131551520452e-01,9.908819347532463184e-02,1.036231543720330522e-01,4.070151051378875090e-02,1.952176635353342349e-01,6.746934859799601225e-02,3.551175720069744447e-03,6.006427564120592200e-02,4.072819416083096888e-02
-6.500340285642372887e-03,2.828562743513248767e-01,2.509152853489836077e-01,-2.185787769584855433e-01,-2.072104771552870095e-01,-1.723763090278357113e-01,-2.165025272573771475e-01,3.552527803176392940e-01,-7.983134706852294815e-02,-7.478189729030627897e-02,-2.613315868568185651e-01,-1.685725423146477164e-01,-1.839932570218852370e-02,-7.789403696490322659e-02,-9.660736573659239879e-02,4.517088225056904022e-02,-1.571846586915308028e-02,1.355943158160375084e-01,3.994796123299340085e-01,1.087695749921152172e-01,-6.067493832623253175e-02,2.792206779672291583e-01,1.320900339964108106e-01,2.677925898657022019e-01,-3.083345064898744270e-01,-3.673235624291056739e-02,-2.116843977947688304e-01
-1.456408692594419740e-01,-2.406488437296408489e-01,3.019001881720821401e-01,8.089069733726031441e-02,5.269874461156900253e-02,1.657763091138052258e-02,-2.054821324850338027e-01,-1.718684477623097506e-01,-1.195463974649681183e-01,-1.393745100452241925e-01,4.197737870734895016e-01,9.990824963627575883e-03,1.679003096676120327e-02,-5.472433391666497310e-02,-1.049708852968876949e-01,-2.760124324815750319e-01,9.952458518771203910e-02,5.722245941158035643e-02,8.528264157297281434e-02,-9.001055721099995854e-02,-2.131398542778107641e-01,4.916449968889360922e-03,1.203397959971253817e-01,8.054275476576909509e-03,2.777063539450363994e-01,1.672804354646768021e-01,-2.229776355370576002e-03
-1.116444311980338555e-01,-7.123539526828844004e-02,-8.219296111342573596e-02,-1.381072142427212102e-01,3.692767710303098902e-03,1.260850833222113831e-01,2.117625273312988554e-01,-4.174782302236674791e-01,-6.553898024930940314e-02,8.820040141647970955e-02,2.278882693434335638e-01,9.804666007485107748e-02,8.892709709841364885e-02,-1.684646439953887964e-01,4.737015605453153561e-02,9.205887138798674041e-02,-1.487169332249865805e-01,-4.830779770096164244e-02,3.886588650954021784e-02,-5.434410193766348041e-02,7.003502420031323950e-02,1.826680968604635635e-01,1.875178198858194756e-01,-8.359477573518470095e-02,-3.280856964716565710e-02,-1.176287027522628231e-01,8.096685173468359809e-02
-3.173554992628712518e-02,-8.586749263388179787e-02,1.509565227839592683e-01,1.054185864157709297e-02,2.900263240850075273e-03,-5.379057990476289464e-02,9.223292352144051021e-02,-4.720240521014244101e-02,3.405996088341289169e-02,-1.624308729430322118e-01,1.205074181319455567e-01,6.723673135373961496e-02,-1.127261591767172652e-02,-1.542130535895037124e-01,-1.084669712160848398e-01,1.149703939694535076e-01,-3.043231585513368059e-02,7.262588381947730765e-02,1.565734400287299988e-01,-1.257865582545532879e-01,-6.010955693997704213e-02,-1.595925643023257956e-01,1.023344564968390463e-01,-7.934306522101750025e-02,1.686543510221007736e-01,-5.279884453996325222e-02,8.114212105418133758e-02
1.931830936269407772e-01,-7.978751334959809094e-02,-8.334085769073221184e-02,-3.927316472098660305e-02,5.119528341793862236e-03,-6.313834753322716820e-02,-7.419510177457543099e-02,-5.789689043290126985e-02,-6.065946785205755809e-02,9.231370761750877507e-02,-2.006394924583587147e-01,-1.132046878087202280e-01,-1.160620827331263066e-01,-1.928028901987307794e-02,1.153957346207465789e-01,1.987646850449086011e-02,4.486725044860836314e-02,2.799073180266252805e-02,2.140212502242785572e-02,-1.758213800486797262e-01,8.569000634238996272e-02,4.803006291189772931e-02,1.776442571141173266e-01,-1.507778244224818563e-02,4.938381598767760394e-02,1.612423201842970444e-01,4.065362888170716282e-02
1.684189301581537623e-01,2.616807167318074487e-02,6.443537905684268430e-02,-1.678698439491247141e-01,1.116071638019607154e-01,8.155193933216958735e-02,-2.087708812177879736e-02,-3.806353766201417410e-02,1.099294556756770513e-02,-2.867867253220685031e-01,1.493023124237294885e-01,9.855832105626982642e-02,-1.827251466642249370e-02,2.109468377920526230e-02,-7.986543307234761357e-02,-2.729216674603323137e-02,-3.762024708699828086e-03,-1.482299100232374045e-01,-1.376753711007342451e-01,-1.133614817877447722e-01,1.632849819422643178e-01,1.896793636867467603e-01,6.699537820612114052e-03,-1.739865719700900981e-01,1.329442253017969477e-01,1.000302006447102987e-01,-7.659384280947814649e-02
8.929574264200710806e-03,1.288455401367935294e-01,-4.470742216137381375e-02,-4.013961287178954840e-02,-3.782650856001986556e-02,1.221476983767243313e-01,3.160707806118781549e-02,6.936454221427695854e-02,-3.072165052303591631e-02,-5.813645998229943768e-02,-1.614572750455174899e-01,1.194937628552491214e-02,8.646795449912376974e-02,-3.921708803935257392e-02,3.857594820522407264e-02,-1.142568511389622761e-03,3.567880952360808627e-02,-1.038993812348306817e-01,-3.254713109763608669e-02,4.988500766771501206e-03,1.365090588678935513e-01,-1.265585121243570643e-01,3.760963869080167360e-02,1.708773264989545126e-02,4.944222613341447276e-02,-1.807730161467622498e-01,2.944073411544545840e-02
8.994475687184157187e-02,1.233575887314670716e-01,2.345180401062681511e-02,-9.498872996617631348e-02,-1.429464749303656634e-01,-1.677141752664958185e-01,7.713065067392012308e-02,-4.133992561295021795e-02,1.825654676731264248e-02,2.256592536298798312e-03,4.684390949229914891e-02,1.375430788146836392e-01,-9.326744736852242423e-02,-1.562007080024929544e-02,-4.034939812626908706e-02,-2.006773276676610818e-01,3.991977464068547504e-02,5.213043950978472896e-02,1.772750152680201141e-02,1.068351752956079453e-01,-1.118142584216075958e-01,-3.233620715195459350e-02,-4.305852809646395357e-02,6.257108910278778857e-02,7.079717298748046395e-02,-2.256804534400092682e-02,5.115274567899166097e-02
1.703575229904287780e-01,-6.541400676519390500e-02,1.055059819384595796e-02,3.228291904798790551e-02,2.403759990071824629e-02,-9.857600392538304335e-02,2.005658244397106604e-01,1.638523311513084141e-02,1.107868255069606178e-01,-2.181859429564364239e-01,-5.438650301781451646e-02,3.230447280405934068e-02,-7.626805077702729363e-02,-1.376750195143205679e-01,6.683610266977221825e-02,9.069411447344336019e-02,-1.162130868246340903e-01,-1.475991262190974318e-01,5.372130849029341237e-02,-1.752621191067581588e-02,-6.816372976186604871e-02,7.223388786452707155e-02,6.909330835748127286e-02,-1.351182197663823303e-01,1.344599111161182414e-01,6.673412676284956602e-02,2.634588146058028033e-02
8.584090160889598642e-02,-2.080121004765670550e-02,-2.272837527435613569e-01,3.038989623861925587e-02,-1.233718187350067580e-01,-2.800286659429462865e-01,-2.686200826390999219e-01,-1.265906853123508480e-01,8.279575281096591965e-02,2.185452690818818766e-01,1.681555275559130647e-01,-4.402792675315826687e-02,6.741097836392451192e-02,3.103227136699629463e-01,7.956593841431927605e-02,3.376799245632794988e-01,-3.842206875834270341e-01,1.331190409724323509e-01,-5.511807749975302512e-02,1.973293826523567773e-01,1.720000818470738269e-01,-2.809153519716570124e-01,1.384145171569013399e-01,-2.704569187033133426e-01,-8.810015427634808327e-02,3.340208030804146799e-02,6.782893909218538908e-02
-2.405171142275880358e-02,-2.093030827464113230e-01,2.823652273492312931e-02,1.342709520039915561e-01,9.145961219284555119e-03,2.503219608970482998e-02,9.346481574858198083e-02,-1.115466006809936739e-01,2.398265580885035071e-03,2.496572681523167442e-02,-1.750375400543625060e-01,-4.374970628607841722e-03,5.754454187833828865e-02,-1.194039971068030503e-01,-3.653816231291611705e-01,2.127350658384952187e-01,-1.142733232784409331e-01,1.739156448539524447e-01,-2.574524213740816275e-02,-1.228710312647589703e-01,-1.520164828897658527e-01,1.538647094298611351e-01,3.573229982570803875e-02,2.221329714261203736e-01,6.796442227061913477e-02,6.794562025345163292e-02,8.544281965463139394e-02
-1.328763334079932357e-01,-3.818841834536266244e-01,-3.043330100754982892e-01,-1.885233488140005548e-02,1.556336540877949759e-01,3.352672501238802005e-01,2.825983701789978597e-01,5.684198631269155727e-02,-2.587636219297168583e-01,-1.024396197251927765e-01,-5.548466925209868256e-02,1.388135149122315948e-01,1.605117501602284537e-03,-4.124043246476983837e-01,-1.316919127538240808e-01,-9.152121900033693969e-02,8.514176709587951974e-02,1.873182921516281310e-02,2.362284792856729210e-01,-1.500908402196491631e-01,-3.149165548920200286e-01,6.592455045852919915e-02,2.332575949411941074e-01,2.981666761455928349e-02,3.212698300178402078e-01,6.555660884668511323e-02,3.091427830623156847e-01
-6.449173024206340810e-02,1.555892019279546054e-02,-3.500285990343433244e-03,-7.775794534161475924e-02,-3.060161112966990407e-02,-3.959239059808888350e-01,1.658271565571058648e-01,-1.307939252776714467e-01,2.430597348355497955e-01,1.021744741180537208e-01,2.751811672360140459e-01,2.518552076256683758e-01,-3.874478006270020147e-01,9.029289596825093578e-02,-4.601621951573681146e-02,-2.180473728453854454e-01,2.904601041828964170e-01,-1.544265830635480619e-01,-3.249754263776373497e-02,5.692641436537980437e-02,-3.088899529545987566e-01,-4.916946801126373390e-02,3.539049114835048915e-01,2.691547911298964105e-03,-1.128019484943525580e-01,2.636708786201896748e-01,-1.035571869066652939e-01
3.511463898274252288e-02,7.290909923351240884e-02,1.091717829289387681e-01,8.452121019903210963e-02,1.066944536568613933e-01,-7.223372714084275170e-02,-2.687809150713937889e-01,-6.016313107535732618e-02,9.673322664309683128e-02,5.022163651588674310e-02,-8.840043190680454965e-02,-1.485209091740743725e-01,-7.030164098773641901e-02,2.959268375996420425e-02,-2.219106353769665502e-02,-3.973253037779703872e-02,2.247558898547447892e-01,-1.341048621815018049e-01,1.526945966505917074e-01,-2.077078539594396922e-01,-1.940942370913655013e-01,1.076585741916171318e-01,-2.134147371194059228e-01,-5.452808262932631184e-02,5.436241258789274722e-02,2.778574649837400323e-01,1.665512576279646884e-01
4.530642140722513506e-02,1.576076034580058127e-01,-9.907252315262295161e-02,-3.524768538285272951e-02,1.039481938146420287e-01,5.878062987773843145e-02,1.572212028793480709e-02,-3.375188579423588076e-02,-1.109666435813032037e-01,2.532937527926218402e-01,7.599136114055650426e-02,2.269705014228362849e-01,1.570490757882506416e-01,2.115480480449726253e-01,-4.446440053158991490e-01,-9.296308191795152331e-02,-8.902460163221817199e-03,-2.188519107809706044e-01,2.546326232885313123e-01,-8.409236574118889029e-02,-9.171659650215592541e-02,1.313817479832882218e-01,-3.687272020870165368e-01,-8.142660860612915830e-02,-3.177311876321323864e-02,-9.329482843859615571e-02,1.332536631775572133e-01
2.237425084412706378e-01,-1.378944683605507482e-01,2.022304688931744199e-01,9.066717244324526068e-03,-1.205536523226867079e-01,1.356787518680805105e-01,1.929443534842916474e-01,1.074758098237839909e-01,1.111811470102235661e-01,2.064071068818269100e-02,-3.505088170946123877e-02,2.099228988604505408e-01,1.892314006591040709e-02,-1.069934803155870723e-01,-7.080210580989826537e-03,1.986675946839219775e-02,-1.592848463703068207e-01,3.878163777339770774e-02,-2.654918146736361950e-01,1.181757851613193105e-01,-3.690695237990696542e-01,-1.262255523592306083e-01,-2.080039759241393907e-02,4.645451653926570973e-02,-4.990551170339628528e-02,-7.609036853612197171e-02,4.024236286444211885e-02
1.416722801904460871e-01,-9.064332351533840870e-02,1.057127274918044785e-01,-2.259688811019167354e-01,-1.869147056052472555e-01,7.788702793663165869e-02,-9.036249249951092133e-02,-5.738835099880539720e-02,1.894023819758977600e-02,5.431919787097515967e-02,1.372508833967724939e-01,2.627757004792557333e-02,1.255514367391317998e-01,-3.779186850534519467e-03,2.686112630092164430e-02,9.660290670127699708e-02,-2.053785826904113709e-01,-2.487122436246049506e-01,4.757242383038745755e-03,-1.192066282711702757e-01,1.159943119680926643e-01,6.721602723944195001e-02,-8.941984957406608203e-02,2.123009407090618861e-01,4.497579176810569818e-02,6.109776085105665666e-02,1.399957427877636731e-02
