-6.489785503859492621e+01,1.966857370381578107e+01,-7.391771214407359025e+01,-3.042634876511055495e+02,-4.404276053025912461e+02,-4.249042071429030898e+01,-6.446410089957598899e+00,1.330782004251546482e+02,-1.554291967560514642e+01,5.710062437588245388e+01,2.023742591260351276e+02,9.356841045690629244e+00,1.669802150162428802e+02,-7.533171424143152706e+01,1.765803299276662699e+02,2.551461212346708862e+01,-2.210686659012926896e+02,-8.523125893693628541e+01,2.749496267958380713e+02,-8.978508384846072943e+01,-2.911094977516507925e+02,4.812584042318297151e+01,6.055077049184357740e+00,7.296099726995632295e+01,3.886680972294488470e+02,-6.133856966005426159e+01,1.904352106196390935e+02
-2.712615266577709008e+02,3.978486896653834748e+01,-1.184586035592171349e+01,1.701054707457422523e+02,2.322666721350894363e+02,-1.130312948291966393e+02,-9.609459820581069778e+01,-3.021187822483476282e+01,7.819913711281047597e+01,1.229388662420031864e+02,-1.711638443587046865e+01,3.072779022604596122e+00,-1.221729788891173740e+02,4.749315861578144649e+01,-8.064953090419547266e+01,-1.106755764006896392e+01,2.215092937976853591e+02,-7.421617071183492271e+02,1.192092673114163688e+02,-1.141614139999870492e+00,1.439846689500155890e+02,-7.490318744100503068e+01,-6.120067153156253426e+01,1.487014059686729865e+02,2.019272938546870648e+02,3.827815366487187276e+01,6.538981921465888547e+01
-1.785319021116878124e+00,-6.473969656545237683e+01,-4.760217388400575800e+01,-1.872098636308717801e+02,-2.014990230882720539e+02,-2.642646258348576183e+01,1.172936036105258921e+02,1.803389380118485121e+02,-1.472501820806392345e+02,1.468195784368442105e+02,1.706744900845594657e+02,9.283359469275289655e+01,3.410090836531982461e+01,-4.240346526926072670e+02,-2.850270035500350474e+01,-1.951718832591476982e+01,9.935674003517129904e+01,-2.805695489702741838e+02,1.589094871633829484e+02,9.566555596337433087e+01,-5.626457062580800539e+01,1.104326918646317921e+02,-1.599119479158125046e+02,7.011023235847314083e+01,3.730564381192302790e+02,-3.742466704689557844e+01,3.314346619092643209e+01
1.845733790185848875e+02,-2.766577742627757175e+01,-3.198426619701892264e+02,-1.430342531612876371e+02,-2.146187332226044191e+02,7.152391615533936431e+01,2.013683835731598606e+02,1.427676561019576980e+02,4.163356976368540963e+00,-1.176354995421106935e+02,-1.959922432477690677e+02,-9.021983009019500344e+01,3.194028299414495677e+02,-1.080372286345481712e+02,4.820020501257450007e+01,2.878249600125207621e+02,-2.218649904343167236e+02,-2.706147709080041750e+02,-1.625875772199187566e+02,1.766322072272048160e+02,1.147157578592560156e+02,2.964321524623899222e+02,8.474644366468142209e+01,-5.789108315199766963e+01,-2.825125822431052214e+01,3.787712267371169172e+00,2.212267801310848370e+01
-1.272213386166918809e+02,-2.067572020657534893e+01,4.805927593772556605e+01,7.716676747243904799e+01,-1.267696033570445593e+02,2.895041793904464953e+02,-1.178692390065881170e+02,-1.083990456371342503e+02,-6.069636647826533782e+00,-1.702915392615534245e+02,4.227657097822643806e+01,1.184258139167859554e+02,2.585203079272083073e+02,9.437910990514286169e+00,-1.616499849753926128e+02,1.441027855202089256e+02,1.941083894904785438e+02,1.950665976996968425e+02,-5.156568865856868200e+01,-4.868515403774600259e+02,1.842938285072941653e+02,2.734883709520633488e+01,-3.814002730140028916e+02,9.559618673224858298e+01,3.163636613762402661e+01,-8.093362693534297136e+01,1.241477520012196294e+02
6.246257647141779046e+01,2.299478946709705269e+02,-1.652004707521729188e+02,3.504813348151155878e+02,-3.795045184850803111e+01,1.108400554320054709e+02,1.989722066903808013e+02,8.304405040777984937e+01,-1.251644700404409178e+02,1.725712114615099608e+02,-1.062935586898020830e+02,-2.292467406512552941e+02,3.795813981543732396e+00,2.024630221542983293e+02,-1.811021852221096538e+02,-2.209915803466478224e+02,3.365670408272421099e+01,2.770828499020416302e+02,-1.174293289333380841e+01,-5.663006866389759608e+01,1.630780137751909251e+02,1.395299660323258593e+02,-2.835971679464592512e+02,-1.735228259365643453e+02,4.678826347590888446e+00,-1.411013671623102539e+02,-3.000616064317338214e+02
5.578804029872227943e+01,6.483945965151882262e+01,-4.906834037868448206e+01,-3.004226844179125919e+02,-2.301817656631745308e+02,1.768153736263481690e+01,5.416784693760649105e+01,-1.506578127685556296e+02,-7.353414307851593890e+01,-6.298699460613138257e+01,-2.340840006826685382e+01,2.083565344007235751e+02,-2.025793415446918289e+02,2.067297537796436018e+02,2.967040943017372001e+02,1.675298656775350707e+02,5.246678157607967563e+01,7.668099290540146740e+01,2.509160256964446774e+02,6.593216889431322159e+01,-7.742687930779653982e+01,-3.834265787786058155e+01,-5.622627879028027564e+01,-2.063193757481133730e+02,5.324161447554493520e+01,-2.133906382535245427e+02,1.135144806096348873e+02
-1.948133076138297781e+01,-2.864739248279637884e+00,-8.439383268655002723e+01,-7.853514041658306155e+01,6.962346919142397894e+01,-9.047098490010010607e+01,-2.511405316296298338e+02,2.338526343579738977e+02,-1.945350522127287434e+02,1.408525515736994009e+02,1.018907106271931582e+02,1.038467751387048708e+02,2.184111688985617548e+02,3.885902180129196637e+01,-9.649059535371721097e+01,-9.771035341719196765e+01,-1.796657937635140172e+02,-1.197916393862634550e+02,-1.245727039935265523e+01,7.519627611373228149e+01,4.038722143112473617e+01,-5.798766659526194900e+01,3.596889936540520694e+00,1.992024898912269748e+02,5.321065125718373423e+01,-7.853181303596873875e+01,8.512957222968671545e+01
1.183104369748593854e+02,6.476715978473274049e+01,-4.545260269710194478e+01,4.880219647296507901e+01,-1.633210567584387007e+01,2.554287223554638331e+02,-6.884266198686054850e+01,9.745582826414195665e+01,8.653511372746216068e+01,-1.100106753575745273e+02,-4.103637983585272764e+01,-1.261853921676298569e+02,2.352352801119210568e+01,-3.202593623330000838e+01,-2.271148053052865237e+02,1.474670152305583031e+02,-1.764344778310963875e+02,-2.842366123485150808e+01,-2.362197269099535788e+02,-1.042266650803700117e+02,1.763631813780719710e+02,7.870854600134944690e+01,-1.572467707412660616e+02,9.928064934314377865e+01,1.205542284064986376e+02,4.303469340448636871e+01,9.316115495742698371e+00
1.135740059626577079e+02,-1.104220238496477720e+02,1.119076087956826626e+02,-2.369422915153285203e+01,1.611507855024304092e+02,1.306348721757374847e+02,4.621933401988822965e+01,-2.676295483066243008e+01,3.454368686019337815e+02,-7.554707631452748728e+01,3.257233280289275399e+02,-3.120983444170380494e+02,-1.565308195571170415e+02,6.402975277079062266e+01,-1.734824004100968580e+02,-3.297627121984328369e+01,1.896999600287909402e+02,-9.561941734259193026e+01,-5.806714410205449894e+01,-2.072209511361421903e+02,-3.487735111680538580e+02,1.604082291369398661e+02,1.905339930796104397e+01,-1.767161266096747241e+01,1.772522438798094413e+02,-1.782221973634187009e+02,-2.800829365873906340e+01
4.085893118433237987e+02,-1.207634112004528504e+02,-2.161231932770066635e+02,-1.721025295703508675e+02,4.621481575110241380e+00,4.395137436981249124e+01,-2.177780302232291376e+02,9.151432471246758382e+01,8.290059719855109677e+01,1.052209285010094675e+02,-9.328634018812768147e+01,7.086319574250420317e+01,-2.276805673613827423e+02,-1.125887107219674306e+02,1.844441739275215184e+02,2.728384087797004298e+01,7.793533532587673562e+01,-2.460136551430217366e+02,2.430261254718573838e+01,-1.008265188712834544e+02,1.603930944999462440e+02,-2.105847867952574859e+02,1.359805963541237759e+02,5.343442952783669853e+01,3.478294386546982082e+02,-2.341410884481993193e+01,-7.810474198647426647e+01
2.086984013553826003e+02,-1.513616563900564245e+02,-7.700041896216478676e+01,3.484477232135181879e+01,-6.699145979452173494e-01,-1.875734109325287946e+01,-8.589256883328793890e+01,8.794901323279547967e+01,1.008379288480946201e+02,1.226969176284920451e+02,-4.634866072872197407e+01,1.165953242161938448e+02,1.984768942018823878e+01,3.199265573709207189e+01,-2.466563013312670094e+01,-1.532486922145069173e+02,-8.563724504810151794e-01,-9.479362059433491083e+01,-9.863238305813840157e+01,2.505217383847796953e+01,-5.753173409953015494e+01,1.759472683617563291e+02,-4.524670901648865851e+01,-4.582175556075113576e+01,-2.186696356211839642e+01,-4.012964035194592327e+01,3.836462817570067330e+01
1.100939861956543524e+02,7.947226870676081134e+00,2.080357603774735367e+02,-1.052737552498435178e+02,3.262068083032130517e+02,-2.429752305230962506e+01,2.188454208027331660e+01,-4.316513754681023052e+00,6.399777482509779247e+01,-4.625202062002268377e+01,-1.461463187964394592e+02,1.255793240596625111e+02,-1.949457998919493207e+02,-1.384562447480859362e+02,-4.807042467373373995e+01,-1.877242262328213940e+02,2.895982935746472435e+02,-3.756513420103403860e+02,2.306340216869338917e+02,-2.740997683323037837e+00,-1.279758194636105344e+02,-6.551018900631397912e+01,5.507152066127158463e+01,4.050157230656778573e+00,1.117222246736515778e+01,-6.361835187699199423e+01,7.670381416207249003e+01
4.123561955003427215e+02,-2.545697856463338553e+02,-5.629966831449921472e+01,-5.813397552115315392e+01,-4.500970758017752260e+00,1.126391636166063961e+02,-3.356204915149826551e+00,-2.416225448475608317e+01,1.368850191344510563e+02,2.623186580805427681e+01,-2.299080758442809724e+02,-1.705743528425423250e+01,-1.231075459203578220e+02,8.193056955638503780e+01,-7.364463466914187961e+01,9.586775910862203887e+01,-2.971460268468390353e+01,-1.619166801474706574e+02,-5.392927906943344141e+01,1.074952564110461850e+02,-7.113934542396542327e+01,3.242101381108549276e+02,8.665410449760352662e+01,-1.994089313278209943e+02,9.769334143207049692e+01,-6.200465959700147778e+01,-5.910249558555971561e+01
-6.696648932293150835e+00,8.254354908535241009e+00,-1.624022447890874616e+02,-8.930684816473923604e+01,-4.204448436890937302e+01,6.001307739086026771e+01,2.583111172425760174e+02,1.453489777905953417e+01,-7.106779986035314778e+01,-9.743883736566029086e+01,-7.143429127512385435e+01,1.163578368618193615e+01,-4.418064255205309365e+01,-3.547952040682235264e+01,-9.842118676912031106e+01,-1.616021007170969597e+02,2.856432507390455839e+02,-2.359740192106376639e+02,1.942879546088935001e+02,-2.090591950877612817e+02,-5.057927778311113087e+01,-1.479125484641351989e+02,1.149121478367402815e+01,2.069394532435601661e+02,1.773509040948694064e+02,8.220668439044278841e+01,2.129344804871138592e+02
2.031767680524717434e+02,6.645826242216850233e+01,1.987054760802247699e+01,-3.158000017846466676e+02,-1.240811066227690560e+02,-1.348221876602680140e+02,-4.522956486327432231e+02,-2.132359224220437568e+02,3.942427743310049095e+02,-9.589981905509338844e+01,1.265970255293528339e+02,2.884090394375955491e+00,3.416753922086867306e+02,-1.560636300692076261e+01,-2.074479425743849959e+02,1.607616486916757879e+02,-3.169160787737665714e+02,-6.625898528827893585e+01,6.166370878759160945e+01,-4.199950086824115374e+02,3.926019588270137319e+02,-1.037515021617893574e+01,1.436554129591450817e+02,4.623456663354081115e+02,-2.485835744108287599e+02,3.766748063614886064e+02,-1.312871541869407963e+02
3.799326058650256073e+02,-1.866053708371721598e+02,1.410561391038912120e+02,-2.453050122427193287e+02,1.570976340939515481e+01,1.384172793758633873e+02,-1.589817263638898055e+02,-2.301271758430837977e+01,1.016132733696706225e+02,7.502016270058842906e+01,3.900928605027734619e+01,1.634107055843350054e+02,-1.537258607538416300e+02,2.172921422748840428e+02,2.178685668613156565e+02,2.765794884653804786e+01,-9.959736962413612105e+01,-9.108215344563544136e+01,1.649739738806660512e+02,-1.995730476954381345e+02,2.722242558852142835e+01,8.721524671722744415e+01,-8.714182058846738244e+01,-2.690714060895968487e+02,4.425458129009984987e+01,-2.293630539574833165e+02,-9.718675421391840530e+01
-1.244858281485211080e+02,-5.911529998363175942e+00,1.589074078394264973e+02,-1.284082208126223179e+02,-4.105418427469398068e+01,1.310498257351008222e+00,-2.386742059262908811e+02,1.208017410569096342e+02,-3.401242839038890224e+02,1.902110158902988957e+01,-7.938498673235975467e+00,-4.657198872254380717e+01,1.723861505343519980e+02,-2.573619684757848063e+02,8.795798970301068209e+01,-9.967304835750093162e+01,1.063515670263370225e+02,-1.637454566500587418e+02,2.567848604626973952e+02,-8.001662248677300360e-01,6.901824203281563541e+01,-1.261125761225397639e+02,3.050436209406586130e+01,1.414156121660197698e+02,2.294970989588210273e+02,1.301739924379314459e+02,5.672481574959702755e+01
-1.186103187860210184e+01,-4.947744239466780414e+01,-1.744869194779783754e+02,-3.037682072742799733e+02,1.769802396019096875e+02,1.960597828545062384e+02,7.664909859384810886e+01,-5.348265978498669426e+01,1.627498623595964489e+01,-9.398740573679161514e+01,-1.539784454379426677e+02,-5.987095823014540485e+01,-2.075458877624948855e+02,3.836187766709379332e+01,6.490122604113305727e+01,1.470332104296133764e+02,1.112717791072279425e+02,-6.553293096289337427e+01,-1.514339611534255994e+02,1.194329693267820289e+02,-6.153297088464976383e+01,-1.253637129089729001e+02,-6.363627087380120884e+01,2.507532505893752273e+02,1.935524898814303185e+02,-4.408421881281559251e+01,2.287682557115043664e+02
-8.217145091471911655e+01,-1.575990536462708178e+02,-3.156064461187597772e+02,2.028921046561505364e+02,-1.493004062557837699e+02,-1.413607899339283165e+02,-6.437729885003903973e+01,-2.016813151410102307e+02,4.536995963664818277e+01,1.770955532197979210e+02,-6.612339242228222247e+01,-1.414744325688315598e+02,7.864440386104489278e+01,-1.538255190364638167e+02,5.719511347586735184e+01,1.299954141875441849e+02,1.514179027621053386e+01,-2.320833931803448991e+02,1.559379038264672772e+02,9.768992745931977595e+01,-1.586612666368235125e+02,4.028201674638267491e+02,-9.929864094015226783e+01,1.864107357439027624e+02,2.548462925850652709e+02,-3.573180767531872704e+01,1.952568038794040888e+02
7.120939666990361161e+01,-5.855805812415270850e+01,-1.585742802264871045e+02,2.583970788422688258e+01,-4.017401165292885423e+01,-8.700621186627310522e+01,1.558381258222655958e+02,-8.098971023371382216e+01,2.130244123691273330e+02,1.312773335284208542e+02,-1.742509559493858546e+02,2.690468150985486062e+01,-1.272006795567373132e+02,-2.218932911102067695e+00,-2.654088595922985405e+01,1.157688542599155426e+02,-5.989160421528660549e+01,2.998522382699534887e+02,-2.476240206124537053e+02,2.061982555157429786e+00,-7.119628026870945803e+01,2.985692830056301545e+02,-3.773978224942825364e+02,-2.425787934592709405e+02,8.853679710107006429e+01,2.146072161911061187e+02,1.107148103721525558e+02
-2.895569577837292741e+01,2.700922818280305648e+01,-1.232523331410373828e+02,9.783736200965145713e+01,6.475206686645444165e+01,-1.198234678732256100e+02,2.401247945694799171e+02,4.185541713142829678e+01,-4.337145412782743392e+01,8.372463499707974677e+01,4.664554241933820578e+01,-1.056230840387332393e+02,-3.046261785783373455e+01,-3.465234813346125264e+01,3.491860738704942833e+02,4.781636079224134050e+01,-1.713567735142850665e+02,-4.885227983086695076e+02,8.833664067783860219e+01,1.029354895673256181e+02,-2.809219328514151570e+01,1.757597895442299318e+02,-1.516659189380869464e+02,-3.768830291664691146e+01,1.319073419917530998e+02,-2.943368202426278231e+02,1.599156541448078030e+02
8.467931115088687477e+01,9.473540659157832522e+01,-2.926462880216703155e+01,3.509581044342761658e+01,-3.295732728401587508e+01,-6.506727823306482605e+01,3.842143482864882031e+01,2.145161268034673796e+01,2.264091415752539262e+02,-1.059395880931936347e+02,-1.012727149369206074e+02,-1.342562430815725918e+02,1.507115698542613416e+02,-2.762492665237036249e+02,-2.839561781253679555e+02,1.722965427739278823e+02,1.771189250566534383e+02,1.038902421558170772e+02,5.640634500072027890e+01,-3.867286757962629196e+01,-1.570979960676902465e+02,-3.716703150966910396e+00,-1.136654115806561549e+02,1.698664389068318314e+02,1.550130261716176392e+02,1.466214629213000364e+02,-2.906007669541731957e+02
-6.436549049230528396e+01,1.287960672319652033e+01,2.105730625212618747e+02,-8.865030124658871102e+01,1.169214995405957325e+02,4.200269892342157974e+00,2.291821323536317223e+01,1.884992839622103418e+02,7.058932078010602140e+01,-1.585978949118103287e+02,7.273323750196482251e+01,-4.716464972417288948e+01,1.704327109866200374e+02,-8.384087713006182696e+01,-5.683539593803391909e+01,2.840260706604064112e+01,6.293742537092324341e+01,-1.607028278665764560e+02,-1.827382427296526046e+01,-5.271746290992597395e+00,1.127362217013836840e+02,-1.150827040313029812e+02,-1.343362660095679360e+02,1.067708707051106813e+02,-9.185584776542849283e+01,-1.870692348762409551e+02,3.145170667258453534e+01
2.848770032047149812e+02,7.353333090511570447e+01,-9.120605178686051318e+01,1.163227863744755126e+02,3.823170662254443641e+01,-1.315008753231119556e+02,-2.215189636276969765e+01,4.516482036388795507e+01,2.480306629210444669e+02,-1.372433333625981220e+02,-7.576009143759775100e+01,-5.592529987956163495e+01,-2.040659948691639727e+02,-6.648128821612270656e+01,1.346911322158939868e+02,-2.044607819603849919e+02,2.862265199121917476e+02,-2.864111951670398639e+02,7.735184142805832153e+01,1.808767892913862596e+01,-1.110508326670076400e+02,-6.030964537863891906e+01,3.631274385371624192e+01,5.627156658259867328e+01,5.704915252364057920e+01,-1.052746017510030043e+02,7.969654149080189143e+01
1.271718304022545425e+02,1.516665266332942785e+01,1.870548792686074080e+02,5.098872849833230703e+01,-2.198389064203000771e+02,6.567072862540008771e+01,3.635673097572438905e+01,-1.980588239851391563e+02,-2.671515998642342424e+02,-4.739362577693121636e+01,2.036359952412909990e+02,8.451845478710346526e+01,2.288843879943451753e+01,-2.091092823775852878e+02,-2.158632448655886549e+02,1.582261911197588056e+01,7.663256502598745357e+00,-5.270463622805900883e+01,2.477129099653661015e+00,-2.479016352143727602e+02,-1.120692443899532975e+01,1.396218987409628021e+01,1.591313439710231989e+02,1.628861099235573704e+02,1.553236523881078313e+02,1.744357310935261296e+02,-1.592545262971058051e+01
-1.303532682210797873e+02,-1.075038171347836311e+02,-6.906346635741772388e+01,-5.004812985278410054e+01,-8.816357962078896549e+01,1.332717078663357313e+02,-3.534560706181781597e+01,1.479417109705322844e+02,-2.812153547446680477e+02,8.162123091983043821e+01,-4.121611391123259693e+00,-1.470692684987452594e+02,1.612548511460306884e+02,2.207330639969771084e+02,-7.167568447390124220e+01,-6.676953477773676582e+01,-2.557764289838879179e+01,1.643280323136573315e+02,9.090063095866399578e+01,-1.551733960851948950e+02,7.326942359873734745e+01,2.054966852012765628e+02,-4.626359631208894285e+01,1.097357627639903122e+01,7.609189251586812475e+01,-4.962206632595460576e+01,-3.791672828818921914e+01
-1.380370970769026258e+02,2.607501540202393553e+00,-9.149518165126633562e+01,2.184361144708160651e+01,1.960057435126856973e+01,-5.369145215277318783e+01,3.167907840658577925e+02,2.265186533559544841e+02,-2.775897540280644193e+02,7.360438448913622267e+01,-2.668922216795430913e+01,2.968774092754381400e+01,1.027657258673862373e+02,-2.066073842220956536e+01,1.352251218659211531e+02,-2.040032692330241844e+02,-1.229879847876712518e+02,2.279533399335949468e+02,2.123681079154837050e+02,4.230542501330333494e+01,-5.272002919075810645e+00,-1.282368519960822937e+02,-2.162910282671917628e+02,2.529168383879945381e+01,-4.488888418067345754e+01,4.465575185003834235e+01,-1.513740984653775570e+02
1.747363677415835355e+02,-1.517190421925811563e+02,-5.189664427514161815e+01,-1.866889165962003290e+02,9.239219255158879207e+00,1.865262585935460606e+02,2.181768449265651668e+02,-1.598075456983380036e+02,-5.901512054893373005e+01,-4.985084516882401573e+01,1.498509236458913740e+01,-5.257983110494755152e+01,1.358592651849039896e+02,-5.536278518219792488e+01,-6.573590566348553921e+01,-2.985513158954203732e+02,3.498563804168018265e+01,6.768210409271300421e+01,2.383027117165775621e+01,3.518057414813593908e+01,2.833574648733551982e+01,6.601736151248192463e+00,5.483318868801659818e+01,5.546034509736267104e+00,9.743171291113760901e+01,4.915086226331535357e+01,-1.189389482555921695e+01
-1.324772117245107381e+02,-3.264694074258612204e+02,-4.867910941566544381e+01,1.843499855968914289e+02,-1.080568496860137628e+02,-7.887650811145131513e+01,2.968212342900091585e+02,-2.339739785038977402e+02,6.386720881319512699e+01,1.230282926216659263e+02,2.033969410293877615e+02,2.083013480387367906e+02,-1.260482363149023399e+02,-8.437589845558532886e+01,3.152202055007393255e+02,1.859756180537435455e+02,1.412069493796785764e+02,2.978802026763171398e+02,-3.881771486459729914e+01,5.830854296131454362e+01,-3.249010363573994482e+02,-1.817832830331326477e+02,-2.044738820990022248e+02,1.761434307116964249e+02,-5.655951453139160634e+01,-1.315132422731985287e+02,-1.774904988441036267e+02
1.664762777647687813e+02,-3.764513924749707598e+02,-5.500395687254032850e+01,3.907976233827476165e+01,1.924420516892398609e+02,-1.495871108149257793e+02,5.612369872597471243e+01,-1.730903846415607177e+02,1.279869734095590985e+02,1.588175482030405021e+02,-3.780518742744343399e+02,1.853939359301722618e+02,5.637916253645354203e+01,8.902520363075298349e+01,-7.914782406056188790e+01,5.718292766042501363e+00,-1.824037167336341554e+02,2.825092319340255358e+02,-9.672305207548440364e+01,-9.068468619777971185e+01,-3.536644909694301475e+01,-1.021064073767082618e+02,5.783612984445850316e+02,-1.754707386673649410e+02,-8.909076758077008051e+00,-1.928081962740411086e+02,1.574936385256681035e+02
1.004737713512976001e+02,-3.437787220023198529e+02,4.122437766566834227e+01,-1.217769228112188351e+01,-1.961375224734927087e+02,-9.711118789380851268e+00,-2.959600761826322923e+01,-2.114974234946547540e+02,-1.884340061823735937e+02,6.578040199484578920e+01,-1.556588194239426173e+02,2.291235838193880170e+02,9.257578897068522394e+01,4.580379011904066289e+01,5.206122194108245083e+01,4.121687617605499554e+01,-1.094792099297316845e+01,-2.529463869073213118e+02,-3.966177248414415857e+01,-5.408502171063852870e+01,3.693147318553943137e+02,7.842602262459195117e+01,-7.807556546225731609e+01,1.623313152209763075e+02,2.304711942369725648e+02,8.110797224997741139e+00,6.579784570966342017e+01
2.668418770596294962e+02,1.486524140901259727e+02,-3.404254498146798369e+01,-1.550911479967337243e+02,-1.447058869198939135e+02,5.582339812959209979e+01,1.116004054074337404e+02,-3.877828171891567877e+01,-1.934939660977314873e+02,9.394155634840698710e+00,-1.859593319503171074e+02,1.051162205404085483e+02,-1.046545167555891425e+02,4.744917907975377602e+01,-1.753242759760103411e+02,2.388693775629450045e+02,1.091829165104850432e+02,1.007869026094317633e+02,-4.275751275820481823e+01,-1.151145707470299584e+02,2.259762550697729750e+02,-2.776275036160633931e+02,5.453354740641275811e+01,1.744765582771353820e+02,-1.312440846215135934e+02,-1.635112138899913248e+02,1.136100153912998394e+02
-9.587387158818479804e+01,-1.627199995569423265e+02,-3.425283351467252402e+01,1.463969570840635903e+01,2.041643885210329756e+02,7.349216150987574281e+01,3.051805368135221741e+01,-2.857057778906128931e+01,7.262759675402807602e+01,-4.131155458647206302e+01,-1.232362510151007484e+02,-1.379965838762088310e+02,2.966089732590323820e+02,-4.810449788903527519e+02,-8.669743842541335255e+01,-2.444736156931604754e+01,2.523682919026221327e+02,-1.552502358234767428e+02,5.718402428905822177e+01,8.086772489064998126e+01,-2.008391563870849339e+01,3.911605509199695803e+02,-9.193794402479062455e+01,-3.205318469554651983e+02,1.562497084296192895e+02,-8.205901862485879406e+01,2.561308090508493365e+02
5.999071613313768836e+01,7.727394800012071130e+01,-1.202797158155900235e+02,2.206314683263114489e+02,7.480394889209419773e+01,1.414813088314560332e+02,1.010416837819563938e+02,-3.536616642822262691e+01,-3.425518780773370509e+01,1.563435741765302964e+02,-2.483016705901583521e+00,-2.208760744279311155e+02,1.716687860703240176e+02,1.227604697926622777e+02,-1.323964301248001902e+02,-1.119219723782619127e+02,-2.107840496573611802e+02,1.174585072342105718e+02,-2.248061963898765896e+02,-4.242984278056231773e+01,-5.799138079549374680e+01,-1.654988727861808968e+02,-6.858894493765679279e+00,1.842210329290993798e+02,-1.168527721106344046e+02,5.664469165668665340e+01,-1.513451282750965410e+00
1.600800935473817788e+02,-5.331395762701008900e-01,-2.936208374898676539e+02,1.763611408745786946e+01,2.509966595885069296e+02,-1.705872555011479506e+02,-3.375105551833048878e+01,2.570766618267292074e+02,-1.927572029946252030e+02,-2.937755103619376484e+01,-7.747819965184584134e+01,1.200791585030002864e+02,-2.779904987740342222e+02,-1.746907172630339744e+02,-1.697718803535380232e+02,5.979601207080716563e+01,1.039613734254361077e+02,-2.064605835636900792e+02,7.267245830797105555e+01,-2.633940574175197824e+01,4.657270842237038266e+01,2.316657038647315972e+02,1.358824472205584755e+02,1.818255776014318030e+02,1.052415098710059169e+02,4.454352586567813432e+01,-1.346785603525062243e+02
1.677762710339891896e+02,7.545028711571400493e+01,-4.739018538635313860e+01,-1.290369159641755061e+02,1.194912180502440862e+02,-2.232063503860785829e+02,1.306908322574443844e+02,-2.187112645193943194e+02,1.395042893653099441e+02,1.645635503784978653e+02,-2.789278035631571697e+02,-7.583647690007535580e-01,7.687549688215788990e+01,5.376487484241665982e+01,8.248509195561750573e+01,-2.058968320701536356e+02,-8.760526549920287209e+01,6.070025163607898122e+01,-1.230709900630802593e+02,7.156511697347466949e+00,2.960797352379964309e+01,-1.172123647302397700e+02,1.462124163904718621e+01,-8.128243306593532225e+00,-1.475270944793101258e+01,2.442026704385591245e+02,8.781129088755979240e+01
-1.911971532795039934e+02,-2.519047407133880654e+02,1.291871877660272787e+02,-4.496424032883581390e+01,6.846477991956382425e+01,6.100656124863328955e+01,-3.965161648888339130e+01,-2.619092374961857104e+02,-1.774986462184535299e+02,1.327129293336023466e+02,-2.229773900365383668e+02,-1.196325239342249489e+02,5.159113991155428458e+00,1.581068822313337421e+02,1.143405059510675841e+02,-1.218578089000199611e+02,-8.887521815066679665e+01,2.855684004428803746e+02,-1.273970832486678688e+02,1.291565446706226510e+02,1.972339653884382074e+02,7.755593756542010908e+01,1.733621477409445220e+02,1.226438850881201432e+02,-4.275479835911205617e-01,2.648764312794074272e+01,-3.268880409320102842e+01
5.249986423854226132e+02,-2.242921629815617166e+02,-2.429624094113395643e+02,8.237455248481215619e+01,8.207287792631610124e-01,-2.464855561799010957e+02,4.440907350309314161e+00,3.202585699608577556e+02,-5.453711135006913935e+01,1.596380118565086832e+02,2.469145378269130049e+02,-1.299880127658939841e+02,-1.089652576821890335e+02,-7.912340559859535460e+01,-8.139386504703080050e+01,6.897359199022641008e+01,-4.343086359369953442e+01,-2.165872108030933134e+02,-3.379689250824909674e+00,5.470762839912588760e+01,2.146497044435728796e+01,2.132372900322887332e+01,8.687097336486503707e+01,5.572356505228013646e+01,-1.588606135127493815e+02,-7.725904323201561397e+01,1.875229770240699168e+01
5.937239540884040423e+01,-1.447976869795606376e+02,3.169422596961370076e+01,-1.546770507849106480e+02,1.047366915292592324e+02,-8.199582437172090010e+01,-1.449989152230364766e+02,-1.809022365202062019e+02,1.107088505268499290e+02,2.319475706761062384e+01,-7.497695893423187385e+01,1.778886279574755349e+02,1.514754302119705756e+02,-1.166383359745892250e+02,2.138802891231094634e+02,-7.980045475441302472e+01,-1.267799699060309138e+01,-1.862179819347299414e+01,5.228809260976971984e+01,-4.449480344463476200e+01,3.437695854632784176e+01,3.125812891676447407e+02,4.200210112019728115e+01,-2.779493204511081785e+02,2.370781573713373405e+02,-4.515256402692687487e+01,-1.735961664789476799e+02
1.405525892696890367e+02,-2.478822694489444132e+02,-5.597508010346755469e+01,-1.449782412415414115e+02,5.469043519759961214e+01,3.196574375572872668e+02,-2.631227351740769294e+01,-9.048774741271489575e+01,-1.599507290137168809e+02,1.933768253621013233e+00,-4.184541976813710207e+00,1.353764220719602918e+02,-1.607988320745730562e+02,-6.780696499172186975e+01,4.522687859361426632e+01,-1.915947856931660169e+02,-2.251595452400072475e+02,3.104019308750673645e+01,-7.121917524486049444e+01,5.708055042081831232e+01,1.752268897839541069e+02,-1.147323651829039761e+02,-4.282059839191274975e+00,7.470414464440858637e+01,2.656169311604659242e+02,3.962385680789882372e+02,-1.319777360235970889e+02
-1.975814615452181613e+02,-9.667361830631685748e+00,8.367654803693010024e+01,-4.708569256432328487e+00,-2.084060797559956768e+01,-9.325789391159527497e+01,6.228040075639240669e+00,-6.130602564338193616e+01,-9.314099762900285384e+01,-2.231406193759095515e+02,9.490891993981544772e+01,5.653724657583320834e+01,3.540138810919375345e+01,2.155755565503535820e+01,1.088805212233810238e+02,5.258676824593040067e+01,-6.398097994791483245e+01,1.097221794060298521e+02,1.100033041535777159e+02,-4.569612356397577457e+01,4.773165802694148852e+01,-3.839909915529126039e+01,1.501994099167164336e+02,3.737706175096342776e+01,1.570894677510191855e+02,-9.114536098628825300e+01,-1.290314805544466878e+02
1.777092185136458227e+02,-2.770426029301589566e+01,4.346721040787259227e+01,-1.397856295543250269e+02,1.776005477714388689e+02,2.280367511227373001e+01,-6.443123998111822459e+01,7.132457943281002599e+01,-4.668872517421797141e+01,-1.895172406429810508e+02,2.491565979521688803e+02,-1.788890991991761581e+01,-1.437157098653147784e+02,1.121742375893663102e+01,2.862152949074021180e+01,8.294311768445867017e+01,3.768361924711620503e+01,1.591057549150209240e+02,-7.724855679474516990e+01,6.363214813975267248e+01,-1.291223375323230016e+02,-1.537367908621936010e+02,1.491766718293606573e+02,9.985478391938841014e+01,-5.645228568013060766e+01,-1.087719958681992694e+02,-2.192304326363025666e+02
-2.687155003669914208e+02,-8.598086404407786176e+01,-3.554272534535817272e+02,-2.077494474290989785e+02,6.873004310012701978e+01,9.033801031250250446e+01,3.537221904341993195e+02,-2.599118968888219570e+02,2.205972570704320219e+02,-1.300327431071701767e+02,9.242913183309650549e+01,2.778911151804087609e+01,2.872685144057666093e+02,1.278843039950128286e+02,-2.541544484173269893e+02,2.803274867939489923e+02,-8.924926306700996292e+01,2.122197341799124501e+02,-1.506086417355885310e+01,1.951113771736622766e+02,9.550365412169438173e+01,-1.514606587588481545e+02,-7.493919556355221800e+01,4.514817423929968498e+01,4.393138921911765138e+00,-1.378250038589583255e+02,-7.095333674795581658e+01
4.321899842210335692e+02,-1.945073361541780628e+02,2.708949163494843404e+01,-1.427517333119450171e+01,2.504729253119102168e+02,-1.437174077057550221e+02,-1.871111134296540612e+01,-1.525655335394453260e+01,-1.475961325790249248e+02,4.082028810298322696e+01,-3.296914441975073942e+02,-8.329014705128649609e+01,2.389190244185494549e+01,5.870510392359012997e+01,-2.527028108987181554e-01,1.201772314857309851e+02,-2.185187418150288252e+01,-6.578139301444156217e+01,-2.116094549327491734e+02,2.754970124600130248e+02,-1.084556551089869814e+00,-1.156963806068711875e+02,-9.516386981784110333e+01,1.882279639031024203e+02,7.183761802749285152e+01,-6.148418869384432384e+01,3.106292317392600921e+01
2.397887454024725251e+00,-1.758214261201894146e+01,9.286637727517427265e+01,3.822163475041803338e+01,6.406520196838718562e+01,-6.691821288670099932e+01,-2.832819358143285893e+00,-4.305170556550647376e+01,9.344893835602927368e+01,2.543429456328679894e+00,-3.016214863963183745e+01,2.109947856322827420e+02,-2.509435631878220931e+02,-4.840449567201338255e+01,-2.012314477659525735e+01,-3.876604225555882977e+01,1.384094082471149711e+01,-6.249266495623437123e+01,2.253886904841353100e+01,8.411759775906295999e+01,7.417206823884055211e+01,1.190263784694126059e+01,-1.742730036423372653e+01,-2.205136779128835656e+02,2.541824096510317474e+02,-1.274795394458730158e+02,-1.859529327880115446e+01
3.802771066858379356e+01,-1.786347234838504505e+02,3.180478562699773093e+01,6.155176799342923033e+01,-2.991893062612722787e+01,7.708958400832914037e+01,5.308109652661266331e+00,2.365995217240127246e+01,5.868339102984479894e+01,-2.302209549187456901e+02,1.148322942173298955e+01,-1.879460245240316851e+02,4.469753432075839328e+01,3.594888382981933006e+01,-7.926390918654801965e+01,9.911732195099459375e+01,-9.849104593083787051e+00,3.918526794190508866e+01,-1.623200311546067098e+02,1.481030509048914467e+01,6.697596795497582889e+01,-3.861514866738320251e+01,1.277778062855838215e+02,-1.337941136808235569e+02,1.951928297297833694e+02,9.933937928572797205e+01,1.990964992563954539e+01
6.156985518872362206e+01,7.851344894397108476e+01,-2.511597192820194095e+02,-2.785487871793381487e+02,-6.736265160275327446e+01,-2.776487837792021764e+02,3.246957597047810964e+02,-6.157731801121386894e+01,-7.949105460331630901e+00,1.524832764572713586e+02,4.043440046180297998e+01,1.220317263299430124e+02,-1.924446338626919442e+02,2.730157897228821184e+02,4.342706676663807031e+01,2.364743496799120948e+01,-1.151461265711011528e+01,-3.244010686585329495e+02,2.827021073865141076e+01,1.406261021866132808e+02,-3.114840470471002618e+02,-2.368728721470693444e+01,-4.278176867688132745e+01,3.746904630892790777e+01,5.380822488806880983e+02,2.569615230499894665e+01,-3.940166878211181967e+01
2.644095919643016828e+02,-2.932181408599445760e+01,-8.466765899176893129e+01,-3.079381414199068558e+02,7.376616235638677210e+01,1.050587044015016573e+02,1.229165468903639606e+02,1.453816543640701582e+02,-5.775488588554586755e+01,-1.200830617353092862e+02,-2.650890434235333970e+01,1.283421537724783832e+02,-1.057133946723914590e+02,1.033081105183538426e+02,1.580021967596013610e+02,2.715507988887667778e+01,-2.704150421328651532e+02,-4.001217494054550912e+02,-2.341784861502779052e+02,8.693201936103591265e+01,3.791412948788987602e+00,-1.521245456350147833e+02,9.539084287089481506e+01,5.737256220039788701e+01,3.106127536909040145e+02,9.943520769204422294e+00,9.643675285495076821e+01
-1.054167868926045770e+02,-2.288923677000698547e+02,-1.538236475807545958e+02,2.495421907485264512e+02,-5.738338035042171725e+01,-1.661100520574832160e+02,-1.225275601688076321e+01,3.209909444368956599e+01,3.539141157972445058e+02,-2.357988310339376525e+01,-2.383015929736930332e+02,1.252168974218348438e+02,1.626247141737647155e+02,8.694834362892387958e+01,9.396462452911228524e+01,1.126237839898847568e+02,-7.026519718759814737e+01,-6.656047962693116915e+01,-1.348888416941610728e+02,3.120973503689516537e+00,6.739037770799968996e+01,-1.597981467388591170e+02,1.356972852295554048e+02,3.154335509781405378e+01,7.638101726256242330e+01,2.319338151546887445e+02,-3.457270285752894665e+02
2.246069505975437721e+02,-6.949823964365447182e+01,-7.154298193651678162e+01,1.417483916726743018e+02,2.046004720011027445e+01,8.409435686051732262e+01,5.162070079060725902e+01,-2.179768340648869867e+02,-2.502303800201070203e+02,-1.491318651095915016e+02,1.758576741139150670e+02,1.104190540579827200e+02,-8.865998058325101283e+01,6.574381036244719212e+01,-8.203269183168008283e+01,1.890365064012330265e+02,-1.014004061858737771e+01,-4.112386269365728708e+02,-2.055852765633815693e+02,1.720679942699337062e+02,-1.697502319927435508e+02,1.951994398142805665e+02,1.351907856676253061e+01,2.652108463375038809e+02,1.368054008931384828e+02,-1.028373138903170592e+01,-1.103170540214330089e+02
1.618362389821373029e+02,3.865079256921353590e+01,2.332167584928654094e+02,-7.075703483466941179e+01,-1.752835260419996644e+01,-1.988858020268381779e+02,1.125748316311509427e+02,2.787534219008162495e+01,7.051317815371915820e+00,1.962878181546331859e+02,-2.784215610859579897e+02,-1.935285307477319918e+02,-1.119814073208844718e+02,-8.776176958621769586e+01,1.324333134541994355e+02,9.239855253438386740e+01,-1.280062097811562580e+02,-1.892043850467713355e+02,7.617487147534757241e+01,1.087052710788841097e+02,-4.409041419492402980e+01,2.239611979375532858e-01,-1.284674320193576591e+02,9.987092605387337585e+01,5.565098257897351175e+01,2.040162733418715391e+02,-9.833562800065925558e+01
-1.630869502299552778e+02,-3.340065923872001719e+01,-1.401634414050563748e+02,-2.208906071031545082e+02,-1.506541052293983967e+02,5.967381523538194621e+00,1.011662363961083742e+02,-2.301459724268356410e+02,-9.099562418470097214e+01,1.368428110167409955e+02,1.660589859528689658e+02,-9.970101340032074688e+01,-1.877010166241882771e+01,2.298781877211916225e+01,-3.026842285049957582e+01,2.594043207151786419e+02,4.641150299760064968e+01,-1.703695029445247258e+02,-2.915284629921723791e+01,2.008825489112900584e+02,1.190166787679900864e+02,1.755135380908084244e+02,-1.979666772437001043e+02,6.646507097543056375e+01,6.850284488507925040e+00,1.700071230910762949e+02,9.799122508850729218e+01
-2.928899009081819713e+02,-2.273031098022425667e+01,1.364752309839492739e+02,-3.881656558965272552e+02,7.840328310705283243e+00,8.837305526395614663e+01,-2.405504244284045399e+02,-2.099760557545421022e+02,1.099146001985260455e+02,-8.821917437824025399e+01,-7.583454307556988283e+01,-8.973425365764256867e+01,6.201235246431389925e+01,1.595783141720325204e+02,-1.643065354258649222e+02,1.371315978238068851e+02,-4.049052517452888367e+01,2.251749423007799180e+02,1.277240099200944456e+02,1.558010203536585436e+02,-3.996610528679250507e+01,3.258538616047156893e+02,9.466630871234093547e+01,-4.241519502560600330e+01,2.829467356482967944e+01,1.008479652210844080e+02,-6.440419676166072804e+01
3.458714491161322258e+02,-1.949686160741402432e+02,-1.070050574358464530e+02,-1.123753922497216564e+02,1.341986555788657256e+02,-8.541067181459997926e+01,1.420692992838142921e+01,2.730624436701859636e+01,-7.872923408034267823e+01,6.137161192963741030e+01,-5.901379932713612675e+01,2.524001923659722593e+02,-8.852309211084626872e-01,-6.017841663015841647e+01,-7.525159869214127184e+01,-2.081104623801738853e+02,3.050946792151219000e+01,-2.292988169429325040e+01,1.159345595480810971e+02,-7.313812301481034694e+01,-2.117362088865250200e+02,-1.865529619600294780e+02,-1.075635059501167063e+02,-1.488556691764028415e+02,3.928787804962015002e+02,7.660587345834649398e+01,2.814128458797387111e+02
7.607641273459194053e+01,-2.175305626557538830e+01,-1.342087232840250692e+02,4.880047694196504438e+01,-2.621740890446793628e+02,1.584340877835616368e+02,1.770345623073905301e+02,8.113087492827823155e+01,-1.235895838144884067e+02,-2.263635936135327142e+01,5.475993543341228786e+01,2.479635181878458638e+02,-2.126206702041814367e+02,4.760109765575599994e+01,-1.095716897929286660e+01,-2.224121722385062014e+02,-1.926166939468304520e+02,-3.572688359377885803e+01,-1.862725299299389974e+02,7.753158760837402497e+01,-4.374950949016930224e+01,5.480158640555509209e+01,-1.137959457646622496e+02,-2.497827867690088510e+01,2.315028714200529407e+02,1.220317257568925271e+02,2.298239665693535869e+02
4.675234307396610802e+02,-3.053628876189764583e+02,-2.174271275505401491e+01,1.744515341773022499e+02,-2.263260951320066567e+02,1.610992399594500171e+02,1.459319434703638478e+02,-4.896482881219533567e+01,-7.151470606235571736e+00,-1.693886296188851404e+01,-2.426277992857352217e+02,-1.134957051475407042e+01,1.259567882397876275e+02,-4.787859688615127851e+01,-1.998174958910733778e+02,4.116156649889150287e+01,-1.718834883689125661e+02,2.336609452096763846e+02,-1.539669542676168312e+01,-2.874488930620042737e+01,-6.830852882914030033e+01,-2.189884184198380979e+01,-9.967552708030707365e+00,-2.947528075290572929e+02,2.578671700009664960e+02,-6.732571412967310209e+01,1.987812912854381864e+02
-9.208257342474649221e+00,2.693746707618155369e+02,7.350911096985870863e+00,1.171289060587686066e+02,4.504893371537000313e+00,3.990214978393886724e+01,-5.321517238835493657e+01,2.590926078615060533e+02,-3.207523807766547179e+02,1.601211076566578573e+00,1.694750378347661268e+01,1.922400718019711121e+02,-1.575978022924026902e+02,-4.816946442563397213e+00,9.032386933276455920e+01,-1.111004145747442351e+02,-1.243237937034125480e+02,-8.169120937066730903e+01,-2.198024049779794780e+02,9.595710852775441424e+01,1.404316435714097793e+02,-6.201196007450108993e+01,2.274656699633985113e+02,-2.343822324441358376e+02,-1.577157945539800892e+02,2.088376545634289982e+02,-1.345425310239529892e+02
-4.111437715592902720e+01,6.863407820925162639e+01,-4.520457264278434906e+01,-5.294293340906344980e+01,3.621597409092329940e+02,-7.802829593705070899e+00,-2.170887847881019184e+01,-6.561482195869176337e+01,-1.893331925619242639e+01,-1.014863082672206573e+01,-9.863171300957047194e+00,8.002239529106907412e+01,5.636471513629832941e+01,-9.035848631599667158e+01,-6.003969880695112238e+01,-1.562336605003229195e+01,-2.143316899408291576e+01,-2.040988215252672546e+02,-1.172067992375010803e+01,-1.014481932108060960e+02,-2.805238791242891949e+01,-2.747640655436065771e+01,-4.437155062013408013e+01,-3.508368871238418052e+01,1.258948609809241646e+02,2.091729735036459488e+02,1.079407173935161346e+01
-2.125291461300790843e+02,-2.901558855875394016e+01,-1.971646538961361728e+02,2.321198394598096399e+02,9.286625602098740728e+01,1.559263654768043352e+02,-1.833432129329070506e+02,1.814513100850830796e+01,-1.545690663192018519e+02,-6.331585630625232852e+01,-8.685388317921223233e+01,-6.361041553839952201e+01,-1.760114019194516288e+02,-2.776654128290839907e+00,-1.745454747908272282e+02,-4.633789782482949704e+01,1.242168693329436735e+02,-1.589867738211654569e+02,2.361889217555346931e+02,-3.546919144216536779e+01,2.255825813900503931e+02,-3.536001706946078826e+01,4.702188455628990482e+02,7.748683422329300186e+01,-3.888384390046763173e+01,6.150836682470128380e+01,-3.549333994150931915e+01
4.444784955753819133e+01,2.622154494627579879e+01,4.273590866151960199e+01,1.095444589072527286e+01,-4.426511214619757340e+01,-7.076447055997851976e+01,-1.547406846338958246e+02,1.443560329258106378e+02,-6.136888157813260847e+01,1.028649983300113178e+02,-2.495117649434976315e+01,4.527209085367490502e+02,8.975834744071487137e+01,-4.337142379774543315e+02,-3.093210234970170518e+02,-7.753545482745553841e+01,8.471558725863548034e+01,6.181070977263940449e+02,-1.216830132927049846e+02,8.202241131709867261e+01,-3.664873652371452977e+02,-1.717904274954616994e+02,1.769509375922095842e+02,7.723776821905688905e+01,1.025187055906804723e+01,-8.293798808907804698e+01,-4.378446649201924146e+01
1.219399961202028351e+02,-3.628369790472843448e+01,9.394761247059008724e+01,-4.822711735708077896e+01,4.069950538237286253e+01,-6.883325775786974532e+01,-2.859059963432380158e+01,-1.237392074310113976e+01,-6.185293819591455389e+01,3.399785517994232720e+01,-7.701646758721665265e+01,-1.906730810153844118e+02,-1.392828631278651983e+02,6.563586290997915285e+01,-1.261115867808540969e+02,1.110864778990328432e+02,2.376205636090446305e+01,7.294112760713411490e+02,-5.371391100780630268e+01,1.480140930354932607e+02,-1.797633357784383534e+01,-2.023070796908095303e+01,7.900793626137101455e+01,-3.692062668832738268e+02,-7.706411919241838859e+01,-1.622323343011026111e+02,4.216615120960097585e+01
1.656725860604994125e+02,6.110690758524357591e+01,-7.122238209371201378e+01,1.424521123811216512e+02,1.585245804917524559e+01,-1.202280695320460069e+02,9.649298040238214469e+01,-1.437905659802572131e+02,-6.862295283640085586e+01,-6.924663468899031216e+01,-4.092229782595476451e+01,-3.855272119897538374e+01,9.157744321364469897e+01,-1.915694060561670540e+02,-8.219011323980082295e+01,-8.509329558311847563e+01,3.337939235771230528e+01,-4.612318672991116841e+01,4.210435110468711173e+01,-7.246483085066043373e+01,-8.730889503598912427e+01,2.928794262783616205e+02,-1.750719831368049313e+02,7.754273083238332731e+01,-3.286049645744012082e+01,1.196509365417635991e+02,1.865539961797029207e+02
-6.655213903484838056e+01,-1.459451857123434593e+02,4.437583880336408981e+01,2.492799613715994838e+02,7.676379534129657145e+01,-7.782473470703335394e+00,-1.568962128741716526e+02,8.781171303966527830e+01,-1.645888815206860727e+02,1.563934577497067835e+02,7.855586676372681154e+01,1.648079507314218688e+02,1.398038448691582971e+02,-2.727181503116494241e+02,9.988316214125683246e+01,-5.012947913445191261e+01,-3.601648275203719862e+01,-2.199085914343592094e+02,7.848652516746385288e+01,-4.167585417981319651e+00,1.992372517164930059e+02,-1.622497380167419863e+02,-2.158338851215116350e+01,-2.261408656161677868e+02,4.688077390222922247e+01,1.666902038132390089e+02,-5.429576064088364973e+01
-1.398503401869234075e+01,-9.133525298339455389e+01,1.965938913899014153e+02,-6.836637877850434108e+01,-1.373768304151380732e+02,-4.950092437367583642e-01,1.329981797353308650e+02,-6.964476350186001241e+01,7.762571460754230657e+01,-1.546636054183514659e+02,1.676354929940966443e+01,-8.606279803808153872e+01,-6.388901022033942212e+01,-1.225753959940287530e+02,1.317797755494639311e+01,-4.070897235835297323e+01,4.394256171297042357e+01,-9.703555832542348014e+01,4.004312874265516342e+01,1.791081516579583592e+02,4.930083229255547508e+02,2.598454948303469223e+02,-2.711109519166454902e+02,-1.567432666980284353e+02,6.784895254603445380e+01,5.720610014325625770e+01,-2.041717994110521488e+02
1.478306878235463557e+02,-1.576002691612497983e+02,-4.285805347704705781e+01,3.669806937277703440e+01,4.909777984658739491e+00,-7.339641568562976559e+00,1.559971564957137105e+02,-2.586811296556273376e+01,-8.364881526561731562e+01,2.075632512605425575e+02,6.259532165315594199e+01,2.099038202954305632e+02,1.012927576625737380e+01,-2.035525060538278694e+02,-2.099562557822077622e+02,5.605140293586030964e+01,-1.066139493892195276e+02,-3.356037687297757657e+02,-2.237730779642569132e+02,-3.001316321152417643e+01,2.417539115705926278e+01,-7.647102949491564061e+01,-1.145034118852279335e+02,4.729578180620758410e+00,1.183886541024003094e+02,3.850916700672462412e+02,1.937357139891265660e+02
8.315703447864518694e+01,-1.569708929503930790e+02,1.959085878280079953e+02,-5.513734942737479372e+01,1.140057637422510481e+02,-1.862929217980523617e+02,-2.528068528185929154e+02,-7.881301184517232628e+01,1.454813296876199615e+02,-2.134562434980712453e+01,4.310740622784244351e+02,-3.496932840688111241e+02,-1.387546568861497676e+01,2.087765856555157598e+02,3.288484732041436587e+02,1.508147161765033317e+01,-7.600204006728803563e+01,1.013723448961697642e+02,-1.125229994427484570e+02,1.477276735379660444e+01,-2.861569680281746741e+01,-6.188454200378093617e+01,-4.337481095801012998e+01,7.873080255771607483e+01,-1.997519119542607200e+02,3.002712768426777146e+01,-1.101504471280650677e+02
-1.715237563748292615e+01,-2.623477807266986019e+02,-2.815469704850288224e+01,2.505397838399434249e+02,-1.474489108651787035e+02,-5.062748009054519827e+01,2.873679788525589984e+01,6.297648542825296403e+01,-2.041928758505642705e+00,-7.957707829393299903e+01,2.342344219781746517e+01,-4.573806144654335526e+01,1.482705107303734060e+00,1.792671684477360827e+02,1.423863731615003587e+02,-1.846106759898124778e+02,-3.390342060850551320e+02,7.557211173606188481e+01,-2.238362135530121932e+01,1.452726713301250925e+02,2.872826786732640016e+02,-1.636873626383155909e+02,1.712112426396309388e+02,3.331489695136101403e+01,-1.520334473064677105e+01,2.392351801979780390e+01,-6.738134755974681411e+01
2.674267886857292638e+02,1.350284305505474549e+02,-1.413805760773181248e+02,-1.089094415456546585e+02,1.345798893300014925e+02,-1.386537492907582418e+02,7.397488696424615284e+01,-7.334795287260598684e+01,1.691742144377581099e+02,-4.148732482128728805e+01,1.333872626332266407e+02,-2.808224860521379540e+01,6.130719947442871387e+01,1.221981651349096438e+02,1.314418804675793808e+02,-1.171613024907194074e+02,-1.260291051314810034e+02,-3.082442842315984421e+02,-2.412388415988751262e+02,4.951227990511949884e+01,9.143481993777429295e+01,2.919547754648981552e+01,6.597506931714207212e+01,5.077189474723868301e+01,-1.726470893157553519e+02,-3.960924179084616981e+01,2.138533891990529412e+01
2.485793523541651382e+02,-1.765250715005699078e+01,1.667884791015608528e+02,1.130607393695506317e+02,1.765086179041186938e+02,4.193022793934292025e+01,4.593098445323380474e+01,1.479206543877109539e+02,-3.174838359242728103e+01,1.284959142199769246e+02,-4.711011858645488104e+00,-1.846938949277019333e+02,3.802614649370805466e+01,-6.920542241255645877e+01,-1.107690367404336200e+02,-9.007067411860856510e+01,-1.889691120201328545e+01,2.793428600136400064e+02,-1.546222833115406843e+02,-2.264362148312052909e+02,-3.724681198050708986e+01,-2.618992523287662948e+02,-5.263988106597958705e+01,3.851004831080069124e+01,7.569741303248200381e+01,-1.502864821093996568e+02,-8.990875256873886201e+01
-6.657193153934031216e+01,-7.367222654036655172e+01,5.005520542506274495e+01,2.995016749470613604e+02,1.617020772613367683e+02,4.006280071635325157e+01,2.225652221702397071e+02,8.960575478713536768e+01,8.317001741516277491e+01,-9.122688777113856418e+01,2.029818271350529724e+00,1.831965176801459450e+02,-2.858638924816266922e+02,2.939242754132529285e+02,3.001723869696939673e+01,-1.262362548068480663e+02,-2.638456203269651041e+02,-3.805526909506830293e+02,-1.775915645454433047e+02,3.563487310179463208e+01,2.919253085739043172e+02,5.586718588411933695e+01,-1.559408010643611817e+02,-1.298425033379949127e+02,-5.076861723895743239e+01,-4.355467363622116750e+01,6.403636342038281803e+00
-1.099263179747537222e+01,-2.566884900479568046e+02,-1.678551929661753945e+02,-7.579053114670294633e+01,-1.862331479699448948e+02,2.876506045459960887e+02,-1.850779511697249973e+02,-8.289996904133206002e+00,5.155505243487164790e+01,2.801620178533474359e+02,-1.296569389347257584e+02,8.748624387559694071e+01,5.947361259534987710e+01,2.635490853778003952e+02,-2.675270920103819208e+02,1.497922959906483982e+02,1.527598116643813455e+02,2.969451637858687718e+02,-2.883623630401247055e+02,-1.353301377570189459e+02,7.115514429217587633e+01,4.566156103887094986e+01,-2.714008317815701048e+02,2.930520563550660640e+01,7.173711589299749392e+00,5.521219065381372815e+01,1.453245279703803874e+02
1.493599548666383612e+02,-2.210260654785986958e+02,-1.747958730109538124e+02,2.205235477457093225e+02,1.831980032066864084e+01,-2.047284072569242426e+02,1.988143080426999916e+02,1.289378463564894730e+02,-1.268408274540175640e+01,1.725594538413648706e+02,1.613786168126885059e+02,-1.548756268060539298e+01,-1.893652089712800830e+02,-6.925491549153380788e+01,3.027527046127470385e+02,-4.723546365095167943e+01,-1.821972802119001642e+02,-2.042137273009169576e+02,8.979165884136632769e+01,-1.042857487494606872e+01,-1.614528705610302950e+01,-2.890079040173901603e+01,-5.233558528685207989e+01,-6.822854324381583524e+01,-1.662360923059376816e+01,-4.934629402060667047e+01,1.205502636603987696e+02
-2.694662412393106479e+02,9.412225704375063629e+01,-1.262161784481444471e+02,8.578245640315401488e+01,1.091661016883591344e+02,2.213977987964709655e+02,-4.363373043239108284e+01,1.183463958416207191e+02,-1.550681687864199318e+02,-1.364688351474092940e+02,-3.054758257008118676e+02,-8.078550266766418986e+01,1.121156287821940225e+02,3.387095913142190398e+02,-2.030008723882156403e+02,1.196541093071406436e+02,3.393362151918837100e+01,1.834307802016419373e+02,-1.576133191509842923e+01,1.210030995352782810e+02,2.695313982347869910e+02,-1.009304086436434744e+02,8.754153566352363214e+01,-3.755279375909064470e+02,1.604484172175876608e+02,-2.543949906370972869e+01,-2.174087588483498621e+02
-3.337313429456516474e+02,1.072373573119334793e+02,8.190739481273841704e+01,-1.451569268207024095e+02,-5.672807719020934059e+00,7.850570821864252480e+01,2.577676586566744632e+01,-7.617578102163505172e+00,7.126530342032728527e+01,8.731326769914726071e+01,4.398264724722432106e+01,2.418489984662971892e+01,-9.050172488451347874e+01,-1.062225118724471997e+02,-2.846144439860705120e+02,-9.009764336091365067e+01,-1.083346622685089216e+02,3.341633093632787563e+02,-1.436998955565501319e+02,4.875681540095089161e+01,1.338042182748641551e+02,3.665069499433684541e+01,1.493275509943676695e+02,-1.140955487496065075e+02,4.063845691548796424e+01,-1.216112705242643033e+00,1.674472673074277509e+02
-3.598799918630609227e+02,2.242444463567480568e+02,-1.671179663061377028e+02,3.371390272220255611e+02,3.224726140455184691e+02,-2.169295767075392121e+02,7.763403128857954805e+00,-2.595153649120299519e+02,-5.384715197667780728e+01,-2.352308023315226393e+01,1.633244403315948148e+02,2.577166545645206952e+02,-5.967989507726050391e+01,3.649321172816248549e+01,-1.439026727955297247e+02,1.633733076213779043e+02,5.552349461930594288e+01,2.069900800188683831e+01,-1.631108795888887357e+02,1.803985233019853851e+01,-1.824089351020549259e+02,-7.887677073764186275e+01,-4.730352882595195929e+00,-4.665334309881120589e+01,1.855236696041494611e+02,4.891815409580866714e+01,-8.105635758473455610e+01
-4.688267859962314787e+02,1.114122369909934775e+02,2.213245072825247561e+01,8.549747187458834219e+01,-7.331635286727308198e+01,1.352109681916437580e+02,-1.370283678560964091e+01,1.943806148377298086e+02,1.368006009245267585e+01,-3.465315564153629424e+01,-3.197974350814368449e+01,-1.576349998940374348e+02,2.507346393255906492e+02,1.203876660900236999e+02,-3.799947004420766916e+01,-1.839681149188905351e+02,1.993434106293413777e+02,-1.286491541676803934e+02,1.689418716667610738e+02,4.056547479514674848e+01,-2.839942853076462939e+02,2.417537315614415832e+02,-2.022999654250929780e+02,2.571262528369657048e+02,-1.184521768839168487e+02,-8.327379977283247570e+01,-2.241952990165944470e+01
-3.640631588682562381e+01,-7.980256717034018266e+01,2.023669046548385708e+01,-2.178610471889732310e+02,2.549214700624541763e+02,1.189106494527180047e+02,-9.051862834197609686e+01,2.433591763314108221e+02,-3.534947891388059649e+00,5.675273581213278185e+00,-1.692852941880099138e+02,1.731492888513953687e+02,-5.209915354935620257e+01,-1.157097118590084150e+01,-6.270708014911665629e+01,-1.752459044915460709e+02,-3.828034250269911354e+01,2.263592077500685207e+02,2.238641023989168488e+01,-5.402918594483728754e+01,-4.041416740644412364e+00,-6.043508615672993045e+01,7.116387539669773332e+01,2.323088086455462431e+01,-4.077961522139807471e+01,-1.179890977052333767e+02,5.519378025507295149e+01
-8.895387622196211908e+01,-1.774548042164266803e+01,2.701114061704878444e-01,-4.615855277404180868e+01,-1.030992655022357596e+01,4.983832785013159850e+01,9.682956080558804501e+01,5.190446778064838895e+01,-3.764868874287402178e+01,-9.735872388516471077e-01,-3.707248869190554075e+01,5.653629915455362465e+01,-3.485001561440664375e+01,-6.234456292832777535e+01,-6.115548588223165893e+01,-2.257366348703536119e+01,-1.385365339905392723e+01,-9.703707744401563673e+01,-1.268888159078865741e+01,2.185193988092513973e+00,-1.461459750013943193e+01,-1.446534886372873174e+01,-3.358439377517405688e+01,-4.114013142571965886e+01,-5.040301166783491027e+01,4.126816361800721893e+02,2.732476690390766549e+01
8.616698600239064376e+01,-1.420365528192703550e+02,-6.905247370112161320e+01,-1.760447325677434662e+02,-1.131637539305983324e+02,-1.036541700985810905e+02,-1.072306861232260360e+02,-1.937373225288757794e+02,6.821734388306191477e+01,7.506773205363593604e+01,1.145904055062500682e+01,-1.325842125786050474e+02,1.913062814864522352e+02,-5.816078909427288579e+01,-2.474383231916229420e+02,1.880363518063911101e+02,-1.015901013749548554e+02,-6.485746574515465568e+01,-4.896767553390930772e+01,-9.145801553946860452e+01,1.182198908416817602e+02,-5.167811520193370001e+01,-3.594734836652110488e+01,2.701376289419025625e+02,-3.515567569838468387e+01,4.782700472596386589e+02,2.858736681915533495e+02
-1.569004279815926566e+02,1.146341996940405323e+02,1.194278811487228040e+02,1.632895326380712220e+02,1.198009741203440228e+02,1.283604427715188478e+02,-6.463827712525798574e+01,2.229080698973087920e+02,-5.682590558944175285e+01,-1.044181472205007566e+02,-1.175378020788060667e+02,1.163502025484866920e+02,1.719306365709713305e+02,-3.303573616489038756e+01,-1.947878450756969642e+02,-2.460178181366148920e+02,-2.383706751329591782e+02,9.654176575631024093e+01,1.595143455017417544e+01,9.592043350753277764e+01,-7.975332796718234363e+01,2.146391527618022792e+02,1.447580889942406088e+02,8.954789722821912790e+01,-2.352421326501979024e+02,-2.583721135109576039e+02,-2.815910075281927050e+01
-3.108461700390347460e+02,3.515282743942341170e+01,-2.939985764591384623e+02,-2.395370293890279001e+01,1.258360641175621879e+02,-2.770868613736516295e+02,1.955025782177105498e+02,3.450433148302511910e+01,-7.171068679013724534e+01,4.988703648446534800e+01,1.311485322860625331e+02,-1.480427198039240864e+02,-4.967855869407955538e+01,-1.136037735503520878e+02,-6.744600413200132039e+01,6.711401331254124614e+01,4.612993142700505445e+01,-6.109804710398279326e+01,2.800816517679302819e+02,9.186980299481761847e+01,-1.701771881822946284e+02,-5.963061732436832330e+01,2.317441049077597484e+02,-2.042443955091551899e+01,9.274633676718373465e+01,4.812005281159258629e+01,2.378532274708250895e+02
-5.451427046289910372e+00,-3.348891623900199193e+02,4.050657129672845969e+01,-2.844787600597157962e+02,1.108290606980814204e+02,-2.158141638795691790e+02,-2.787815688951802984e-01,1.307687385498799983e+02,1.615821014602413541e+01,1.606287400608381120e+02,9.761251043476832479e+01,-2.071986657275634514e+02,-4.002025233081000977e+01,-1.852575417818708559e+02,-3.643337184368555626e+01,7.410789210276873007e+01,-2.804820617009058310e+02,1.192382891297294947e+02,3.176421699845540729e+02,-2.065336433776424201e+02,5.797587960117052575e+01,3.323048533132883335e+02,2.322635384367140716e+02,1.016316521394621617e+02,-4.587518881200785614e+01,1.452994253748416611e+02,-9.425954734923784883e+01
1.508916109301164568e+02,-1.238693689026072065e+02,-4.022702814668836027e+02,-4.215325638360914695e+01,8.139447133502156362e+01,3.509806357179477914e+02,1.387505092292811923e+02,-2.314921755175324734e+02,-3.146647985954123214e+02,1.354200524085432278e+02,1.121236385177355572e+02,1.711141422195698567e+02,-7.954046904643647053e+01,-1.066030217616571605e+02,-3.594451942109017750e+00,3.193837207260872901e+01,-1.741267765137385481e+02,1.977389302287747341e+02,1.633053403600216669e+01,-4.378406572401731012e+01,1.368311223134514876e+02,1.658177338795417768e+02,-1.815195023522303757e+02,2.121073889032270188e+01,8.467015270192941045e+01,-6.677171125631228676e+01,-2.481832584913106032e+01
-4.182496936512367256e+02,-1.586567222785751241e+01,8.446053133177714756e+01,-1.514405218750243591e+02,3.796672354970965557e+01,2.082677630730249518e+02,-4.727725323348952458e+00,-1.319070092952529478e+02,1.759221473868874241e+01,-5.192888405211367342e+01,8.491190524916023108e+00,1.456622306032929259e+02,2.564637771218876310e+02,-1.499508185877818676e+02,-9.905820631736720827e+01,-4.294774877150372205e+00,1.791549269263422275e+02,7.578559298356974239e+01,-5.764915256592774284e+01,1.461506865435403313e+02,-8.709273856601667774e+01,-4.089101261720949054e+01,9.916764979437503769e+01,-1.624855092957492886e+01,1.439607128026177518e+00,-2.846532992063696454e+01,-2.834854722419705375e+00
-2.648385455438259442e+02,1.061306967758079622e+02,1.318668991447534324e+02,8.281613632756887000e+01,-3.257611414648851422e+01,-1.734721657112577375e+01,7.137344310651721813e+00,2.814031064167712088e+02,-6.755644856385961816e+01,-9.127690089202492629e+01,-7.544288094905162723e+01,-2.278052977750535604e+02,-1.205316856697975396e+02,-2.312915642070887401e+01,-4.998509561697501624e+01,-1.373385978954669184e+01,3.201949637130673523e+02,-2.885848611232396266e+01,1.579108597085952681e+02,-2.672041946473089880e+01,2.153207334522510337e+02,3.175360533109774064e+00,1.011439958881685364e+01,-2.161901817560830708e+01,-1.696969451105747453e+02,2.635245930205832110e+01,-1.113030387082670387e+02
7.872407585318821077e+01,4.696103207379917599e+00,4.589412071836483733e+02,4.919084829895148658e+01,-2.804636448249560772e+02,1.226465648026282622e+02,2.885904920806344762e+02,6.669841141615712843e+01,1.698727223444749370e+02,-1.515993239590236463e+01,1.372596540972629953e+01,1.150826389591780980e+02,-1.901521801069810067e+02,-3.034099924017154422e+02,-2.030875712796882055e+02,-2.864808200655180599e+02,1.743972974099536088e+02,7.849196336568494914e+00,-2.842132741798397433e+02,-1.397796250058857197e+02,9.649067793648389113e+01,1.370328445237803408e+02,1.243642076489291810e+02,8.714839539019187953e+01,-1.829719446042585673e+02,-8.417932954741867491e+01,-2.555557154178482904e+01
2.050540136753312481e+02,-2.015990002903735956e+02,-1.186557601766519241e+02,7.145856593207896879e+01,-1.349627355991708839e+02,5.407916462416016756e+00,9.807215921158429239e+01,3.926419561349240439e+01,1.210623264503865784e+02,2.110427213487403009e+01,3.263035532428887819e+01,-1.397142910372073743e+02,1.745049147035829549e+02,-2.048464752495887353e+02,1.508641097448982862e+02,-7.988488116651676130e+00,1.288166295419785570e+02,-2.482273852665079872e+01,-6.343017885608033879e+01,-3.560927665704003431e+01,-7.634978017053619226e+01,5.914479681173517633e+01,2.831163511446483128e+01,6.003904255278638402e+01,1.732218703186932718e+00,-1.510196962800507947e+02,-3.847197045241443902e+01
-1.438262131057881561e+02,-2.478140984350219753e+02,7.086543789432477070e+01,1.690597201815791983e+00,-3.637225523383411883e+02,5.015934265739999631e+01,2.149963706475998038e+02,-5.810084296245872792e+01,-1.085801406983050299e+02,-1.139820039010511863e+02,3.716571713361859111e+02,1.985433601771675569e+02,-3.587866880182861564e+02,2.816239088528082561e+02,-2.823241123252343527e+02,8.536609016886036727e+01,-3.090070669346711156e+02,6.125660784574110806e+01,-1.340545740285367060e+02,2.177241821371773511e+01,2.314006932411814432e+02,4.660283332993181915e+01,3.416813299307574994e+02,4.500447095001497644e+01,7.510458791756347807e+01,9.078892703064335024e+01,-6.831862303087761745e+01
3.260894452048008816e+02,3.046896369130625004e+00,1.061648851213435165e+02,-1.897571187119525149e+01,-3.563708684631751566e+01,1.099580025924960438e+02,-6.693963914193513176e+01,-1.838702639705456647e+02,-1.222337341133928312e+01,2.359858757732082069e+01,5.206035270864706632e+01,3.344572957957285553e+02,-1.116668514594500579e+02,1.210377943512782366e+02,-1.863855684507645663e+02,-1.571285980574521943e+02,1.642218786444361740e+02,-2.528516019879730550e+02,6.842245442057526361e+01,-1.126625981304480035e+02,1.458380411499071840e+02,7.637209769096635625e+01,1.187306966533913055e+02,-1.704840847117201861e+02,1.146384474519798857e+02,-1.763938698311691553e+02,-2.794237555000560747e+02
-6.285552049989776435e+01,-1.146077128630631847e+02,-7.874180915171106676e+01,2.601082838905094263e+01,1.142125254092463109e+02,3.433355500611878028e+02,4.542097703361498162e+01,-1.016533468875805966e+02,1.519064525451101311e+01,-8.066870777607085818e-01,-9.425826096538187926e+01,-1.591905816396057105e+02,-2.180932680680137707e+02,-1.494701213528535675e+02,-1.615259605390630213e+02,-7.706089602834684804e+00,-2.151504687388130321e+02,1.977710353509219772e+02,-1.407876542026250100e+01,1.567978719626866102e+01,1.250914841285606229e+02,1.406895297121063493e+02,2.619694031137770480e+02,-8.625209691217051500e+01,1.590341640352909565e+02,-4.916492110264138660e+01,6.915004566273228193e+01
-1.384351088816450215e+02,4.723184786301651172e+01,-1.191968026754615977e+02,-1.431600696872860112e+02,-2.644024696324481383e+01,-5.980313710965122453e+01,3.272356550052110435e+01,3.241198055197745731e+01,3.864546317046138313e+01,1.646534880877497642e+02,5.217710618569780934e+01,8.259545650588407284e+01,-2.304819182043491139e+02,3.535333524524836548e+02,2.187516397083200843e+02,-3.041477151155915521e+02,9.398532780738131009e+01,-1.044268139501414367e+02,1.158230426551045298e+02,-8.049068057873334681e+00,1.460534840455529206e+02,-1.271853540263891063e+02,4.022494740139587321e+01,-2.554037761826595343e+01,7.831171738537780413e+01,8.445345597570229401e+00,-2.186996842941417469e+02
-2.984364002231021118e+02,6.387352252065870317e+01,-1.086670456287626791e+02,-2.050165405936749607e+02,-9.214867693732830389e+01,-1.720668175125767903e+02,-1.387017791727798510e+02,8.190178762703932591e+01,2.420182925636121851e+01,1.010924770046725563e+01,3.479129127251760565e+02,-1.387909224823123822e+01,6.690917377237944663e+01,-2.095991181361299596e+02,8.924700066360445305e+01,6.208460991542842322e+01,2.229650784707924629e+02,3.247785767723544836e+01,1.023277764203213849e+02,8.564585490451385397e+01,2.372945506982901875e+01,-1.283448530880075964e+02,8.993086588828057870e+01,8.110817428059634437e+01,-6.705698334037273867e+01,-2.980241051064327706e+01,7.929516104891153816e+01
2.138550563858815394e+02,-1.690741949846288321e+02,-6.580170504472550874e+01,2.988963045880663003e+02,-1.681129270506847604e+02,-2.475796341400371432e+02,-2.023381529112224371e+02,-1.087860358268505223e+02,-2.065959353329076862e+02,3.656947446458585205e+02,-2.015584130822397242e+02,-1.476310203798719840e+02,-3.659457276574946150e+01,2.264162310441651016e+02,-6.766582560837397864e+01,1.118753011526817005e+02,1.037471651527881704e+02,-2.954156368756879942e+02,1.750816147290003073e+02,-1.229498997624312011e+02,-2.869997726308648112e+02,-6.852898212631785668e+01,1.823893656172321585e+02,6.060588295219722710e+01,2.206199461657805045e+02,4.573435720820071424e+02,-2.088919884851262765e+01
4.720453596382509431e+01,-2.176214488263275371e+02,-3.158208522473315156e+02,3.082350059192915523e+02,1.147430027781419852e+02,3.305005790940743537e+01,-1.821175990622068923e+02,-3.424217632826573094e+02,6.331190224024298630e+01,-7.027902385245928940e+01,-1.419238699778733235e+02,-2.512544172606880011e+01,3.068101191935073189e+02,1.171649848118444197e+02,9.914295831389001279e+00,-6.634751636342165249e+00,-2.538630819764686919e+02,2.724529443901876675e+02,-2.346378628148373480e+01,1.196891574631506217e+02,-4.897290190390140907e+01,2.020354345014793580e+02,-2.198956937965556051e+02,-3.882932862727034262e+01,2.236322889511146528e+01,1.123193840839701920e+02,1.576719253968639975e+02
-2.242791115576585241e+02,-1.689797094036370311e+02,1.093214563891034459e+02,2.758997620471800474e+02,-6.071163528971270296e+01,3.242918273651294498e+02,2.103250916112366440e+02,-1.187043447866084591e+02,-8.495680996063181567e+01,1.038099785634900296e-01,-1.445930100211479896e+02,-1.096539843571694774e+02,-8.618542889939396900e+01,-2.746624503534180803e+02,1.134969400364054621e+02,1.252729283939636389e+02,-1.763242052966711810e+02,5.160715081240001467e+01,-6.693901490096736495e+01,1.891125281510832394e+02,-1.369000953479817611e+02,3.867500048630785159e+01,7.766971713823575385e+01,2.192758417132630484e+02,-1.009005609473152276e+02,-1.807914137650025843e+00,2.054529466679617400e+01
1.406512740513568929e+02,1.201667698589979665e+02,-4.778044834855250400e+01,9.717702179791372075e+00,5.485147445312140491e+01,-2.111395087934610899e+02,2.105582054462211090e+02,-8.624753139453083861e+01,1.060820331435069903e+02,3.213217042459219215e+02,-2.098368177144472924e+01,-2.493083205974779659e+01,1.012961773455421906e+02,-4.271973697354888344e+01,-7.699708274079793568e+01,-7.793296463673709695e+01,-1.980603920430106086e+02,-7.054697320810782912e+01,-2.929570788271795578e+01,-4.189412015713265447e+01,-9.880844454568135760e+00,4.961941879457599214e+01,3.000102104015134046e+02,1.354410620699801200e+02,-2.296152908133356334e+02,-4.091546863819074247e+02,2.745846398278988687e+01
5.680819339544201085e+01,2.340055638324901963e+02,-1.028593127255637683e+02,-3.034873576863003919e+01,2.001867103010756352e+02,1.197444280031860728e+02,-1.161864570585059937e+02,-8.926169448733540435e+01,6.041294982643248801e+01,-1.283690334612039230e+01,-8.212885514114788066e+01,-3.994905562697072696e+02,-1.148764708151732918e+02,2.433516524871772049e+02,1.478430730351858529e+02,-5.001639498361524439e+00,-7.689559164396086999e+01,-2.167830075077206970e+02,-9.025219320775327958e+01,-2.002701037966952811e+02,2.259786552226630363e+02,9.308008418063012357e+01,-7.297443584965577656e+01,1.074534339755632715e+02,1.467335536046581694e+02,-1.982789212726659045e+01,-5.603832534683983901e+00
-2.102451022714311648e+02,6.377473537050180852e+01,-6.356862461635954986e+01,-6.591690054012475741e+01,1.221108930912489257e+02,-7.839703928135197941e+01,-1.468354921189932156e+02,-2.463132258442985290e+01,1.730969941883054162e+02,1.030309522610944413e+02,7.275874924731253657e+01,4.460605298553148401e+01,-1.599483282989213162e+00,3.722573492416772467e+01,1.061997347378985808e+02,-5.647637112837607987e+01,-1.389762307947426621e+02,-5.818474221359483067e+01,2.322176915512596054e+02,-3.973201420121079082e+02,-3.671556887734953989e+01,3.119384218958434190e+02,4.274396464687076502e+01,8.421788177368780737e+01,1.313936003792244662e+02,-1.886258239738423299e+02,-5.782512158982660821e+01
-5.345563298201486191e+01,4.575370711250067046e+01,-7.402241270106240734e+01,-8.760262621767381575e+00,2.925137416237372179e+01,2.193267529317288123e+01,1.590310813621760815e+02,9.317436569628694087e+01,3.143852051592210017e+01,-1.116457152517746323e+02,-1.323113329651211529e+02,-1.548742676319137104e+02,1.871254562777476371e+00,8.117438010504780266e+01,3.426529400859565726e+02,-1.686955541025842251e+02,1.497587634891863502e+02,-1.147105192038262516e+02,4.782582531525446257e+01,-6.667975598602239096e+00,-5.906413887756444270e-01,-8.311986660499292157e+01,2.040288316848421744e+02,-2.998682048018990258e+02,-2.103853559222427805e+02,2.932059992950364347e+01,1.818997923776687173e+02
-2.109306662445696361e+02,3.135107854737975117e+02,2.079368168632525169e+02,7.798559363176394754e+01,3.428122660907832397e+01,-8.702588963225879581e+01,-2.351735952788972099e+02,9.166909824150189934e+01,1.986064767124261365e+01,-8.093141702712236452e+01,1.048919229051761590e+02,-2.195277138975740616e+00,7.984513321689060694e-01,7.410787004250514087e+01,1.223476811754198934e+02,9.460945041475932271e+01,1.332983447632306309e+02,1.395120596105531376e+02,5.595876071414311781e+01,2.940303097738111049e+01,-1.262004095325658000e+02,-1.492210046945436943e+02,-1.188610902370113820e+02,-7.958843821290756182e+01,-4.049006596401567890e+02,3.410720031961710585e+00,-8.560034145415761131e+00
