-6.996115239901936622e-01,6.696502125448840215e-02,-2.327025117845336333e-01,-2.133021842362523124e+00,-3.011271680260557471e+00,-2.055990609990967777e-01,-7.735092279537858495e-01,1.106040784673726129e+00,2.818691484332855879e-01,1.998137582222829112e+00,1.410338602716892931e+00,-1.055649095122021652e+00,1.750016159403074312e+00,-1.706373749605201828e+00,3.717685937298673693e-01,1.347871046309646326e-01,-1.782962508315534489e+00,-9.587233811504111136e-01,2.496725794165619128e+00,-8.125803570510228280e-01,-2.220486591771767326e+00,3.426418506649376861e-01,-3.424635445486873264e-01,1.413318770293358506e+00,2.925559454029010187e+00,-1.103826809155833644e+00,2.718107885937243395e+00
-1.930010410501034279e+00,6.032748762933786146e-01,-9.550262413047475030e-02,-2.414167524862636735e-02,1.570775531028937522e+00,-9.624686939613362746e-01,-8.496030812278252409e-01,1.158891276752176541e-01,-9.204543091217001760e-02,7.842449210483883881e-01,-3.628308432529018246e-01,-3.141929730541628829e-02,-9.271747641742520418e-01,9.012582219576433795e-01,-6.875652465223410781e-01,-1.565282819874704301e-01,1.435451082244118437e+00,-3.802479069808369694e+00,3.722517162572607785e-01,-2.060206388719807991e-01,7.034114506599212779e-01,-4.861211592912746959e-01,-5.237825035682964758e-01,1.397643674653426649e+00,1.631098716073826171e+00,3.635012286055497865e-01,1.276134000765490217e+00
-4.491364783338717276e-02,-5.788102666609690194e-01,-6.366565836453640381e-01,-1.413067565455819574e+00,-1.620315858456800040e+00,-9.028360899971832332e-02,6.883662968230451762e-01,1.656703367389077641e+00,-1.280549837759898057e+00,2.219271721231598493e-01,2.178858272693401599e+00,7.216984884948850210e-02,7.811016378352239609e-02,-2.232545379952420639e+00,9.426916417207854837e-02,5.690353398705411125e-01,-3.794428621445117833e-01,-2.114158521645587374e+00,1.335155538773689754e+00,5.425900728780717053e-01,2.417768643661075967e-01,9.250114443278809606e-01,-1.315770435074792966e+00,-5.849645079332745912e-01,3.159504622156123155e+00,4.951521567898402032e-01,1.388269477703526177e-02
1.868634939440090736e+00,-3.891828308090081734e-01,-2.779469510473836280e+00,-6.365987852067822583e-01,-2.241871491658717463e+00,1.172682163678933520e+00,2.850872297307747605e+00,1.571897946540678159e+00,-1.851393613386461912e+00,-1.469333758682495716e+00,-1.212875023630497484e+00,-3.646918948836578855e-01,2.851809063565167612e+00,1.952731455705416785e-01,2.500516080105141814e-01,2.367540550519621423e+00,-2.562173007869216868e+00,-2.028198454935554729e+00,-6.127196512021998442e-01,2.247520227258867020e+00,1.423086523706005024e-01,1.828522881459822003e+00,9.609666056663165312e-01,-4.425834951413879503e-01,-6.744747883497267393e-01,-9.890261546679818272e-01,-5.643973812340387711e-03
-1.311520922669850320e+00,3.969051697789231503e-01,-4.160426377694526057e-02,6.430433923317445677e-01,-4.934462609765560837e-01,2.254805870971566595e+00,-5.977692662767276899e-02,-1.759395173838151472e+00,4.038290100592326071e-01,-1.318245340894391049e+00,4.083719223817065536e-01,1.266058305487397950e+00,3.880848768834101126e+00,-7.144136299863890205e-02,-1.006429661354467431e+00,7.933896522736587353e-02,1.521920670446177626e+00,9.821946043857536779e-01,-9.485387391821231695e-01,-4.420929524236376196e+00,1.089389808557909234e+00,5.833851670317921068e-01,-3.187137763759940956e+00,8.304756673897994990e-01,3.805567025632044520e-01,-1.042789672314224259e+00,8.928235204466735686e-01
8.598703495292026044e-01,1.634679643124448800e+00,-1.639166229772108796e+00,2.535985474884620228e+00,-1.067344449632484427e+00,1.153233052840440642e+00,1.958050568229156241e+00,6.917244408893450380e-01,-6.225190785751104627e-01,1.906442562958083009e+00,-7.023692367667369041e-01,-1.579482064871838842e+00,-5.463147352532026213e-01,2.653042459637183104e+00,-2.314042099524620255e+00,-2.141658240519442646e+00,-1.424209957450581210e-01,1.958828875178482587e+00,-3.964253612274941108e-01,2.380005051894401036e-01,1.436068446502490881e+00,1.678514638073768550e+00,-2.660652369534254547e+00,-1.765826170309197751e+00,8.140335183622681159e-01,-1.608018526380656343e+00,-2.339751314373963886e+00
3.565743711282285955e-01,-1.555543325243252673e-01,-1.997582072127530584e-01,-2.008891269584972772e+00,-1.430453228790017350e+00,8.543086390358459181e-02,3.984967185307985438e-01,-1.299567700341457410e+00,-9.843060554995222144e-01,-1.155304524014380219e+00,6.304303984954064966e-01,1.688379287108949578e+00,-1.499798706435654161e+00,1.509742877342640677e+00,2.874563315672307162e+00,1.169774728182663592e+00,8.187535660419644756e-01,3.705365346521304337e-01,1.375111009218523028e+00,6.082293840968576448e-02,-1.120761771271153950e+00,-3.089351681604747268e-01,-1.710851960023727913e-01,-1.531423748128490914e+00,8.645209493899488340e-01,-1.567465413125200158e+00,1.262592485901477435e+00
3.935277374834595943e-01,-2.478082556845822293e-01,-2.589437441115895466e-01,-1.161092231877063785e+00,1.540802531390611241e-01,-8.438576516206454103e-01,-1.400559521284232778e+00,1.253577597600010085e+00,-1.500028091782420914e+00,8.062335015099711955e-01,-7.669692206805384105e-02,5.721429916609105382e-01,1.708277439146566934e+00,7.263700183403103139e-02,-9.685118999037423126e-01,-5.496990942403338076e-01,-6.629656116397328880e-01,-1.525537025850348893e+00,-6.342314781149755998e-01,6.676624000502245915e-01,-1.246646159271222187e-01,1.867942561200101881e-01,1.288779868616333479e-01,1.411869954322352960e+00,1.806646264365918908e+00,-9.393129875557242325e-01,1.754026914620685718e+00
5.457686294485075001e-02,6.674545193780065944e-01,-7.794359940858478497e-01,1.516108628994166929e-01,1.137442320876893564e+00,3.878679263397988297e+00,-9.943240554417100974e-01,1.523015482475663873e+00,1.755255859249104933e-01,-6.401252239884017703e-01,3.941464363672894100e-01,-1.014821409805244157e+00,-1.231565368901366586e+00,-9.948699284182930258e-01,-1.258914795348283988e+00,2.251742267138059361e+00,-7.251505909750245449e-01,8.614257749837703759e-01,-2.372118476977107537e+00,-3.216772691175803001e+00,1.694355170725998727e+00,1.250205504038980342e-01,-1.641078342779806576e+00,8.725157521146094386e-02,1.661817785550558035e+00,-2.134129320458871271e-01,3.814077844193851652e-01
4.414141347935688908e-01,-1.903929544937166263e+00,7.041832318865732798e-01,-2.304829958201432827e-01,1.197210365436273793e+00,7.773566669240474791e-01,3.685468450199507195e-01,-2.049070139993345863e-01,2.396053794033939255e+00,-3.131087339718447993e-01,1.874661892867203195e+00,-1.673456819081590607e+00,-1.599305587416038898e+00,8.213786649475732782e-01,-8.258005975434670187e-01,-8.472247756687304454e-01,2.290512227885161511e+00,-3.003433080748712028e-02,-1.039313681298828174e+00,-1.124684750580770221e+00,-1.558435204661147377e+00,2.097996476823941414e+00,-1.943841001873551633e-01,-6.778465632678379316e-02,1.654573746460484829e+00,-2.366091275980209296e+00,-7.022036502439132910e-01
3.736863604513960269e+00,-2.277554927901478621e+00,-1.707145395866989324e+00,-8.793301908751518514e-01,-2.139213116805009640e-01,7.778367667272251262e-02,-9.444052879502756737e-01,7.226135298294883436e-02,3.485414243795844635e-01,8.266595564742209579e-01,-1.051801375087779711e+00,2.848394306819456157e-01,-2.134961215789215494e+00,-1.303808037975741629e-01,1.462949465061282428e+00,-3.387949090437566979e-01,1.118449226139846209e+00,-1.939821544645322859e+00,1.118578798733336654e+00,-7.753270285123041727e-01,1.215430621006520440e+00,-1.197559429200466763e+00,1.270937129403038046e+00,7.603105656366405951e-02,2.679215483897631422e+00,-3.995762070547340672e-01,-3.134764356975294763e-01
2.382323375121838005e+00,-1.146650599811181559e+00,-7.462456281960647142e-02,-2.155894534267617513e-01,6.894183784575864671e-01,-4.623069306462319061e-01,-7.480254959486773991e-01,2.433743742320594317e-01,7.249150508813418936e-01,-4.770070911837769739e-03,-2.149965255312223655e-01,2.681925672597975166e-02,6.848961644130281412e-01,-3.713404842206526890e-01,-1.204900670498721266e-01,-1.423873914726073719e+00,8.204275770428043346e-01,-1.309000758755283877e+00,-1.042219420509752359e+00,1.472358877808797262e+00,-2.847452665783330450e-01,2.043204555454426696e+00,3.124806762162157248e-01,-6.931931298363749328e-01,-9.224062070270154789e-01,-1.594944762332756449e-01,-1.838550264692045411e-01
3.608072798368529011e-01,1.725693698871170745e-01,1.908716110189287773e+00,-1.015785352284605425e+00,2.779436545680727733e+00,-2.317903481162840174e-01,1.810554040011352894e-01,-1.588670328970336401e-02,1.246368470197977141e-01,-6.193251807443040935e-01,-1.045204445641873425e+00,1.064103916718841969e+00,-1.713232466153081113e+00,-6.816608787072377940e-01,-8.178772094595735398e-01,-1.624150883049502614e+00,1.661604774581620481e+00,-8.692986122065016197e-01,1.263082437663893165e+00,2.547650569883612715e-01,-9.886826712739104073e-01,-2.854649551557746079e-02,6.207909973741467802e-01,-2.938954187954272435e-01,2.563946405655477268e-01,-8.387187579769253554e-02,-6.527698956713849920e-01
2.654143249679216332e+00,-1.975337077608329439e+00,-3.521584114131608989e-01,-2.615669317407881000e-01,5.130369537340396802e-01,1.376706258735981736e+00,3.494756198452804719e-01,-4.628403002069000904e-01,1.745635621633548018e+00,8.861894438782006445e-01,-1.647972450053083682e+00,-1.664575033136760918e-01,-7.320368684619399380e-01,-5.763842284241893488e-02,-1.568264928741076369e+00,8.566944479999287765e-01,3.970078152211228284e-01,-1.742516316801994369e+00,-5.240810534957029976e-01,-3.904042310864194731e-02,-1.028933548785609942e+00,2.219759809205056555e+00,6.828627773937632206e-01,-1.112329276907317199e+00,1.429740812453076382e+00,-1.215716377633231371e+00,-1.670280197976186654e-01
4.561241813034935116e-03,-6.175898539723095881e-01,-1.384370957536244395e+00,-1.193754843966134960e+00,6.434967957784730741e-01,9.417658196315507046e-01,1.909804273522444085e+00,-1.013999986411860066e+00,-3.814511322051951647e-01,-7.319211236485622107e-01,-1.363453477298606775e-01,1.452935678010005005e-01,-3.835946073510459464e-01,-6.817316194611764413e-01,-4.874692760955639387e-02,-5.661488170593529379e-01,1.783748510254459241e+00,-1.891990035729065767e+00,1.371909581676185264e+00,-1.547750265703763617e+00,-2.106547255063600521e-01,-3.826842435700932854e-01,7.209841059610900237e-03,1.575156875539178492e+00,7.848459645997664103e-01,8.101275523275469626e-01,1.224263439565177025e+00
1.261127685917860841e+00,1.094638218256929058e-02,1.165580495486268520e+00,-2.590534091033517061e+00,-7.686530774760664819e-01,-1.550086621676608045e+00,-4.451695963448294435e+00,-1.069964602765751227e+00,4.650886817295455167e+00,-9.740471397768393214e-01,1.113078249296523214e+00,6.839321343648757656e-01,1.369791647508586507e+00,-8.299118275557582081e-01,-1.793269383697309038e+00,1.411278060343507113e+00,-2.796935890260085600e+00,-5.896456193629516784e-01,5.838869897930235031e-02,-3.216696472975317356e+00,2.523813737405648627e+00,5.341885727756540136e-01,1.720406593083297686e+00,3.485019427484215893e+00,-2.437263114268839903e+00,4.100274531362203767e+00,-9.939697748275388989e-01
1.097192487785214388e+00,-1.000477574205935083e+00,7.220922329636324521e-01,-2.130458427988202619e+00,4.161083840952958801e-01,7.002575816376659379e-01,-1.973391899955594164e+00,2.584169139477530130e-01,4.935154571984989857e-01,-2.125339651748799907e-01,9.572772138052173529e-01,1.395160425266811499e+00,-1.397138389725650853e+00,2.637086261601655046e+00,1.975818090462870602e+00,4.167467789062551664e-01,-1.043034393532862314e+00,3.224122367614631335e-01,4.985373749769878571e-01,-1.492565140130542867e+00,1.429586023448631504e+00,1.332916424231013641e+00,-1.310578700762768500e+00,-1.947516865434421929e+00,3.810280000477762608e-01,-1.410298458025124324e+00,-1.050979762753180946e+00
-1.272166482686248434e+00,4.022021339036040977e-01,6.429587320334344547e-01,-9.073576009904571471e-01,-4.943888922660373830e-01,-5.341476970884314612e-01,-2.221896848313802408e+00,8.137010648973979077e-01,-1.319213220786057850e+00,7.915440914615115564e-02,-1.166839168745213533e-02,-3.762722817539721487e-01,1.190886961360751561e+00,-1.901190726629281125e+00,4.237221850683759589e-02,3.270762287542305913e-01,7.539217060289985506e-01,-1.424446841854858647e-01,1.986879491007017995e+00,-1.116223482585038562e+00,2.550457787323921477e-01,-1.254043484937741981e+00,8.910832031883189064e-01,1.490746430359425778e+00,2.166664224979339526e+00,7.685848049197827351e-04,4.531529312854931657e-01
-4.565105714779073565e-01,-2.272470240879838510e+00,-2.280318837246690489e+00,-6.178965057749082890e-01,1.108159575638065331e+00,2.713551594668434319e+00,6.811914660479604366e-01,-9.280876342873534135e-01,-1.108706719736839874e+00,-1.033112505192772757e+00,-1.385373330555641935e+00,6.194412258911105584e-02,-1.502704938851280092e+00,2.089830861587801958e-01,5.212554572238201622e-01,1.114913706834815610e+00,6.752797972211258548e-01,-5.222840796018774628e-02,-1.789558818671928009e+00,1.104858382105680770e+00,-8.381923037283888211e-01,-6.670525043578166002e-01,4.073409554690170936e-02,3.402160666446573778e+00,9.854331242897207410e-01,-3.831577471052489137e-01,2.664702744111314026e+00
-1.369066578974267312e+00,-1.472513828478975384e+00,-2.742053533377596164e+00,1.208409252456409622e+00,4.341678265266794012e-01,-7.815643525870754615e-01,-9.476183809684026738e-01,-8.027349731974487979e-01,1.501768694068335463e+00,1.350131510399616763e+00,1.670599359682507223e-01,-1.398608907294613513e+00,-3.945711073271103431e-02,-4.221311063662700480e-01,-2.722602575393102131e-01,1.016570402715876620e+00,-2.532107040976985801e-01,-1.881335482359128397e+00,6.057096081379904629e-01,1.220014367878573536e+00,-1.427722082814460336e+00,3.651769980100549873e+00,-1.186350677383254615e+00,1.457462747767520606e+00,2.083367737428832189e+00,-4.193087816370049126e-01,7.274934543949790333e-01
6.777696642229301682e-01,-8.689838631203572472e-01,-1.735678903487937852e+00,3.010690996070023440e-01,1.670267652930240709e-01,-1.377334535953077532e+00,1.466778564736664681e+00,2.866923973780728385e-01,1.698546245958296730e+00,2.616926378015235866e+00,-1.850705384366189366e+00,-5.741793302689152112e-01,-9.525494140457537728e-01,1.243696152110873032e-01,-3.251534368486418969e-01,1.348061630864772154e+00,-1.328263187343342810e+00,2.806547874364898831e+00,-2.284255737487282722e+00,-5.347871408698556817e-01,3.416769231500091375e-02,1.755193764954755098e+00,-2.934567850625848795e+00,-2.262002104886849274e+00,5.610727537389920139e-01,2.228941151744791238e+00,9.769357513989946895e-01
-1.285158663996075257e+00,-4.487375157833194406e-01,-1.187498646676703240e+00,-1.428117723172414033e-01,1.213573532457921988e+00,-1.296164821671782041e+00,2.143600306492183361e+00,4.371392833695041946e-01,-7.410097453770670972e-01,4.253903060618558496e-01,3.148039424466895220e-01,-7.564777966718027047e-01,-7.616722842859893206e-01,-1.126020420792692676e-02,1.717230554253625252e+00,6.323844361864957575e-01,-1.171226394940186211e+00,-3.718703143132393585e+00,2.073112252570396274e-01,2.184440591025982759e+00,3.933716736410401982e-01,1.914058782375984924e+00,-6.534742659161258960e-01,2.356878041581040861e-01,1.198955613868599279e+00,-1.381030479259695465e+00,5.588877612033914533e-01
-2.681244505615706375e-01,1.223179426867717412e+00,-3.722825910140620254e-01,-1.050702843981500045e+00,-8.570884194840644454e-01,-1.002637403163811891e+00,2.882205885414971247e-01,3.983586433495879264e-01,1.939165468776056001e+00,-6.763346179611742226e-01,-1.271986374549055165e+00,-1.189600406618455564e+00,1.079200291849958582e+00,-1.326334233711123023e+00,-1.873769061180028173e+00,2.093744825149865374e+00,9.743509296244960982e-01,1.931108577829661055e+00,-1.450968873649703672e-02,-4.662695214594940740e-01,-5.523958319328933220e-01,3.315021372006000666e-01,-1.353112464918949209e+00,1.162652158933648039e+00,1.398556092734346334e+00,1.739185925831864266e+00,-2.281575234280090569e+00
-7.359527178687883531e-01,9.552038610471595692e-02,2.147256646936042568e+00,-1.045493448631230837e+00,8.689556352665224193e-01,-2.116082172150196283e-01,-9.253145174643514492e-01,6.728620959484764574e-01,1.858866978239801515e+00,-1.054047659423931860e+00,7.132054535884909674e-01,-7.665676045595769539e-01,1.353552840163176674e+00,-1.125812730443038534e+00,4.184740576538102386e-01,-2.370831888912101337e-01,-8.002832133246319257e-01,-1.218454229999506921e+00,-2.542405341492562365e-01,-4.027385235934144991e-01,2.734999835217340802e+00,-8.215737625260273180e-01,-1.036709343507340897e+00,1.458090387263306198e+00,-6.466364275399371087e-01,-2.037913683944934107e+00,9.900978533772832879e-01
2.007510946645145289e+00,7.042362196220589565e-01,-7.719770644009178451e-01,-2.026970943719786644e-01,8.146712987915177839e-01,-9.837520375411322737e-01,-3.848588472511318970e-01,2.010811091896121117e-02,2.013448317029755685e+00,-9.119115020353536494e-01,-3.859451860185449390e-01,-1.013525244979740725e+00,-9.244188682292316939e-01,-2.808187550278774536e-01,1.495114209918945065e-02,-1.083547427271253749e+00,3.259302242758890689e+00,-2.106684621375298772e+00,-8.548075271079974558e-02,-2.573369961222896074e-01,-9.869748525103623216e-01,4.744913696477279785e-01,8.237907136406054098e-01,1.230082661279455619e-01,7.375692760440389906e-01,-9.277204157452277888e-01,3.613044017742562675e-01
1.552301909660477874e-01,-5.796381887750926554e-01,2.955302710660558940e+00,6.272538370133716734e-01,-1.877571053510422194e+00,8.477669524891865427e-01,-3.892346473873409263e-02,-2.056778868224306223e+00,-2.038367520004720657e+00,-8.004293418631782675e-01,1.059965781107868876e+00,1.558604159689299662e+00,-5.017267599682881940e-01,-5.903138607196687371e-01,-1.537567064751017343e+00,-8.802189717616405451e-01,-1.697080939007612477e-01,-6.531860315805356754e-01,8.550041862608537269e-02,-1.253754472134360975e+00,2.487491282976787288e-01,4.582959976386462991e-02,9.772377350698060461e-01,1.586905328362472778e+00,2.419970948329996041e+00,6.213555734806870401e-01,-2.086551025916846547e-01
-4.741321759438000827e-01,4.768914025671376899e-01,-6.842193361172871358e-01,-8.403076601750318897e-01,2.571816422700360164e-02,1.441627664788291519e+00,-3.830043357548807426e-01,1.043912306914473787e+00,-2.336723776814077169e+00,3.074440253954037749e-01,-7.400853092437088554e-01,1.122672206962787612e-02,1.425417786248578400e+00,1.114663679459986678e+00,-1.192713757677301034e+00,-5.415472189091908861e-01,-5.694586968917682290e-02,2.127898608624352872e-01,1.344921505815160678e+00,-1.481329421160910487e+00,6.388955821587181116e-01,1.595102248671046219e+00,-3.331557601907341182e-01,2.410843675063900626e-01,6.263639053143821300e-01,-7.714158436493062654e-01,-6.700302973717953137e-01
-1.670974551612243397e+00,1.800455777275086433e+00,-9.206385300209199984e-01,3.800887880501773175e-01,-6.971409360577369707e-01,6.492318994293653223e-01,2.533997101486835657e+00,3.989535059534424222e-01,-1.760987818546777994e+00,3.869190986115919051e-01,-7.199815237506187494e-03,1.886934182818144623e-01,5.085203984421001744e-01,-2.255844379024155300e-01,3.076576037792633778e-01,-1.944171033070147381e+00,-3.853047618723794976e-01,1.345560316734472961e+00,2.175803077024467846e+00,2.646243343221117428e-01,3.138476068821072773e-01,-1.205556589346976404e+00,-2.058718516196028858e+00,8.659521042154674775e-02,-9.534713618020733694e-01,6.371384937560679029e-01,-1.413165444075711596e-01
8.539329839353572149e-01,-1.524184806754238952e+00,-9.712775182111808014e-01,-1.187901139989051114e+00,6.628949432577952994e-01,9.710355557380391245e-01,2.174445283208258139e+00,-2.586786271357809586e+00,-7.621055585830284196e-01,-5.265924755758035758e-01,1.048176234362604653e+00,-6.075642744280719265e-01,1.988663797995348093e+00,2.063280023565984000e-01,-1.653808743926291902e-01,-3.312909833839985385e+00,7.994984263027674620e-01,5.722382202614323399e-01,-2.357678417331925680e-01,1.097079739069535931e+00,-5.708675596569439126e-01,-2.975210649129155227e-01,7.385430808023312199e-01,-1.972794504569087837e-01,7.181053865225024424e-01,5.854626069295846280e-01,5.219654575323597889e-01
-8.144186613346136028e-01,-2.076059554778438621e+00,-6.890358443076730621e-01,6.231899224753777444e-01,5.932223772932289363e-02,-1.918737066776421696e-01,2.521328189348690518e+00,-1.555789466995605608e+00,3.221289322168948144e-01,1.202073516424944311e+00,1.509208112689723658e+00,1.268460215109381561e+00,-1.292711828268279239e+00,-9.096954594792379112e-01,2.559064878317828473e+00,9.399995023970916241e-01,1.089001943457758026e+00,1.738042754767876952e+00,-2.700874821855497321e-01,5.573033721169158294e-01,-2.579222340093019650e+00,-1.705088185044617788e+00,-1.378922695500148565e+00,2.076213784427075382e+00,-1.325332323235209442e+00,-6.869815253362357987e-01,-9.601648775677888992e-01
1.064272033252367633e+00,-3.200399721003817977e+00,-5.232929006162051477e-01,3.889406166305377222e-02,2.205788166367112613e+00,-1.381137871529780181e+00,1.485502786456102120e+00,-9.587077427476352609e-01,1.724121333948637425e+00,6.708812044050688206e-02,-2.449945455571907349e+00,1.801614814962197553e+00,1.020778780723576168e-01,1.348545302112825306e+00,-6.368049891256357675e-01,5.378374255770509427e-01,-1.193222350611334859e+00,2.172302359879668465e+00,-1.530917781994935112e+00,-3.923124279717655760e-01,-1.137308358422966181e+00,-7.033750622678675013e-01,5.320634656149010766e+00,-2.341117683001100680e+00,-3.838023940380368426e-01,-2.356677888921526964e+00,1.338789575388381392e+00
2.263864032562671325e-01,-1.896219510135704889e+00,3.458930747522581672e-01,-1.388087947092468133e-01,-8.700813791838645228e-01,-1.376468029392661774e-01,-7.995675764773718663e-02,-1.133111731034669889e+00,-1.236055185878446094e+00,7.452512050934237964e-01,-1.186835279057801174e+00,1.157195073175407929e+00,1.792090489395562924e+00,6.855491608304481455e-01,-3.801507417791580301e-01,5.104414276260684780e-01,-1.276601664211577947e-01,-8.816323520953657233e-01,-2.770898151230678508e-01,-1.233563106424559130e+00,2.738111089269972709e+00,-6.176022209468599033e-01,-5.913971244234510483e-01,6.968039202126892206e-01,1.429456378044886344e+00,-3.491978087924991758e-01,8.410449952983264366e-01
1.845737401865900740e+00,4.309095309338367152e-01,-6.890022906488295629e-01,-1.105208308884842561e+00,-7.791888107926723261e-01,-2.313351838083748668e-01,8.891845567222358415e-01,-5.599927864024430990e-01,-1.635389871445973364e+00,-2.706793312967144538e-01,-1.818856127384886445e+00,6.648242088965753416e-01,-1.127124080712069931e+00,-2.957772341428610563e-01,-7.814478111883934597e-01,3.152808126256593457e+00,8.381291385550129203e-01,2.541338082128879461e-01,-1.986637994634288806e-01,-5.336037713077739220e-01,1.546788150578179977e+00,-1.498935232018081321e+00,9.230345011928438037e-01,8.441959101800841081e-01,-3.891366937849760066e-01,-1.892693551048905576e+00,2.487286559894327453e+00
-3.816050345189621607e-01,-1.229696954876269066e+00,-4.014802172031638888e-02,-3.657397936764736346e-01,1.073221988030410579e+00,5.872687688575214393e-01,4.486595432773410330e-01,-3.984383119246209248e-01,3.183706156726615055e-01,2.536490859635327517e-03,-9.232985065838218430e-01,-9.297067076596009505e-01,2.328833600638334556e+00,-2.074050063711527336e+00,-1.292777173360532661e+00,-3.260017648056763861e-01,1.408814467450560048e+00,-1.122975220978556399e+00,6.752113604942903968e-02,4.551989293883241250e-01,2.294819793032134847e-01,2.608223446875369333e+00,-8.146353806557294908e-01,-2.633166877125185490e+00,9.127162723063532157e-01,-4.589123419292698292e-01,2.529994195103232979e+00
4.375164292062151961e-01,8.576661171954237384e-01,-1.754446661535059793e+00,8.713991555406380707e-01,-2.119011095890189489e-01,1.122103209987227235e+00,2.013846587972422331e+00,3.279584628572277949e-01,-1.901258751282707826e-01,1.343495185539370418e+00,5.816978850483413011e-01,-1.594063091677038413e+00,8.058054991029586223e-01,1.336400973681129534e+00,-3.066325832468118073e-01,-1.383779668987376033e+00,-1.384168017157563657e+00,-1.360577407191388144e-01,-2.165181294440228221e+00,-3.662303787509040287e-01,-3.748066777368078140e-01,-1.833612158346962451e+00,2.073015461262028014e-01,1.510852204715322999e+00,-4.518748698152617177e-02,8.892762931691217121e-01,-5.081042940023212662e-01
2.275632287133760645e+00,-1.068599244725166042e-01,-2.266778327531890458e+00,4.079018076614104871e-01,1.990245671321049681e+00,-8.080604457261837403e-01,-7.134131773742514726e-01,2.424815218069363176e+00,-6.853067891273816326e-01,2.999504279585120670e-01,-1.558384161519276390e+00,1.216220403662625182e+00,-2.141307941213890675e+00,-7.899915661201613037e-01,-1.081574039360033046e+00,6.184546671455757316e-01,1.795774955564722331e-01,-1.860179279741176028e+00,-2.058222977993148795e-01,-1.182971435542980121e+00,-1.148158056036863335e-02,1.523643351947172597e+00,1.468768334294559663e+00,1.014236007817391982e+00,1.263247379902308731e+00,2.183869968497402225e-01,-1.546414477017272304e+00
1.081584745838488404e+00,-1.398587411094635469e+00,-4.242936799470671261e-01,-1.479249695052348157e+00,1.353567921129729346e+00,-1.775707584950269702e+00,1.488367095711091714e+00,-1.665658861845652261e+00,1.734555344181520464e+00,7.190123343773928699e-01,-1.235135412691781731e+00,4.636103201890760528e-01,1.973144260937831074e-01,5.050853845766728467e-02,2.455597407965357803e-01,-1.824911509544415056e+00,-6.682410980789313948e-01,5.110008040308570143e-01,-8.262196976154367878e-01,3.344759977706127096e-01,-9.643298340827687332e-01,-1.483402519878728176e-01,-2.142615460174009390e-01,-8.276747841534565220e-01,7.632099959710852977e-01,3.801062538965794602e+00,7.468657798456312946e-01
-1.154844520738844027e+00,-1.674319841612797788e+00,1.005663493560553512e+00,7.765220224549185257e-02,1.172157714634425751e+00,1.593522000981110853e+00,-1.780961456782164110e-01,-2.226814106834470230e+00,-1.787821599375542858e+00,1.028806809211073814e+00,-1.382716124619042253e+00,-1.636656289002947018e+00,3.208367370729143797e-01,5.161055902435878959e-03,1.273725096091820053e+00,-9.310449606376455245e-01,-8.645861981335736246e-01,1.623912223455406867e+00,-1.054487177052268354e+00,1.072252516040885117e+00,1.485087144225089695e+00,1.167939786810676672e+00,5.251341340303165017e-01,1.544135415906866315e+00,2.614517781703281155e-02,-2.933233802182582881e-02,-9.640660061853235652e-01
3.596865557906275157e+00,-1.698151135427419245e+00,-1.519746414528925005e+00,4.849927311867271995e-01,2.813924654585763241e-01,-1.920852845917355722e+00,3.742623849607336350e-02,1.327575903129916357e+00,-1.647436540222388945e-01,1.099426825031099009e+00,2.437270389957455929e+00,-7.842140434186569697e-01,-4.058448723960558224e-01,2.567952817623796874e-03,-1.678474233848292307e+00,1.976764273496343094e-01,-5.690668916717909198e-01,-9.313043576717076055e-01,4.507633884176461270e-01,4.710227542915659260e-01,-2.273462895312199916e-01,1.082449507087049762e-01,5.578298656640587883e-01,-5.185584435045857976e-01,-1.009892078869539134e+00,4.605520757272679733e-01,-1.062392831218494510e-01
1.085969053184808519e+00,-1.009156025208321150e+00,-2.274468296838993153e-01,-1.847785591422726803e+00,2.170142040313153942e+00,2.500848196588223993e-01,-1.309555880019460661e+00,-1.293304026801225470e+00,1.201621565971336292e+00,9.003881668609550748e-02,-1.282159599239074854e+00,4.678051498584180901e-01,1.315940912636884841e+00,-4.715274083476040379e-01,1.344416298437588031e+00,5.072374536252738375e-01,4.575491847191526795e-01,-9.547588147488249577e-01,5.986767800040900811e-01,-4.998216679558413755e-01,6.472379773994919594e-01,2.044837023894897854e+00,-3.560614019611185177e-01,-2.229513722620798166e+00,1.012980571473815594e+00,-2.559295902268260772e-02,-1.706607977887041327e+00
1.073227198445414032e+00,-1.982476176979822702e+00,2.711819035791020460e-01,-3.470255184703785467e-01,2.650859351909145567e-01,3.843631624369507005e+00,-7.343435781056180112e-01,-8.800571682996363165e-01,-1.154268421941982536e+00,-4.734814957344328223e-01,-1.258189132683045885e+00,7.044396660502540986e-01,-9.489796146805250521e-01,-6.490157838813467306e-01,7.180808499906075060e-01,-1.145036685483396433e+00,-2.042015766594657222e+00,1.027073430509524821e+00,-6.134652961481025235e-01,4.219474663121698943e-01,5.187196768709984029e-01,-4.118388446470717112e-01,-2.564218892343544942e-01,8.200746469368959124e-01,2.718089235405493298e+00,2.432504666166851237e+00,-1.896895183979498301e+00
-1.766624503587091333e+00,-3.368573956325413010e-01,7.548099174083687801e-01,5.806856876865408301e-01,-1.745244472758298859e-01,-1.495146649109326820e+00,-5.234789717717256430e-01,-6.669469483299222956e-01,-8.848910226441426552e-01,-1.416973189082588291e+00,1.113764833351280625e+00,9.475692916849376424e-01,4.637163301751127675e-01,-2.892021483365657675e-01,1.119842868267213687e+00,-6.740033762654794591e-01,-7.714865397052677043e-01,5.231206333702240752e-01,1.072986403200293815e+00,-5.610968273088912106e-01,1.740935605723575863e+00,1.691278320879402441e-02,1.638140500160036428e+00,4.396912375626919611e-01,1.192733457814112663e+00,-1.655889275955236828e+00,-3.586741774967411311e-01
2.404742455649743427e+00,-8.124179911409273869e-01,-5.284267600500335282e-01,-4.694403650550406093e-01,9.156606575130923353e-01,-9.234016212050375483e-01,-1.442723554140269426e-01,-2.542770624018613757e-01,1.910493587549185746e-01,-1.516925230753370490e+00,1.133350967233881512e+00,3.924688807807276691e-01,-2.761708503159290840e-01,4.068390745747191978e-02,5.686252967201882447e-01,2.852311013866891121e-01,-3.016263975322085525e-02,1.752580814424156586e+00,-5.790494321382027437e-02,-9.140903720100247709e-02,-9.850031854609688775e-01,-1.502646922378675809e+00,1.872500514281437267e+00,2.006705427816283804e-01,2.545705613493799424e-01,-8.469010270266345008e-01,-1.549706056699492684e+00
-1.771336976854858580e+00,-3.482617199135407682e-01,-3.370417342292533203e+00,-1.314532389012386560e+00,9.461467023246226127e-01,7.935127632949795506e-01,2.190705148971625604e+00,-1.493329483508179845e+00,2.419528227206027005e+00,-7.552997391467286548e-01,4.289948962488449036e-01,4.367501652426850622e-01,2.891002053524995397e+00,7.233920752829779977e-01,-1.291245279758693298e+00,2.599177987961141856e+00,-1.108753945056437651e+00,2.060081673467557106e+00,-9.800119130666955503e-01,1.262622583091625339e+00,-7.924056647652902297e-02,-1.841572644695729899e+00,-2.759592302595370583e-01,5.039171063661714023e-02,9.888239589641176219e-02,-1.427049174127894116e+00,-8.303849875869201425e-01
3.026356868420240431e+00,-1.522135634076366983e+00,5.591735962339399180e-01,-3.985933394268924568e-01,1.558365544450800000e+00,-7.366027288996311873e-01,-9.390894980875612585e-01,-2.810375691766375805e-01,-8.738390254591356099e-01,7.174234592865520455e-01,-1.447805991764827827e+00,-2.453560796454989368e-01,2.912208948387865481e-01,1.833205224359909735e+00,-5.429619004526383685e-01,7.358319794033847394e-01,-7.824644704940020290e-01,-4.636776908561844879e-01,-1.272854236814966455e+00,1.274054399470930521e-01,4.682331884015035195e-01,-4.431185575999424531e-01,-9.316256026273549429e-01,1.483508209191173988e+00,7.061947851869534443e-01,-5.387642216742811740e-01,-6.429937154756995565e-02
-1.333937876642367737e+00,1.122651977572513671e+00,5.179469512590124669e-01,-8.791082585170844066e-01,7.767242090885678740e-01,-1.012223494079502295e+00,1.178218169396484660e-02,7.610673661439952831e-01,1.029351196551124614e+00,4.160431508444826232e-01,-7.219392070065741018e-01,2.325891443487243748e+00,-2.358401357154085165e+00,-5.352699336322779347e-03,-8.510984445893235995e-01,-7.987567410798177558e-01,-3.757088988099372417e-01,-5.036320583653146332e-02,8.348092899994414839e-01,1.858122315119712598e+00,8.753093417876753879e-01,-4.721060361971696762e-01,-7.159051607953649254e-01,-1.657254019903793285e+00,2.800954503758943837e+00,-1.119337546617064971e+00,-9.789326621145585383e-01
4.597911320850384120e-01,-2.599660525369615893e+00,1.566711042027334466e+00,2.020559088201173914e+00,-4.936474703510376760e-01,1.439717548213460097e+00,1.073322220597040078e+00,1.595646181454536960e-01,7.106916319622451628e-01,-2.284748691509918217e+00,3.119652042190351193e-01,-1.344971730709219493e+00,-6.179423321644387235e-01,-1.483302123163446062e-01,-2.586737122580594628e-01,1.991237684137656005e+00,-9.327815252434568105e-02,2.055538828403545570e-01,-2.809999387697190709e+00,1.470060267332256032e-01,4.414810971937779271e-01,-1.297870579697852467e+00,-5.442846138980887011e-02,-9.621694762637296172e-01,1.235568364079354220e+00,9.957925275892766104e-01,2.112337236198973123e-01
2.285149567493161005e-01,5.767975470436068619e-01,-2.257760111313281470e+00,-8.951917657595839239e-01,-5.329070342440485053e-01,-2.231608428446668402e+00,2.849738964654166207e+00,-1.868650372367403723e+00,2.785311544647731674e-01,7.563916051405905616e-01,2.312886385815225987e-01,1.264349301228601563e+00,-9.259999104561068561e-01,1.729881215361427138e+00,5.893656842144416874e-01,9.640334027966633579e-02,-2.451841789550871509e-01,-2.431911316240843224e+00,-2.938953348695212409e-01,9.498323840355893388e-01,-2.692613342103892471e+00,-3.704482491350764017e-01,-6.417455049587436067e-01,-2.951911767077730619e-01,5.075243162663467977e+00,1.455095292862273126e+00,-3.894211408436806243e-01
1.668442814869750102e+00,2.069160098419404736e-01,-8.769859325187343568e-01,-2.168699699575133977e+00,8.368209833220192628e-01,5.512741591702846611e-01,2.070397921653357454e+00,1.053155818296543034e+00,-7.612354947759035761e-01,-9.528015188481827602e-01,-3.400343120341845493e-01,-8.010247246012430766e-02,-4.076915470492001314e-01,7.729823521474100678e-01,7.583292091963932391e-01,-3.731436882734048277e-01,-1.158864242113544885e+00,-2.317579578042209931e+00,-1.208626407377543455e+00,7.374496415577311836e-01,-8.526397089773138926e-01,-5.320763124691759716e-01,4.254285839162708638e-01,3.578293267047001902e-01,1.904994643065590187e+00,-2.827411518671413826e-01,9.055973950739479861e-01
-6.717613924087207922e-01,-1.985953958380837880e+00,-1.213664439332361455e+00,1.980212790697624570e+00,-1.071145436868537359e+00,-1.601892664167126057e+00,-6.469766277879130945e-01,1.230532801135611143e+00,1.983270678982149482e+00,-4.126005352270047111e-02,-1.410372999793997106e+00,8.498720078838805092e-01,3.046143661845508999e-01,8.624938687887139244e-01,4.317151059011659076e-01,5.212621614443901930e-01,-4.381260318775598295e-01,3.785346267036875378e-01,-1.099276515729900483e+00,3.318373358992237065e-01,9.404226020033877864e-01,-7.561594730322994673e-01,1.473444089350843589e+00,6.455047477740879502e-01,-4.210367383355186066e-02,1.761534294644745202e+00,-2.712983609568674126e+00
1.906337416718976163e+00,-2.659635230286944152e-01,-1.211287395343457973e+00,8.193043564125799261e-01,6.917019690614597538e-01,8.652314689944197168e-01,5.201214959857842768e-01,-2.284743951581569288e+00,-2.179616860902481079e+00,-1.413856421161328258e+00,2.049455892309317129e+00,1.494342112339275497e+00,-3.924169185882368516e-01,-1.029237299014311491e+00,-2.157240767889913591e-01,1.295343962807121496e+00,-3.473123613425218026e-01,-3.242600875403433225e+00,-1.562996454308303917e+00,2.119377623834986402e+00,-1.290725447441700702e+00,1.294260724761682857e+00,-1.275763089790130644e-01,1.927839747125417835e+00,8.205899350399176173e-01,-1.364892627530781000e-01,-8.401500406427586665e-02
6.496677090869338311e-01,-3.662728633552477242e-01,1.851945494408224091e+00,-1.801455118415859480e-01,-1.751866981404127943e-01,-9.646890568412790357e-01,1.634753240994880841e+00,1.641218767151453595e-01,-7.665814307735109301e-01,1.427314565999008078e+00,-1.881316637291855276e+00,-1.943630977001711946e+00,-1.011837622073717302e+00,-7.418958450531349946e-01,1.538075814266157249e+00,9.413392586028294928e-02,-3.677636406343749997e-01,-6.472523904641820369e-01,7.893043414911060651e-01,3.724383737920591297e-01,-9.714645641478600879e-01,6.291405774284756225e-01,-1.205658059419127293e+00,1.717065075508198202e+00,8.205233565283979180e-01,3.663926712793577622e-01,-8.418314396684327683e-01
-7.232748389175888137e-01,-5.942943019442574748e-01,-2.230319283746740933e+00,-8.606640288027193053e-01,-1.276879233385727952e+00,4.721764175472938918e-01,7.864973051376248359e-01,-1.920470122943169544e+00,-1.036713171860351723e+00,9.075172229911809829e-01,1.333782225546504829e+00,-4.439377345221332538e-01,-7.427417942511304050e-01,4.744713875472578724e-01,-4.200708920688243642e-01,1.836273997989640305e+00,1.004778773743331133e+00,-1.878522604490579617e+00,1.482616130952447153e-01,1.476608586702040427e+00,1.349436357656842222e+00,6.352595488526452394e-01,-1.336560474149165678e+00,7.396820036352157457e-01,1.129674344485933624e-01,1.661411366455051386e+00,5.220064309823836401e-01
-1.679366334799675675e+00,-7.310084993599004488e-02,5.999359401157943784e-03,-2.402275326625670004e+00,-8.057628704225829885e-01,6.266298180964992026e-01,-1.890207619283648555e+00,-1.392802010899858001e+00,7.431225354780742753e-01,-5.999964513855579051e-01,-2.530736440763538633e-04,5.960824192611393624e-01,2.372102249312114941e-01,5.258674371514809875e-01,-1.449443438575670484e+00,1.406395874184044770e+00,1.082907401412631365e-01,4.063737031897583507e-01,1.020756729882709823e+00,-8.118503824694833781e-02,1.100054496354761213e-01,2.370525090849010308e+00,8.599059765218480811e-01,-1.032961856883176238e-01,1.490339254697188531e+00,1.019709747777984010e-01,-8.683880827362996935e-02
1.481205964280873255e+00,-1.951589795062555810e+00,-5.252523420714033664e-01,-1.882653889655387713e+00,3.082546816304898130e+00,-1.121252906310173048e+00,-3.256157931508277259e-01,-6.193215839826321512e-01,-6.629749152660943112e-01,9.876516838035314105e-01,-8.650986233346245058e-01,1.738329899789726740e+00,1.201039573667471494e+00,-6.815505915384607594e-01,-7.188009750477507565e-01,-2.403300032761932492e+00,3.910052982186292825e-01,6.446896808063030671e-01,1.230707215748394479e+00,-6.022855287735264795e-01,-1.414504924408869213e+00,-1.226339627886374073e+00,-1.007747207333709261e+00,-1.688870210530185600e+00,2.539220566415334002e+00,5.489967179343731019e-01,3.783146316680324084e+00
-2.322908574680993543e-01,-1.319695037657128145e+00,-8.526079064929572571e-01,1.609831858933736148e+00,-2.173596425408514055e+00,1.889142528241921415e+00,1.680454150113409817e+00,3.382022633676052270e-01,-3.886901020344256663e-01,1.533769052976022562e-01,5.501088364880197812e-01,2.925214778752678768e+00,-1.665434946445653930e+00,-1.462996332260818322e-01,-1.671209517841422132e-01,-2.812564782741992175e+00,-1.122668209750517176e+00,-1.363668102728975207e+00,-1.307792292727600225e+00,2.563656359793271000e-01,-1.022185411151703693e+00,4.059297044401356525e-01,-1.160231734725633679e+00,6.042575182675786749e-01,2.249710842557273160e+00,1.187686462828914102e+00,1.893239787320279310e+00
2.831361476938500488e+00,-2.699690797517665164e+00,-4.105635339843614062e-01,2.131624470610974598e+00,-1.232659874365186203e+00,1.329107659105114969e+00,1.140759089616951938e+00,-9.003193763713969178e-01,6.031482664647671577e-01,3.137271624141287352e-01,-2.264624632239740087e+00,4.939303000550638867e-01,1.163340473382614704e+00,-1.230473464730748034e+00,-1.374765882348598423e+00,-1.586558116571884780e-01,-1.284074543293428183e+00,8.157818890820479618e-01,1.311247788305260620e-01,5.588196960642441424e-02,-6.020052398241338976e-01,-2.024058743932529436e-01,-6.700628088684316142e-01,-1.824442432754264987e+00,2.140050679047111881e+00,-3.731182577104593112e-01,2.036876130781128058e+00
8.927318391626468119e-02,1.370656351095231429e+00,-6.154013496247747739e-01,1.114141132941008472e+00,4.623153294910710143e-01,2.515312421194187409e-01,-1.137757746655183144e+00,2.731361672512249150e+00,-2.397454286762031650e+00,2.458636180365688095e-01,7.164340590256356167e-01,1.224251610673182444e+00,-1.250911582004004208e+00,8.621826413170291525e-01,1.516284278143356312e+00,-7.679850564273896785e-01,4.367266922620655079e-02,-6.076715777717084377e-01,-1.961023269789698764e+00,5.974996738270710317e-01,5.025102451051728369e-01,-3.054713382584254844e-01,1.286032064832421717e+00,-2.438563349707842498e+00,-1.022187767549786797e+00,6.280065655036742855e-01,-1.154522474676018096e+00
-1.688241858665053552e-01,2.694308423899439697e-01,-2.375738354083699877e-01,-3.302064273560431085e-01,1.406555393394667064e+00,-3.565308954783277806e-02,-2.302725311511867601e-01,-3.821603947640132004e-01,-4.752616413023211944e-02,-1.617139487869796444e-01,-2.527036017845981641e-01,1.846069259000282514e-01,6.121646807215482822e-01,-4.309814693684678732e-01,-3.398774199946407171e-01,-2.398949250216096674e-01,-1.002609978953771658e-01,-6.975757054925610934e-01,2.105187977510519261e-03,-5.306015329647473244e-01,-2.124688383729941288e-01,-1.722226021684525876e-01,-3.869715137004914318e-01,-2.261314453944697767e-01,1.199500686809211514e+00,1.294787442748379869e+00,2.382827208152150933e-01
-1.760349489020621494e+00,6.479904095241191542e-02,-9.658254249574746986e-01,7.749528441707643767e-01,4.193575829453051740e-01,1.652920312102144296e+00,-7.703109737975405436e-01,8.725765640404878898e-01,-1.203932037854964054e+00,-6.103045472338040206e-02,-9.999325600480405418e-01,-2.263894515894978587e-01,-2.355563453654744954e+00,-3.859108504477783974e-01,-1.220245025462654231e+00,5.608814994582333319e-02,-8.593078363005469678e-01,-8.690513724903043968e-01,3.447707709521408592e+00,-2.517642101249563336e+00,1.545547889559586885e+00,-2.419488209255828970e-01,4.293276454320800184e+00,8.414891931665808844e-01,-5.403787399585407991e-01,5.130660660575375731e-01,4.425532073698650870e-01
2.738507800404165748e-01,2.125213783547358071e-01,6.340910585564738522e-01,2.688676107591533304e-01,-5.092981110569453351e-01,-2.979884534542689423e-01,-1.171482147527625139e+00,4.365247715906547810e-01,-3.178384341060066509e-01,3.482258697530045688e-01,1.318959192951199844e-01,3.643111239912057542e+00,2.737988190841915137e-01,-1.704991643363350962e+00,-1.768193543559506642e+00,-6.840963381616087524e-01,-3.830216065701222972e-01,3.709177400942508473e+00,-7.887425451313690994e-01,1.766773291149033032e-01,-2.816634327590354925e+00,-1.785902572522614751e+00,1.460376658461385979e+00,9.201079977106805252e-01,3.967164751876157691e-01,-4.206766447694970656e-02,-6.039430813507314921e-01
3.673576206660660315e-01,-2.765289642288855099e-01,7.134696980192173354e-01,-3.249442002670964447e-02,8.159957006583817840e-01,-6.698817083140826689e-01,-6.509660011703491955e-01,-8.080336703824322342e-01,-1.597068172274298536e-01,-3.695740671180131054e-01,-5.560770026203331051e-01,-1.150838191468327887e+00,-1.300241932215092655e+00,-6.571261024781928084e-01,-5.108313929320653646e-01,9.233896288852996292e-01,2.243408041106907114e-01,3.793196041048394029e+00,-4.795275352649089884e-01,1.699387473490235889e+00,1.377578558722265248e-03,4.435038729329752183e-01,8.508450343356562806e-01,-1.910067113857023768e+00,2.995476304383789534e-01,-8.891031979662571416e-01,2.854136124175186695e-01
1.192839486627875978e+00,4.367810243726487629e-01,-7.741905900019054876e-01,1.906362500564997342e+00,-6.592984391550572865e-02,-1.128482548375818739e+00,6.899796468296165441e-01,-1.055807986227169648e+00,-8.791739463494270268e-01,-8.913683877890661300e-01,-1.390500544073372015e-02,1.174949962910385670e+00,4.171464288187600178e-01,-1.593251858270578136e+00,1.126166782020013440e-01,-1.100451468825520474e+00,2.799295057273136211e-01,2.068086201299693394e-01,-3.210130022969658325e-01,-1.467672852509072090e+00,-2.322161498641174826e-01,2.112157260361276823e+00,-1.167985270590952362e+00,9.486916661975119958e-02,-6.332806784352499330e-01,1.260371790959476712e+00,1.418961510450821528e+00
-1.303571734511734803e+00,-1.413340342599012756e+00,3.485743594915358123e-01,3.103768108265027248e+00,6.779392709739295864e-01,-4.648701562300013301e-01,-8.544266544575039868e-01,1.225491663909659967e-02,-1.153958738530525663e+00,4.114131187814216717e-01,6.066118960935426019e-01,1.579969567998642299e+00,1.669851901640317493e+00,-1.559943116269715269e+00,-7.977734310004548635e-02,3.877994790533852848e-02,-2.317190397343631414e-01,-1.320066958289230152e+00,4.794840089235246627e-01,3.050651625841290238e-01,1.969427835884436373e+00,-1.897582523468337001e+00,1.462579320651152814e-01,-2.111929200385690653e+00,-1.790398052910268378e-01,1.254562688977274298e+00,-7.204505457232099341e-02
-2.152181244794520998e-01,-6.520868551428651294e-01,1.370234426248532866e+00,-1.695468795882140611e+00,-1.067647217882348620e+00,-1.352648708905654362e-01,2.431397070073388900e+00,1.769872939997232386e-01,-1.608635132882002827e-01,-1.643004896814959981e+00,-4.856773875742739083e-02,-1.257216254698047209e+00,-1.091190575994740453e+00,-7.530769264341004021e-01,-4.207149637760187466e-01,9.239274929817256066e-01,-8.257503837027388993e-01,2.102787363293427414e-01,1.535163745951572956e-01,2.198445674120612203e+00,4.439688276980311876e+00,2.173404683267615489e+00,-2.203889097055593105e+00,-1.564502143510704713e+00,3.985878124169665582e-01,1.217445269869477542e+00,-1.981174088251296483e+00
1.070415036209701576e+00,-1.183190237128562750e+00,-1.888457005951280909e-01,3.042044117162093220e-01,-1.180553881347297551e+00,-7.074811860127712126e-01,1.228251811273224137e+00,-6.973345213611817917e-01,-1.115551295203440318e+00,2.707783353715968566e+00,1.032082374235110178e+00,2.792581456203129697e+00,-7.244696297004791230e-01,-1.181401653574732924e+00,-1.581517391722042642e+00,1.184646294534208721e-01,-1.487603960760964128e+00,-2.673803780119047957e+00,-1.846784339765253025e+00,-1.044920606624297477e-01,-5.475417628067366649e-02,-1.093562912190528591e+00,-1.211268522204915987e+00,1.431071398623777191e-01,4.932698115482931356e-01,4.427506076786035472e+00,2.695883118791976063e+00
5.099907235159601981e-01,-4.419058164671071376e-01,2.169626631494880886e+00,-1.063459294266132504e+00,9.963755976935430025e-01,-1.539547782720342539e+00,-1.909138999950855009e+00,-7.235957476789949272e-01,1.335670973557141927e+00,1.249112223896074458e-01,3.291918452881873236e+00,-3.147077769047486484e+00,5.357467233102903847e-01,1.590808141420697819e+00,1.762997358373744383e+00,3.041398888354944763e-01,-5.598760217552303242e-01,-3.577419592719812136e-01,-2.364102532661968847e-01,-5.230100529624941430e-01,-5.930363500750653882e-01,-6.465981091155765803e-01,-6.493490632534281229e-04,1.509195341264768286e+00,-1.514960572612208622e+00,7.103751075076505939e-02,-9.579353699940311717e-01
3.428897906724113209e-01,-1.323231734785636382e+00,-6.107378324569142508e-03,1.485839896646112823e+00,-1.409015351294909957e+00,-6.450785259800106974e-01,8.207454721522765284e-02,1.504794931060858716e-02,3.129313074348742396e-01,-5.820198479392452162e-01,-5.763639688959631274e-02,7.289678490353869167e-01,5.724497192204086593e-01,1.171878575086652496e+00,4.273337152159053520e-01,-1.319756516609287056e+00,-3.765957031154512968e+00,8.145608258219939612e-01,2.741199376558616230e-01,6.888610086247996811e-02,3.224676644199891307e+00,-2.128507681191975920e-01,1.335337316940610197e+00,-6.157351955122555287e-01,-2.012857939084452749e-02,-1.276290840655503606e-02,-8.783308040787056736e-01
2.188065242989619019e+00,4.630239327463973042e-01,-1.341910093093999556e+00,-1.161453118598281931e+00,-4.989117659652041181e-02,-1.729722472494112040e+00,1.176844813746196650e+00,1.112346462510761108e-01,1.305506230787791155e+00,-8.242585391529747563e-01,1.781188592947114957e+00,-8.823499164656842808e-01,1.264900854835164790e+00,1.060396300906552680e+00,6.033907468688492343e-03,-3.428363916093725150e-01,-1.123276612103018435e+00,-1.367143323663709387e+00,-1.787147486509399252e+00,7.846456886967514421e-01,1.163029054068915658e+00,-3.907620425244398010e-01,5.676847004789190576e-01,7.565572307097667704e-01,-1.648916310783603123e+00,4.859778799309715791e-01,-4.450497860983547160e-01
2.372864328534582512e+00,-8.419909885773612102e-01,7.486451717944151429e-01,2.071167538987700729e-01,1.577206583607698498e+00,-1.050011471008905350e-01,9.908296695079443772e-01,5.901211797973459072e-01,9.253233744449508580e-02,9.844790909666183421e-01,4.763037523797478828e-02,-1.512773523121278441e+00,5.368146296042549670e-01,-1.096513103968148384e+00,-5.692873575795371899e-01,-6.709601395601874074e-01,3.307401766184751846e-02,1.725185069577203079e+00,-6.638011634345820644e-01,-1.118259587868107641e+00,-1.151981077367739914e+00,-1.132001291323195602e+00,8.309180912813889097e-02,-2.174117071194182904e-01,5.444100937949911678e-01,-9.156618408894097172e-01,-5.056553189735026876e-01
-6.393832994889134813e-01,-8.814037654930916288e-01,-3.351719920141665171e-02,1.083860245042435277e+00,8.113336632900194356e-01,1.479203097385581644e+00,2.374679529318817206e+00,1.144064588229593699e-01,9.504602107720580007e-01,-1.928402656597533738e-01,-2.006346913200491300e-01,7.734066705406822395e-01,-2.513997251140448252e+00,2.045689817944670974e+00,-3.898069350526100485e-01,-9.309485169101159308e-01,-2.196849297981102733e+00,-1.804874176320587109e+00,-9.187643748747780226e-01,1.577176454461471256e+00,2.160362390628688178e+00,1.475228566352644766e+00,-9.081476891992753542e-01,-1.241007290734669199e+00,-5.456460176653140648e-01,-6.235736568993047735e-01,-8.749820052512657931e-01
3.347451778983476234e-02,-1.552681529488402656e+00,-1.361194501493032227e+00,-1.139474832726866893e+00,-1.749718408919017421e+00,2.520365085752979795e+00,-2.072687231953220355e+00,-5.053589257770154664e-01,5.095127834750882156e-01,2.932604861242745109e+00,-8.237407457566757740e-01,9.972704415594088045e-01,5.358005661317981616e-01,1.974689424023567286e+00,-1.795042700053327334e+00,7.363465806855218343e-01,1.807607947094636458e+00,1.058572377252220420e+00,-2.196515761057042049e+00,-4.423310220757507016e-01,4.253748948611328906e-01,-8.095954487403538014e-02,-2.144031727181386238e+00,1.160927138976042550e-01,-8.865872904495918083e-02,3.060225914315318207e-01,2.006372706045458809e+00
8.047251854371794133e-01,-9.539702614452297835e-01,-1.314081699242174883e+00,7.884674351123922564e-01,1.297625804896576640e-01,-1.265980629017829484e+00,1.761752340790851967e+00,-2.269996877045440953e-01,-4.955894957557577252e-01,1.542843669295396625e+00,8.990417653929899666e-01,3.757884117793789946e-01,-1.776671793275857114e+00,-5.409428478409489260e-01,1.436802167082003479e+00,-1.742864066279817790e-03,-1.287352815861033672e+00,-1.235414489530676369e-01,1.266229982378316854e-01,8.336223216087235155e-02,-2.124636790790787044e-01,-4.033030149902212536e-01,-5.553469560934624072e-01,-6.032066043299956215e-01,5.030594756563812331e-02,1.238496057381139659e+00,4.471228945809930244e-01
-2.341784801053994336e+00,3.801314779387808818e-01,-1.271161966731256809e+00,5.106377160121644554e-01,1.379398912612429084e+00,1.989419232819713335e+00,-8.235033359812435894e-01,-9.379715047368215597e-01,-1.262175510060664418e+00,-1.053813689060814518e+00,-2.533487627891029881e+00,-1.204252544107000222e+00,1.869807345226786710e+00,2.492769363771627944e+00,-5.179614783501934605e-01,9.069749756155871534e-01,1.983356042500033500e-01,1.569490110369093916e+00,-9.499469476496756604e-02,1.565560770251512634e+00,1.253117632499232137e+00,-7.562997768069043003e-01,1.315443908141461948e+00,-3.238279095895669979e+00,2.040270461699305038e+00,-4.001919018417846030e-02,-1.396481459521299762e+00
-1.447749322245863945e+00,3.309128342063981376e-02,4.878509662541937186e-01,-5.142776941681894698e-01,3.980765443074078119e-02,-3.103079888543582854e-01,6.685722766262068850e-01,5.314994328168282101e-01,1.295239172224232904e-01,1.129685356893076031e+00,-1.896429840412674483e-01,7.164950837151929930e-01,4.142730118723238486e-01,-9.698788760289749344e-01,-1.936348939083488485e+00,-1.935492890585260195e+00,-3.164988224281966578e-01,2.124877157244421166e+00,-1.018465404636813343e+00,4.303662945394425843e-01,8.075712493743359977e-01,2.395573209422880434e-01,1.281222940124322252e+00,-1.460265597697884221e+00,6.681616469253742752e-01,1.315290732025274911e-01,2.686731611138106213e-01
-1.665897642127839751e+00,1.285478665791626840e+00,-1.207087080452392103e+00,1.195539923065608967e+00,2.319107795361343705e+00,-1.350822194316526170e+00,1.595416811880430441e-01,-1.552494267014278728e+00,-1.499229140215842804e-01,-6.719055729011099709e-01,4.160566605288771314e-01,1.595547901200707441e+00,7.628645559402753573e-01,1.027223645234162985e+00,-1.616941943305463036e+00,1.292911572983951984e+00,3.743421442292419465e-01,9.805525651348745431e-02,-2.057278526501205462e+00,-1.045893802403174977e-01,-1.574976871103334897e-01,-8.063909352544567088e-01,-2.677689820876559823e-01,-1.853141704650139443e-01,1.592913508600714234e+00,1.633887382670561883e-01,-4.978698471025724270e-01
-2.881372138915623271e+00,-2.039474966616343199e+00,-1.495756489000502343e-01,1.486749230234134300e+00,-1.206671134589448302e+00,1.257857124466618126e+00,-3.333268968022223833e-01,3.271979763807222774e+00,-1.241913869931930536e+00,7.093946803435118298e-01,-1.598567052106217190e+00,-1.997696467542076304e+00,2.136564970315343981e+00,1.443506421178015975e+00,-5.519596604353589342e-01,-2.143443505579722075e+00,2.255705896431696278e+00,-5.299219149009161134e-01,1.960148613030963327e+00,1.874255615118830542e+00,-3.058092773370306716e+00,2.247368094113736170e+00,-1.417547887749418312e+00,2.986184909385917852e+00,-8.676580482025306740e-01,-4.369062504058197072e-01,-1.204985037293720085e+00
-3.272707694672679635e-01,-8.195791297530370390e-01,1.355141672856525759e-01,-1.256892519757979887e+00,1.302517639192798393e+00,3.637142904739151805e-01,-4.806164081533910171e-01,1.667711785321255080e+00,1.413948968166355569e-01,2.710398695876599720e-02,-4.584835548748881218e-01,1.061627272473831374e+00,-1.194196382197752343e-01,1.067683960469230451e-03,-8.802368810964074364e-02,-1.297982890443934556e+00,-3.011296681911068140e-01,1.625190207842271306e+00,-4.040965273586512307e-02,1.476861455138502310e-01,-1.554818333643192829e-01,-2.969549142261525554e-01,6.503384517565885536e-01,-2.664124565440957326e-01,-7.359457524764185798e-01,-3.350762378703136535e-01,-1.437788888018948774e-01
-3.585389107117943897e-01,-1.349579912982674101e-01,9.475465038106814508e-02,-2.584762812544929567e-01,-7.062455311161704163e-02,3.651298298879879223e-01,9.017295928672367511e-01,3.667692202199903662e-01,-1.144712229462874903e-01,2.611966630552391144e-02,-3.583208946907602832e-01,4.906537487925912711e-01,-2.168582509730863639e-01,-3.154906091222725029e-01,-4.695918692692929719e-01,-2.029866816840991961e-01,-1.802300023233640303e-01,-6.696554173765778550e-01,-2.425261398544327138e-02,2.922697463102164606e-01,-8.168772373937014525e-03,-5.245226793922863617e-02,-1.707501638935118027e-01,-2.648317510374471606e-01,-2.381824364913205927e-01,1.580955593708611717e+00,-3.508793518273124051e-02
9.659741050894192771e-01,-9.606983880374707629e-01,-3.645876293796059819e-01,-1.115723523796678718e+00,-2.780209759913872536e-01,-2.607372442814256397e-01,-1.264249691382551166e+00,-1.228131389658662975e+00,-4.824488158352129713e-02,4.948770236858665572e-01,5.669788335466636742e-01,-1.075069105292058680e+00,1.465479809086863927e+00,5.934785678865793501e-02,-1.386735071076376613e+00,1.194712050941489689e+00,-8.072078068543399043e-01,-4.851987086815415240e-01,-4.393132067897752568e-01,-5.178013445338565113e-01,8.971297568740227435e-01,-6.446157304680322220e-02,-1.136583176541157841e-01,1.433148991295460029e+00,-4.005987877651753792e-01,3.036258496714995481e+00,6.761355657653328466e-01
-9.475649334106749366e-01,-2.632225235415453640e-02,-4.201142371127595254e-01,1.657396340061791928e+00,1.476285429275986383e+00,1.779791405384415492e+00,-1.754828466482961369e-01,1.109446418529969058e+00,2.082801032139777742e-01,-4.238954597754721054e-01,2.183940623730018515e-02,1.074128235464951064e+00,2.014042633433126728e+00,-3.985820882602485876e-02,-2.027682493117606288e+00,-1.540430153354420906e+00,-2.111860515153391127e+00,1.149345477932159465e+00,-5.584649150242624316e-01,5.028640579588417037e-01,-1.273322173213993880e+00,3.565142987750536396e-01,1.254832339246828576e+00,-7.962067086631918408e-03,-2.311853777091700923e+00,-1.678374440661787537e+00,9.501331095196486887e-01
-2.792557542894497313e+00,-8.325993421768962399e-02,-2.391214477343004408e+00,1.204028484653439091e-01,1.641494595736351370e+00,-1.832705483932173696e+00,1.554159748116755502e+00,-8.200729836578588561e-01,-1.241652168864390421e-01,3.680821149755721944e-01,8.563360171742198101e-01,2.901437514289663677e-01,-1.537975440157685891e-01,-6.666338279463345229e-01,-1.014856574150384105e+00,3.533894003431790054e-01,3.296480995277282777e-01,-1.153531287086251744e+00,1.634340535555388607e+00,-3.795147957442992492e-01,-7.587012545736733227e-01,-3.087181119626575820e-01,1.761089417559109860e+00,-3.728532498736193967e-01,1.080431427969261060e+00,2.065940741995654362e-01,2.599248282053895132e+00
-3.004116653884875143e-01,-1.372096218294805992e+00,6.406777552610166682e-01,-1.615982591452274075e+00,9.860787198768744544e-01,-2.726912527882960013e+00,-5.373824947194038026e-01,2.250079339161293046e-01,-9.727909604478576222e-01,7.378148997584037527e-01,3.312625048923853455e-01,-1.822728317043210478e+00,-7.160897343960656025e-01,-4.568101223552444856e-01,-8.320379076839584664e-01,7.829651506283087370e-01,-1.842599973083685505e+00,7.811832058092100795e-01,2.142083651561188962e+00,-1.840815406219015848e+00,6.634784701230163062e-01,3.464959945771778127e+00,2.362461156650748517e+00,1.053574992856976422e+00,-6.257496735549383793e-01,2.120536988188201910e+00,-6.717240357484097757e-01
7.392788718354289523e-01,-4.844253277452102435e-01,-3.016949656339959152e+00,-4.072720815737965183e-01,1.543723267574781621e+00,1.650309898521602037e+00,2.660647662695850846e-01,-2.028060065067893269e+00,-1.903884085146564153e+00,5.870655651542671105e-01,8.412964695510459778e-01,1.706609660517244498e+00,-1.399712415012186906e+00,-1.472201119112387380e-01,-7.656934329365304714e-01,1.841609502284714317e+00,-1.885734781938175564e+00,1.514797491809800611e+00,6.687783779693732278e-01,-1.135095054204491527e+00,1.484525190702529862e+00,1.217156801943153122e+00,-1.014636092190351224e+00,2.971509067223061518e-01,3.984955437227413744e-01,-6.495612167959776695e-01,1.184408264088569335e-01
-2.326776157658382971e+00,-7.247069625374244484e-02,9.589599005745690352e-01,-1.036446584831886897e+00,3.298235933384671137e-01,1.228843720184389809e+00,2.010958849561692366e-02,-1.198956649652657580e+00,1.050085480109626129e-01,-3.387457032928373746e-01,-1.404095472342974105e-01,8.242409928471037261e-01,1.864646171198889757e+00,-1.276391512780254311e+00,-1.469500465494175678e+00,3.171464666712160985e-01,1.149848026542544810e+00,1.348866945076086177e+00,-7.184942698628219437e-01,1.565262710550189562e-01,-9.526471278065947734e-01,-1.872571432096176713e-01,1.444265933183248585e+00,3.720423903835667206e-02,-2.071746462902790964e-01,3.130279140193573673e-01,-1.903715988749388188e-01
-1.661774216687699424e+00,8.485519868792988918e-01,4.547298694567259436e-01,5.307507066901946402e-01,9.387697403267686314e-01,2.998475423185611999e-01,1.075747044166179278e-01,1.592277009126273235e+00,-5.390707819671629597e-01,-5.301122216894936789e-01,-1.223140303727828559e+00,-2.172199917507688038e+00,-1.047062687884645182e+00,-1.630062098102381674e-01,-3.245995788921043901e-01,-6.147701931845082068e-01,2.625308762146552066e+00,-1.001898583628052286e+00,1.583742781524658971e+00,-2.666111382616404568e-01,2.560829057355050509e+00,2.606955544728113416e-01,2.547003508466966562e-02,-1.554313096677334416e-03,-1.440237427672832027e+00,-2.297993203627245878e-02,-8.040881531911633351e-01
3.676192831572993036e-01,6.865466235592828856e-03,3.977514965293136306e+00,-7.730686800497293953e-01,-1.920425292443353138e+00,2.139284902076102668e+00,2.308972151965751340e+00,-1.089879741408367048e-01,9.848516160240451400e-01,-1.253950913612044804e+00,-5.105632442197489268e-02,2.291988222034918810e+00,-1.326761177348217746e+00,-3.151735546371424501e+00,-1.188118096494349629e+00,-2.540780079054389073e+00,2.631519942907246445e+00,-3.332440120705369990e-01,-2.749460229233620101e+00,-1.305041267730656651e+00,1.580541525006638581e+00,1.116040166557990210e+00,5.344708813682391702e-01,-2.460942686305848601e-02,-9.577846477408288317e-01,-5.042526752930327483e-01,2.309311542762153557e-01
4.645413485157495193e-01,-6.899793829215574714e-01,-1.625477220557831393e+00,-5.406799120101212219e-01,-7.393414630959384004e-01,-5.956470971086708088e-01,1.225056031967463044e+00,-2.235760803787429363e-01,1.292562081414009967e+00,-1.584456082517205489e-01,9.734638815138658696e-01,-1.558048438628580445e+00,7.366615032010936925e-01,-1.101320279158170434e+00,9.658681721733465564e-02,1.555725236704162684e-01,1.636602595666179827e+00,5.793337475720877761e-01,9.395681052393670130e-02,-2.278557160355972666e+00,-3.948353872889434624e-01,1.286149000007706489e+00,2.665934259405042805e-01,6.067519920320451066e-01,-4.169376911802293723e-02,-3.188420301092999565e-01,8.255687995648143263e-01
-5.619472899433162194e-01,-2.253721243377087013e+00,-1.031460337753935114e-01,-4.729284199090276197e-01,-2.351846848749227892e+00,1.912496531969160862e-01,1.384602505274574735e+00,-5.025186608653818832e-01,7.418503256043359473e-01,-7.596780095452763115e-01,4.514574582835566119e+00,8.668313116228645310e-01,-1.974574348508242760e+00,2.216289303155307255e+00,-2.563032798114496469e+00,8.910509295799252938e-02,-2.603403179541571522e+00,1.000279488440210807e-01,-6.617694807248658551e-01,9.347832130969249143e-01,1.537321372403714470e+00,-4.961048609572512591e-01,3.056384813561398239e+00,-1.149601184921261558e-02,4.172659343245183061e-01,4.816228192371742600e-01,-1.238852546915770070e+00
1.335760181006951930e+00,-6.282861026484117817e-01,1.014963886877431998e+00,-4.168307995536848498e-01,-2.053719902780310469e-01,1.826755585909948021e+00,-7.974241447610087574e-01,-7.364269619950351009e-01,9.703821646028594830e-03,-1.676665260964242121e-01,1.148850960160601870e-01,2.492027583995023221e+00,-4.863905459792655650e-01,1.024769999721093283e+00,-1.738748793598848374e+00,-4.626954799881681235e-01,8.958739436796647748e-01,-1.732309767409061951e+00,1.030233962819529170e+00,-3.286142859750115081e-02,9.556196862440162754e-01,1.318788439981685379e+00,4.070645895594266483e-01,-1.678199248136637456e+00,9.590720812998048128e-01,-2.169129065776048026e+00,-2.184332406763567658e+00
-7.955859779775236174e-01,-7.048907763291689665e-01,-1.285918725518608863e+00,3.057034916385386603e-01,-3.798891588751786563e-01,2.389074398274062094e+00,2.940362709865630420e-01,-3.176399264052589544e-01,-3.180787827981479410e-01,1.745793862963451459e-01,-3.837756301036796547e-01,-1.251111655755368979e+00,-1.422620765965424416e+00,-6.739446470369420128e-01,-1.513820406289295040e+00,-3.845548636364727879e-01,-1.057853012029891460e+00,1.290781383275519723e+00,-6.792351994901200118e-01,1.060730132306636930e+00,1.526762820227243189e+00,9.630692299067576956e-01,2.858128949096884419e+00,-9.324267352597281899e-01,6.692281607366712404e-01,1.099805967761199009e-02,5.612970930762972710e-01
-1.284583046729152800e+00,-5.985144858203756968e-01,-8.728576157334860808e-01,-7.759915241047710133e-01,2.474518156238431910e-01,9.780268069534921171e-03,-2.304250241424457002e-01,1.823016937287406991e+00,1.097131173166087104e-01,7.805774948434712757e-01,-1.300985787744582289e+00,1.739941495033379970e-01,-1.601213487428062132e+00,3.226508344412619245e+00,2.069275432676294546e+00,-2.386148879354848873e+00,1.282032047474835457e+00,-1.775488696518117804e+00,4.555056720868835840e-01,-1.057160996512564455e-01,1.918100623253819581e+00,-1.109605409925401354e+00,4.423853174961422940e-01,7.424185018630072852e-01,1.313459559159141588e+00,-1.169258902491015384e+00,-1.371172455059930240e+00
-1.735975201211804375e+00,1.131994394800040382e+00,-1.164275875644746883e+00,-1.058985623555654731e+00,-1.794303059060894379e-01,-1.016149826251832700e+00,-5.349037670558948188e-01,-1.345461258133326954e+00,6.696262391812599635e-01,2.384556470572730680e-01,1.961277320779309719e+00,3.484298394366676377e-02,5.480257185461705483e-01,-1.788160390566407854e+00,1.391102564108098565e-02,4.613326499401996794e-01,2.307934821272460635e+00,-8.000370605559649351e-02,7.502306420301224632e-01,1.039568293250028308e+00,6.603839901494869269e-02,-3.925879654653220974e-01,4.008238757318951517e-01,2.106162793005492972e-01,-1.081555735982924427e+00,-2.500001940467860839e-01,7.977415552423643419e-01
1.290438924808348542e+00,-1.383592481833670451e+00,-5.099798770004330128e-01,1.867975373372030790e+00,-1.051361624733671229e+00,-2.026005898763419300e+00,-1.007484583734870043e+00,-7.484041921894755145e-01,-1.768335754761475975e+00,3.088011005920671348e+00,-1.421765731966118107e+00,-1.488677213609745920e+00,-2.217898448277678125e-01,5.513454731801494813e-01,-2.260117023969002159e-01,9.097218369749752176e-01,1.643858447386602917e+00,-1.997157622744827110e+00,6.960101386677250979e-01,-1.240605960720420731e+00,-1.591980706127679834e+00,-7.415945308424206628e-01,2.215248240651594092e+00,4.812724458082110468e-01,1.736799080276704377e+00,2.974582953663725160e+00,-3.158122311278395173e-03
4.359737653877858721e-01,-2.692003928726751205e+00,-1.806988976303190775e+00,2.001751679733343892e+00,1.339853368359976704e+00,5.269425335183319792e-01,-1.892408811140028568e+00,-2.109557911439418287e+00,6.148941069871594056e-01,-6.890020212500914676e-01,2.232952810723889403e-01,-2.122113727414224049e-01,3.089895797450821213e+00,6.175067115256666073e-01,-5.804062955599661455e-01,-8.186381852664984526e-01,-2.502804868255453119e+00,8.999897237330892752e-01,-9.329030172676386345e-02,1.500706616596050313e+00,6.057426636102029027e-01,1.708077746132818264e+00,-1.639506243667554708e+00,-2.788564475650938124e-01,4.947308373623507394e-01,1.633898706608895024e-01,1.063173393881575057e+00
-1.320406656966215397e+00,-1.452283860213507305e+00,8.528535897674854871e-01,2.581048766228920766e+00,-6.688957043112999656e-01,2.058091853189506271e+00,1.163684479524659476e+00,-1.626896313683528605e+00,3.222269204403853116e-01,-2.062744554205654113e-01,-1.069844164282534260e+00,-1.210355835199887986e+00,-7.720140722794101018e-01,-1.157591632247990887e+00,1.742798875404290848e-01,1.867806643982206083e+00,-2.251265125664917210e+00,-3.300541022749581277e-01,-1.221307924664166711e+00,1.198081879400490157e+00,2.066251392855735780e-01,1.063529314180237551e+00,7.750569749783779994e-01,2.074369771536654916e+00,-4.194333954534967823e-01,-4.596744850731112053e-01,-1.790917990568008655e-01
5.871431569392959737e-01,-4.707447645396661828e-02,-7.227723317249887813e-01,-2.421415779262951762e-01,9.027664426011667853e-01,-7.000777286330399640e-01,1.149042553757473772e+00,-1.249477980722632831e+00,1.428675835451404419e+00,2.298536844403843205e+00,7.460429360673187515e-01,-5.088280031508677359e-01,1.605330126088681197e+00,4.945601253163168232e-01,-1.249163873516537127e+00,-1.761552596979570340e-01,-2.167786797617094141e+00,-1.111259320294645025e+00,-6.718537668831137122e-01,-8.948835274135991114e-01,-2.231568220535799785e-01,-1.231560859206879827e-01,2.619562151658335392e+00,6.728428851873570204e-01,-1.834603242846284177e+00,-1.857267221327483675e+00,1.230862329624474505e+00
-9.733906246062833112e-02,2.069624199566907574e+00,-5.021558835313658653e-01,-6.869876158515358412e-03,1.347630090680338455e+00,8.607811620913383699e-01,-1.194780321965380310e+00,-5.821911890075468499e-01,-6.817955251849266984e-02,-5.216719156241330507e-02,-7.084562307016036842e-01,-2.142365008435088924e+00,-1.115080561185761931e+00,9.079449594751765051e-01,2.006457605787745069e-01,6.017132957990619646e-01,-5.084153835676444855e-01,-1.232299104765475883e+00,2.999220125967565487e-01,-7.673386713841321427e-01,1.784391005476032133e+00,1.094506902703284323e+00,-3.126817671058818027e-01,-1.366477896070232567e-01,8.316826248656079557e-01,-5.441863368547721347e-01,-2.254490699898056491e-02
-1.457465604636035028e+00,1.313143112618002428e+00,-8.786768640217609283e-01,-5.740484329727366664e-01,6.817655863476167477e-01,-5.658513716608596367e-01,-6.729464083141811770e-01,-2.478279467355785914e-01,1.414602296285944583e+00,1.304625377192850100e-01,3.596519440432585091e-01,-2.412572865507873685e-03,-1.195968817140778684e-01,-3.378164994992743919e-01,5.426521760522699626e-03,-9.368631549350443510e-01,-1.526044742929813403e+00,3.218286446938715961e-02,1.559794481667849730e+00,-1.959858455508239672e+00,3.296005770668198886e-01,2.553838974145167917e+00,4.668511335577945065e-01,1.354340433529387377e+00,9.030326308290814730e-01,-1.578544263650522916e+00,-2.680963865697834625e-01
-9.954186927394287343e-02,-3.082526658686302046e-01,4.887877046819522620e-01,3.053813536452125166e-01,-5.396916518099334481e-02,3.273724389459979345e-01,1.560151790772067004e+00,-2.550979980860525465e-01,6.311331963958520808e-01,-1.027323213428922077e+00,-1.556514999973237723e+00,-1.456308976943279765e+00,6.406279837065137484e-01,6.958784715966187528e-01,1.674046891024146833e+00,1.193577745460012440e-01,1.203651541572162254e+00,-8.136430482087513294e-01,-9.703096403638705736e-01,-1.658321813661733091e-01,-5.548105473883383487e-01,3.776698716317010152e-01,1.551775443491933526e+00,-3.528955774141428581e+00,-4.516783866659480062e-01,-2.474275124941294202e-01,1.967008489355206891e+00
-4.899285657034461727e-01,3.236131615323066146e+00,1.983133764785592001e+00,7.585398908906801907e-01,-5.371879845079376992e-01,-1.201318167024574501e+00,-2.056112563545731575e+00,1.335181934875732335e+00,-9.174753343252772808e-02,-8.110061223221356475e-01,7.975721462586015109e-01,-2.783583033871986356e-01,-3.894491905194518711e-01,2.768583133197022872e-01,1.778831401354420416e+00,5.041811439460754940e-01,1.138272424824966267e+00,1.582799526082407038e+00,9.798700683559171676e-01,-1.457845605664371581e-02,-1.113950843696821291e+00,-1.438175368070121918e+00,-1.201131540239073425e+00,-4.006721450897720582e-01,-3.595664016760313331e+00,1.637501813579572141e-01,-9.661085071116047862e-01
