-2.4341575840132013,0.682080467738357,-1.1017253350992913,-0.9622235552613316,-3.8063235012838237,-3.012418664113462,-2.0222730466102523,-0.9752933237391694,-0.960043695882489,-1.5034331111244432,-2.2697390561267214,-3.385269744398697,-1.9460296223898104,-2.428068976343934,-1.0429931247610928,-3.555864580310536,-0.9133193877606254,-3.0461521081578313,-1.2744490385823288,-1.6750443766124063,-5.688341434299729,-4.188019780786585,-1.9126704451351362,-1.543355271545587,-5.072949208288762,-2.5809178749603037,-4.339324457002573
-0.8756629247103779,-1.7735171265374379,-0.16125527107484172,-0.08899493443849973,-0.9949713782263467,1.0652776120160665,-0.58428534485098,0.7038193568606893,0.29834113113497585,0.6025902030581933,-0.5008404776720019,-0.5141245774360677,0.4807635695047363,0.8538548352654979,-0.316096730974707,0.5445385362129583,-1.2295768268923395,-1.1536803913468254,0.5772369658821559,0.44095691156746963,-0.1670533981753468,-0.09928332191710311,0.03058320478669014,0.4015358040216494,1.0494978069229373,-0.20561476536405177,0.043017243419723586
-0.6586378902880292,0.29210773523630545,0.1576492052896399,-0.3128689210717,0.05771252296964781,-0.5297102963553114,-0.4287636741842187,-0.08122298946564192,-0.19671631405745196,0.10748151988821301,0.22193919331425746,-0.39726535541438024,-0.6669450930367156,0.19375704577259756,0.10396879220151814,-0.9055548289247543,0.28129141161219384,-0.806389165014102,-0.23805493838830633,-0.050927087060312175,0.5018597185456768,-0.017178502676889865,0.1603408337358763,-0.06586294291047753,-0.5739648716657324,-0.003853619350513374,0.8817227577665196
-0.21408364761992535,0.13288084512867057,0.10550642002460774,0.09008811493912032,0.6521823840697061,-1.8458653931221873,0.31573760244652527,0.8651914515903082,0.5975887903081238,-0.641417187209968,-0.25900367264129465,0.8688510617713688,0.1336717246583951,-0.5904365475804472,0.45461152277232225,-0.02682835509078181,0.010172525039846614,0.445902118813594,0.3721205602167697,-0.658129371727867,0.041362901562879126,-0.10298428184744207,-0.13466264563891434,0.6312855569689179,-1.249923165712291,-0.38941298901021587,-0.2382305247886662
-0.6581730682932239,-0.17618411096965683,-0.7808522708202036,-1.3672986886748268,0.014270080836217463,0.8294715310846078,0.0678881447993397,0.22980577853596182,0.44955237509943546,-0.4969101495962334,-0.44030476703479615,-0.06801294968765283,-0.5419930412692904,0.023666733479679455,-0.17668457515277866,-0.8000223140481184,-0.41507109865482034,0.11713893054788986,0.48647449321340325,0.64297945294476,0.4672515303467497,-0.26124750124945945,0.2542090268944423,-1.2560926840972355,0.30229010219366426,0.18659863111796843,-1.4271647412738646
0.32382486996491905,0.1267058269996578,-0.3704154330421708,-0.008891619639914373,0.5594569609750667,0.27842892378579637,-0.5745593976690022,0.31914758605378646,-0.007603412701635165,0.48045612684814143,-0.13882586635588764,-0.06025717625174089,-0.18378287912445446,0.2330564861544181,-1.5705858472355272,-1.2370156459240955,-0.5712746753630553,-0.26659539136815075,0.6195542514177291,-0.6329453697990262,-0.3824523152955516,-0.3549902239437884,-0.02896441289091572,0.5895778046073568,1.5477874098523625,0.2121500045421978,-1.2834128938471732
0.0721886889452548,-0.7630970233657546,-0.6352576936454631,0.08771956611238609,-0.23841976129129944,0.2603610960326836,0.28352343792052614,-0.04186364127080606,0.0033913356174726066,-0.7289619366075769,0.04943862684563092,0.010467313409281176,-0.8735334041638111,0.11831414165826078,-0.5410808271072064,0.3508628652216013,-0.5592276841399636,0.3901687632782791,-1.8896959192191385,0.08576060597575386,-0.8850225060293201,0.3443449077089581,-0.03821582947043901,-0.21203280494302038,0.9140649438205062,0.1977124462423094,-0.1013932125503065
-0.49898618211138124,1.6569731250286885,-1.6279420865508192,-1.6287306578454448,-0.05844242482142907,-0.3411598781682978,-0.1721905474877099,1.061743740156862,0.5548079360401986,0.6460223779085729,0.8992506465214152,-0.6931803966634151,-0.43884818726231833,-0.935349981873349,1.2270377833989368,-0.1841715493834122,0.17282267549363525,1.213394646423154,0.7808449931475173,-0.6554466904370257,0.7962930536415679,-0.1264109736503518,0.5481310265652699,0.6691708384864438,0.5735072833834044,1.2270877585765525,-0.3279699677563837
-0.46327926997060526,-1.1306314371005834,-1.1387876696766703,-0.3309176837593297,0.6306190300519205,0.16971430617487976,-0.20688681037763604,0.085196945985317,-0.778582552470377,-0.1178957044700436,0.39213897159671424,0.7084047841306292,-0.8337431091208207,0.20161856731922734,-0.3917909913917376,-0.5973752937453882,0.5359347339933246,0.25164376269094785,-0.9388014078222376,0.2383543891235969,-1.0134609152190228,-0.3113194017450386,-1.1973469763167977,0.36601659720495927,-0.8178241839224155,0.49778535606424906,-0.8805877412197287
-0.2418003349038111,-0.6899674469445086,-1.1684728228409886,-0.09618819794779288,-0.5064366501871034,0.07702831993304868,0.6273638015271091,-0.26444351049483156,0.12690668660713023,0.0988206346867649,0.5406574852866989,-0.01981305748023295,-0.28206583456374684,-0.5976733584809134,-0.5811155270895071,-0.5703841957121715,0.45077704626178855,0.6007834827899973,-0.413923549698925,0.34597303449766736,-0.26054451523394534,0.2352995305239824,-0.3047014793607537,-0.014105977253522271,0.3039530496218703,-0.11025159288278862,-0.33605923408009675
1.3300350222613395,-0.1362391282215221,0.8438222186138533,-0.45271916806710405,1.4127009210137764,1.5096618475218022,-0.18576468338360674,0.33077772601025346,0.9606514932469018,0.482656755605789,1.4189055694647095,-0.8083022006249929,1.0756288979380684,-1.2357564029174621,-1.4125962947618889,-0.29532636796297884,-0.3669833052006599,-0.493927324657978,-0.6658207106081677,-1.8831814674275154,-0.6509653683080314,-1.185395928696691,-1.5832847350026162,0.18194631556134988,-0.4481023426043335,0.4331845315991274,1.1884821149521614
-0.1666386160328247,-0.6237599153399654,0.10353384638094175,-0.38752908300692573,0.462303615145146,-0.355792505769148,-0.00020211492339979083,0.14703489581964443,-0.2176505790170157,-0.18116615082977974,0.163961191883685,0.38477710174931234,-0.22185259932658782,-0.32045641246474843,0.15022376106258573,0.01962676006078932,-1.1124413614605975,0.332550137545006,-0.09851180285931228,0.3400460183043813,-0.747898088453059,-0.10402789930076589,-0.24993129300908337,-0.14131365514161764,0.3352129417942488,0.6258579252745273,0.4105933467061348
0.4276449307931957,0.132815190786779,0.029032744571127707,-0.7760964385297482,0.04118820144371965,0.3406855900381628,0.4789509597264056,0.2638789069360765,-0.020176607268729854,-0.014241670206316724,0.753572953355321,0.6697569691255912,-0.052223945650873495,-0.2757929130327576,-0.25749542675783327,0.39595839722442766,0.3048004690130058,0.3572462026338956,-0.22909567832640038,0.5688430022890739,-0.07325927823974644,0.10648242552276196,0.061823154845518674,-0.05701465794379462,-1.7878412074258423,0.13076446981781703,0.1783500082799102
-1.099359887135303,-0.6177005812657396,0.0015137642431001,-0.7176173635265635,-0.5929246180845895,1.0337741364493116,-0.3950194426215392,-1.5930424247607842,-0.19733463025102202,-0.0702017746440377,-0.41373325938010375,-1.5140004667687632,0.3673125753262016,0.20786340212431095,0.11047278784906571,0.6951979942937293,-0.6216972771505012,0.5666444006153902,-0.5161352050509571,0.29959060163651374,-0.7453525666481111,0.05167990965227111,0.15748825529481886,-0.35825474853982714,-0.18813251093940703,0.10828417298836043,1.0929220762334193
0.32704617459896634,0.12880556738299978,-1.4915182271295875,-0.03665305061033086,-0.04285282057784755,-1.0827814781165574,-0.7226692462427832,0.38510578433084375,0.3937597888523418,0.009370432895748402,-0.018512632581951752,-0.5110874941166826,0.6281777532503835,-0.13155553557952038,0.3035892205050903,-0.1600430279623203,0.10314069907344901,-0.12570069163006756,-0.45349590544606966,-1.945283176871089,-0.23584301425995122,0.36523545203695584,0.16460488128258413,-0.6381014765924664,-1.2007914803001531,0.32245173929171117,-0.4239604813659323
-0.2692496346134969,-0.8140206889527914,-0.6747015129399707,-0.1464464745605708,-0.04106238906351343,-0.19317504514167638,-0.27610208018862265,0.4205464483203713,0.0023043206907554905,0.0342282300963844,0.23244334882004805,0.3484246244262702,-0.4099162127943159,0.26524898925539286,-0.041500700292977116,-0.2552886154448121,-0.011354749523408736,-0.022927841644158453,0.17894771667924098,0.04005551201561802,0.44401568502487604,0.5957273364209715,-0.17604789292649614,0.09507229907971462,-0.7217725462191662,-0.9252316311608855,0.35333512993912103
-0.2867225610019961,-0.08917851347796199,-0.6887608724961214,-0.8435078567331872,-0.03700485038846061,0.38752575775896936,-0.0936923792558915,2.298050959860041,-1.0486530594475616,0.5389607190830922,-0.6179338069601161,1.189587408748067,-0.9065903027205364,0.9628753691529357,-0.6472378236885133,0.11685857287090827,0.16949368770154707,-0.4939452252812978,-0.4349303541651288,-0.25231679134340346,0.843829937854493,-0.5596934480829405,0.19733930624959958,-0.10317160296063015,-0.4173858366417893,0.04478454017484739,0.4534038424241184
-0.15397290082016224,-0.5835749443712306,-0.47616014859855216,0.0300519316855981,0.27137161964564416,-0.7661467810095165,0.2460171680621499,-0.7187819727940697,0.38959905947571416,0.8370993179636983,-0.4392035880838611,0.28992960602291595,0.9197412612605579,-0.6660427204328642,-0.32917940710354054,-1.483041374924793,-0.00628795800360368,-0.5866761891031015,-0.4832895965027509,-0.6074795053705342,-0.7715913292309533,0.9051307669632821,0.30828029845464255,0.5185392449093909,0.30711136561425667,-0.8498769965376768,0.44084211212187646
0.7913015575638962,-0.38704108891941214,-0.30236604424456637,-1.3190825855987296,0.6514617812328638,0.2224562250616672,0.35150373740384594,-1.544662963153515,-0.5425630178355209,-0.1399455087241329,-0.46217605534093875,-0.6840557588027835,-0.10706502429206828,-0.12696422927826337,-0.8809091984642453,-0.5674764595082721,0.49378509517233277,-1.1785558017025424,-0.5260723106683967,-0.21324395041474864,-0.5219960605996287,-1.0214393107058397,-0.818480063031765,0.0011383576697690176,0.4054617058477433,0.18009677020238604,-0.23578556220753902
0.52522426586757,-0.15460791400970933,-0.35456571078712207,-0.2030373617284041,0.4626858919055982,0.06629353500705516,0.2502471427127171,0.16952983744326272,-0.002778397144955557,0.05507162498456671,-0.21179481250824128,-0.9511231066188544,0.0996730392650261,0.005970497063060366,0.6349541888599136,-0.02067831750097993,-0.45296970664997643,-0.06398948107525884,0.3215243882211402,-0.08339658699175526,1.0576831651852359,-0.36603517961864135,-0.001193384303899209,-0.5305356475287466,-0.004740123073085307,0.01625779534499356,-0.18022919900896614
0.4236356582906427,-2.118918571567058,-0.5587236941821031,-0.8760491650530277,0.835467441574842,0.5190755861136958,-0.4925732685074003,-2.108542522287423,-1.4387246960618638,0.05022407604712538,0.4016695527004513,1.846937750202871,-0.4746264759233311,0.17594671712791024,0.5453325124497198,0.71968257790462,-0.982809743069357,0.19919823827566577,0.9636532088311054,0.7620330598592883,-0.19919280877615864,-0.6892915087410244,-0.856180143961461,-0.8881583694100152,0.0020254811206034916,0.21209282960266806,-0.586921981670371
-1.5466070188819414,0.034260063580657155,0.18581859001036172,-0.6666188612316628,0.4482924004883466,-0.09049477089541108,-0.2655368700455048,-0.06374147049919371,-0.03736868574137304,0.17719826343462447,-0.3816610705690592,0.7866873282375652,0.0745940660190725,-0.8045436269332417,0.09394766576867428,0.028977631995076678,-0.9850045403839245,0.7650393491331231,-0.5454016170383537,0.816283554520091,0.08235769740826039,-0.42842904745598137,0.20222846623819105,-0.3142226973770263,-0.30250157652776083,0.10426460926078304,-0.11836418510171037
0.24869724902437942,0.7472698416199721,0.05222926789084986,0.004934070030245779,0.5038370321450579,-0.5084492564525117,-0.03672667980882218,-0.1763442227901403,-0.3669838038572678,0.018153244646653723,-0.2368827221129724,-0.3173360657706851,-0.8158711259094451,0.3746015919008665,-0.4650115401567719,-0.45377172507574465,-0.8211917205993622,-0.16895792305676616,-0.4025323105309993,-0.16621722765549163,0.6470992013148833,0.12807526362507496,-0.022180696411485634,-0.23943840995129775,-0.948539810425163,0.25469524041144687,-0.8257217461467745
-0.32983636409525796,0.16864377127646812,-0.3561620881832792,0.4171440005275834,-0.27984054888248955,-0.359958244996636,-0.2783202901265749,-0.8959568798144721,0.2661508100843019,-0.04684732735969486,-0.12166178448148854,0.0995880975582813,0.27065231577373894,0.241411831839445,1.1003085688864696,-1.386608056239443,-1.1029929031748078,1.1472976993202468,0.22632362959322722,-0.6748281351132551,-0.41843075044613165,0.35281435006547923,-0.09701519764896585,-0.4971578879797439,0.5577168478299936,-0.2891558350672242,1.2020997373069604
0.5528582394495867,0.10010095564923992,-0.19598682333367515,0.4109923649992159,0.45496196719207993,0.7038053327629923,0.20043185205509453,-0.15024063245435954,-0.6141742208827027,0.3218084742480554,-0.3846917298721314,0.10855029711504023,-0.38579684751247684,-0.3028094353326236,0.6414478188668953,0.27088119018335377,-0.6941245369701251,-1.5331819436212413,-1.200131621807369,0.9395354426875234,0.6451454683154754,0.013402749822259342,0.19065666264854228,-1.0624023255301978,0.7607195942495605,0.17109240023465788,0.3640669813540711
-0.6019479682965115,-0.4558611106766232,-0.5205488759485893,0.04897477306051171,0.22278678632738777,0.287753985650633,0.04038469843597301,-0.4200685449049925,0.4433110874684451,0.0792882123811729,-0.2852568269720802,0.18455865025080118,-0.18589535524772488,0.5218102920250574,-0.3320391195877976,1.1530887642209409,-0.2850107270612545,0.21988670026833926,0.1814346417615652,0.6424174236329154,0.2184465423045479,0.43666913887023673,0.17571152224304212,0.14562935530955856,-0.36430806016161044,0.37616502889217995,0.273525049357687
0.19628362078855896,-0.7385475125375752,-1.1967091072323375,-0.44555059872777963,-0.2488319988341054,0.60418341423072,0.5066146573258649,0.18132861860427302,-0.25324260170767404,-0.9365913627491064,0.3324817050334155,-1.0896309304210148,0.39827334675526205,0.2265898527901938,0.11009771477188418,0.9089963618369097,-1.2193196997888098,0.034052666627166495,-0.3199570579512259,-0.5640257694802537,-0.34148133605369313,-0.043517715738612184,0.45116931607713073,-0.18719420874664203,-0.1958447730718948,-0.5849328076631626,-0.6815734668756169
-1.3759359106582916,-1.8730079278603649,-1.0461865444088718,0.48598021405325315,-0.24387925853299777,-0.7302796924549673,-0.6824146344796933,0.6385507113459171,-0.7091605446227552,-0.5276818455372614,-1.2384115117814811,-0.711441033648236,-1.1711150333673719,1.0613045904399352,0.1946961719341028,0.4568662509932437,-0.5133626268465025,-0.06251437994601787,-1.0639831454222357,0.6987445715019239,-0.7200934939914502,-0.5971826708807082,0.41083725262340026,0.11706016802175125,1.567934577482266,-0.359421503850265,-0.2810139054221998
-0.09731312665636045,-0.1505532110770157,-2.6374556853166684,0.0019573721598484402,0.08963385076050756,0.12522681317783946,-0.249426494457507,0.4297286895022832,0.4202887238783536,-0.4350262407147301,0.3149463291002786,-0.14904473758788267,-0.09460713827159727,0.6439421056387514,-1.1850802891646541,-0.4786010314802107,-0.13587872417434,-0.2960539425948014,0.6873370915016299,0.5181917875407137,0.757093872169125,-0.4664144558143835,0.04706988252302795,0.1398019071966905,0.013532044679480605,0.8964162380474916,0.7176371627795889
0.5339606492770963,0.09328020688517576,0.08313621169081094,-0.16722014532358273,-1.8776997668023512,-0.814063895860792,-0.277462912166426,-1.0456300515893169,0.15904710879553277,-0.2177176184354555,0.1267630845174054,-0.13276607297247917,-1.052679223581553,-0.5698409976348322,-0.6672004256066848,0.3586194637029404,0.4328844917952987,0.8529965849698506,0.6614984592403428,0.3562689862087461,-0.362727433642702,0.6671867764932651,0.0534716331786082,0.3239765252279797,0.3954139691921637,0.471472110672164,0.1335824673120638
-0.049821706100976415,-0.5618869971170112,0.5167986870395137,0.27776479899981665,-0.029117091126253006,0.672388610382744,0.16459033360422234,0.16265999846574328,0.6111922035311673,-0.14718088023296044,-0.511237052006272,1.3412460210689674,0.07175198769061499,-1.6270180607689468,-0.5865763132591811,-1.2157871935990914,-0.04127901878948095,-0.5948903082233541,-0.461100393298747,-0.21756516337258638,-2.845364004707082,0.5525738828570069,0.42698796137191525,-1.0311648606770285,-0.2316998395764054,-0.6776527188119265,-1.0823300693017175
-1.0280257250468907,0.01483714482035243,0.6441096666922022,0.6089214341928917,0.09190389226988581,-0.03501792325318008,-0.41609171676099355,-0.27316211887771014,-0.015845912777384605,0.1373034075830621,0.03843568725804191,-1.1434388008466465,0.13935513403670458,-0.43967227590805513,0.04389787299522764,1.3702597521889837,-0.5858876110848011,0.6499184253105322,-1.4291137845014044,-0.007561933185381138,-0.17461966977886598,-0.04692520142301622,0.0827233549382892,0.6800326578447279,-0.24228001606931784,0.4266508554953245,0.03898571135570601
-0.4870074350412515,-0.17048810299944397,-1.1256963025990465,0.27878180006685815,-0.6875208701773194,0.19539394345868316,-0.31678929979214665,-0.2904996800527098,0.1877104276357012,0.01125596372799393,0.12733981422353108,-0.46909492694497684,0.24386042215469986,-0.7108928972523715,0.42025264864353196,0.6061447541535966,-0.33664359475733857,0.23287178450587015,-1.2967947535281603,-0.481290354538797,0.030123241869410563,0.41429806155996984,0.2626978635048897,-0.7834026209155807,0.46229529678618664,0.5108063510845662,0.3526710075612599
-0.29777927608197857,0.3797925612249921,0.27565997056067243,-0.04062952868881016,0.6470724216104624,-1.1865051419396841,-0.3432339524832565,-0.5638965650680693,0.7344731794229521,-0.20153405867810248,-0.26727971177884013,0.23095017145808108,0.873941025700572,-0.08923895407797568,-2.892936985685339,-1.7199853277922263,0.3407585934271812,-0.23654387697169152,-0.6594496726853097,-0.2900716691091613,0.507150939568296,1.005756264232461,-0.5367558566262185,0.29411298639534716,0.8932810665012922,0.7260567155419051,0.321778661551649
0.09363963816637616,-1.5524736855350538,-0.6971245113960535,-0.37541739837645155,-0.13924364334199296,0.40079335385836473,0.5282767124627091,0.8879545301858196,-0.40753302194442853,0.1323742560334744,-0.24113937585140452,-0.00542608974919628,-0.755694759197108,0.5627001592030557,0.7841207931965166,0.06141015153120476,-0.4245612090769062,-0.7595651708761357,0.06536757323680097,0.23059135831500793,0.10914778796510197,-0.4690973304424645,-0.48395244460296627,-0.6542876458132135,0.043201386857846046,0.2190392565091073,0.022953298481223752
0.47005448807786165,-0.16931374190587473,0.18478997720823545,0.29376418779059266,-0.13530397082175022,-0.3500487671237252,0.40843080920442215,-0.4236675567429015,-0.4040347344132962,-0.5772131263891612,0.2795641835895942,-1.0215726029350467,-1.2222590537383005,-0.7273794423711996,-0.3276446464039598,0.35157181003936916,0.7150193874236613,0.8135147974949865,-0.45688001452994437,-0.3221027657647616,-0.30789052415880414,0.5572839865433388,0.16090800609910663,0.34676936926343443,-0.610193571227965,0.39081632264132954,-0.6356098344778197
0.41825106793341477,0.20559638347998513,1.2936342900536866,-0.18691800639337747,-0.5788117098750288,0.6068271209922287,0.18460736897127006,-0.024910997156862895,-0.4547545844428486,-0.524875718275337,-1.0046150599675516,0.20199260862741727,-0.5945829018364261,0.3332239118304998,-1.0162612474390125,0.762969737520135,0.7420894223273146,-1.0353688443841949,0.5534289153887842,0.4518566431873156,0.26078417018457534,-0.0038382470033162816,-0.34156212204801667,-0.06675082954369017,-0.6046966363033082,-0.7606133403872225,-0.2526606772100617
-0.5434891226259961,0.04955453817860506,-1.614478936246764,-0.5661584841500976,1.0699109041833283,-0.7987978811944639,-0.3188301778835151,-0.050438712815668044,-0.44066849386707463,-0.5840876625510539,-0.2336299925567488,-0.528052746626564,-1.2225549957040165,1.2033882243337923,-0.07887274501821666,1.8267416255986473,0.35407894770710774,0.1994794037163413,0.0369803413377965,-0.3222556510806749,-0.9398870160544138,-0.018328144132756807,-0.27773883428297913,-1.9511133098642919,1.7290021772701194,0.3310384777651633,-0.5140831077263527
-0.3398430414038575,0.7397099929138149,-0.7993318014314675,0.7270120739620926,0.7525723907658615,-0.031305449962573596,0.041201918263592735,-0.12178345930131025,-0.3799470391286018,0.4325937150633615,0.1688202727827886,-0.3309586369884931,0.39699785615351774,-1.0921524061650607,0.324266420288382,-0.12439572487174069,-0.42181754951143446,0.6068984972551572,-0.17649003091053464,-0.2514846601367176,-0.021798767885648558,0.12943069867336426,-0.23126636148879146,1.0264846242879266,-0.6535422835735886,-0.5566724989153412,0.5589504081265576
-0.9285570541024277,-0.1397629175237426,0.03365459251376854,-0.3316890062999191,0.06279761500642403,0.20129353711846687,-0.9248946112724866,-0.9949118838926474,0.1448036096583059,-0.6154462549832284,0.3129314765464347,0.40269427917267375,0.501992460992835,-0.9793255655799618,-0.6406726878819756,-0.8097693152667111,0.07703939579763242,-0.1780944533052319,-0.3929968252602959,1.1684082063610632,-0.15616455548567498,-0.313760663291271,0.43945588091664306,-0.27257857189443574,-0.7561511181662472,-0.09427429208460862,-0.11238130055321308
-0.3980801047682813,-0.3367163258143534,0.488978845547145,0.30435654852410216,0.9670733805241464,-0.4960673415365225,-0.21331250711427535,0.237758926103686,-0.2948588302609515,-1.2824347356446808,0.05218025088914012,0.4327334562813611,-0.8430129684840206,-0.8767754353926757,0.2425553704273346,0.2051648139982591,0.1314476922912609,0.6836133981840772,0.27447469537089075,0.1625734221923345,-0.2254014272799141,0.025184548227370703,0.50203799584251,-0.4275920975546594,0.16674129559879322,-2.6397165290450837,-0.04385705461187221
-0.3464287872964082,-0.1740274445072415,0.05838818110689838,0.30359787017379714,-0.3690299787641456,0.04293792065291519,0.2537274423127104,-0.01401348329133199,0.20684455553844752,-0.17283161808701406,-0.29410492662403137,-0.9471672458621939,0.2841060474467876,0.13756833884342443,0.5239245507950482,-0.814380748664088,0.32936200666500975,-0.21159801185286123,0.23455996196656204,-0.09048196651035957,-0.43789943170222356,0.17397918125802367,-0.08880315614879,0.15885106097096818,0.0936991814082529,0.15640151743711145,-0.2275226137594353
-1.5027903279354495,0.38634959312478245,0.6370212801146395,0.836236882631454,0.5843037731778751,0.8576237174929849,-0.3573041795491075,-1.1582925195567155,-1.0646227598043954,-0.9453577375898439,-0.9677377508509987,-0.09056996365822635,-1.8195388888300545,-1.2629944295833857,1.0203109208136631,0.3451508285703108,-1.2679157702328683,0.35191979151585395,1.7673815848709675,-1.3375311326132078,0.002454468772376034,1.1424145208285013,0.053327260983801646,-0.3708662399750516,-0.4585017381633508,0.2733956417304736,0.024643643410713106
-0.42724637794452114,0.3254788404412713,-0.09516792925139776,-0.6061266332908346,-0.11102136269244865,-1.0761500390365175,0.5342250938345464,0.575933502138799,0.09908446833330846,0.020239415440680034,-0.6299890192009269,0.30988928362398466,-0.2030862260175012,0.057917747276853074,-0.5464498404291029,-0.33138577399888386,0.9003575991914878,0.1590617301015236,0.0009976666414686617,-0.019576534102819093,-0.10506241249145927,0.04203039207512766,0.10920168576380941,0.6093121548250389,0.6895411367512734,0.16524660247069559,0.863206871741959
0.623424843610889,-0.057647565873330704,0.4492655034897403,0.8635988703736986,-1.2464082374601226,-0.6663082708400314,0.39365017381979234,0.1481714319793448,0.0004928402905445017,-0.09721866582825868,0.19991749017245342,-0.2846364563218257,0.19330545143698072,-0.4620779038962021,0.2494624507018233,-0.2809071267065491,0.1027548950052633,-0.5312390399957029,0.04827471068101757,0.27563945828122116,0.04402709723308806,0.08171934944652143,0.1479083984274748,0.6201214100804455,0.31531079064992223,0.6062894096768856,1.295078438424895
-0.8664987429134238,-0.5200833934067913,-0.7281678901148045,-0.9906473187771246,0.35256263519971925,0.7396582508530393,0.2066813952204933,-0.27815796525140163,-0.0883607052695187,-0.16841918478106774,0.48394021869372406,0.29246917044632076,-0.026593794953699814,-0.37140738179867605,0.38998539334942817,0.47967857784767265,-0.3297052454800364,-1.4794001719762602,0.6468634051795019,-1.0393312385576388,0.32669880012509656,-0.3238801452417882,0.11759508491280644,-0.2060316967043881,-0.03498516793657269,-0.5592908916391545,0.3646665984893226
0.9249091921945014,-1.7866307283873037,0.6718289394389039,-0.6436112959908633,-1.2197754280032556,-0.12874631427315483,0.22133339955938428,0.7526303721983566,0.39894415984817255,0.055726416694032326,-0.21443632016858216,0.968689377067019,-0.7134915675471851,-1.1095903397670401,-1.4707667930330444,0.739843011670492,0.3744091479361817,0.42023149490393036,1.1638119544004082,0.21123125230548367,0.02507729109804711,0.13960808038130237,-1.4815939156223692,-1.2819388736234891,-0.28006398694210816,-0.0029513027657546145,-0.31245042771908393
-1.9643419508975482,-0.13486499309436745,-0.1134125633168176,0.2815272810836536,-0.4141610203444174,0.4253000282056687,0.3856876324522261,-0.6540535791947951,0.8106964818053278,-0.20052880056404088,0.21530292465146147,1.0238824227716177,0.9651379961068632,0.6458459253197995,0.6871286785049403,-0.36928813873849503,0.9152011302453262,-0.8908538988984591,-0.7207951158159959,-0.9989681750181619,-0.41528727065506477,0.2752480821960175,0.3703203491634278,0.48015826794085587,0.5184166320600704,-1.271448763089507,0.7482812648782363
0.4411984221618623,-1.6633446003495278,0.05968206610300952,0.3335581106495294,0.33627831206301945,0.6796104365775295,0.517691275632249,0.34412776236951154,-0.16651337203626942,-0.8351864077943315,-0.4157716971185521,-1.1922562567067512,0.22134202136786477,0.3325549313621093,-0.2764573519996085,-1.8091527576691695,-0.3011815726313776,1.627918327124175,0.24521684248083556,-1.3676274221811506,-1.910150838498455,-0.24043006907404668,0.22748263125746387,-0.2912226129129426,0.33197260933775496,-0.38412017609641064,-0.757210301941015
-0.22724287264495005,-0.565743977257915,0.31207738405042695,0.16167285372441606,-0.7753780874552387,-1.0286760561943893,0.49587082198101573,-0.3710781187174125,-0.9379333702727914,0.13484777888794058,-0.015013211394721336,0.0730417579544412,1.168881136503511,0.001184121348042725,0.2809124565634613,-0.06023543513611459,1.0264224197296978,-1.1695512087667543,0.12035270008966101,0.1659823935851272,1.1504983046503365,-0.2589896285647738,0.11098418419165394,-1.019957782834484,-0.09989700198623955,-0.13412212699966186,-0.4208642181643901
0.13715714475121138,-0.04470639560453564,-0.7566014119865512,0.33796485597562465,0.3345553482468295,0.19506191258122094,-0.386404761115578,0.19300606326863928,-0.43176134960906665,-0.8595411721962359,-0.07888170703587749,0.20117178683133966,-0.2070288012748218,-0.6245811182322426,-0.43997201508469475,-0.03914396903175079,-0.26295570389778017,0.09030557235703646,-0.1684310956688023,-1.8098108758877482,0.18086120827212154,-0.11582319469148471,0.17248165207550503,-0.167103885958519,0.04340179065037663,0.5259863742825965,-0.2396869127098088
0.7571061511021338,0.646384700034888,-0.00830820518262082,0.9336989270864436,1.8186741338417305,-0.3800773222965659,0.44868531766936853,0.9395726198625236,0.5166624927711008,-0.08431376451394919,-0.43049860710870885,0.5402005798528554,0.590423102290315,0.023186858337123653,-2.423488864268583,-0.5957499217811028,-0.7270617221012724,0.6083382819150102,0.08955841644988279,0.23040183881325016,0.03979627071356127,-1.3750606189197123,0.6169223896020577,0.36202371577047004,-0.23384813237617122,-0.41997680154331685,-1.2166860137640905
-0.20555578471070993,0.5958499640258534,-0.2993611227243321,0.37687703652780075,-0.11957607075419331,-0.735094249911614,-0.9646963494842412,0.39437636024532896,0.3152758664901448,-0.07586609144892939,-0.2800492153659219,-1.256747600805761,-0.3432359750886288,0.2800574734288225,-1.4740294497494448,0.519215077923025,-0.07391359263541433,0.0952670641355637,-0.4931382795066017,0.2780759496660399,-0.3743158981923741,0.26319572026964216,-0.16301853727067725,0.3252648809519403,-0.518282561055786,-0.6825254571702363,0.5225308847245573
0.1280099234532526,0.415113222789281,0.8049272904996443,-0.40454796633926976,1.39534442231618,-0.9427328834386101,-0.24565017941227588,-0.470295942181501,-0.8374055055212434,0.005997944544873179,0.31311252402872963,-0.196097126377397,0.48668690786721663,-0.8633854641199726,-0.37063327571626775,0.29684765911109884,0.5624119214884895,0.23845378030721984,0.04798403369068914,0.9417653518661263,0.03493800897551769,-0.19696803946209065,-0.17012075076985483,-0.3022592399613696,-0.0005178113011897996,-1.719800724589781,0.47801020967136365
0.38052667849672306,-0.425752154323226,0.31120412658169955,-0.2774663344783326,0.1221455484554666,0.28828403408731534,0.06285701516958149,0.43942170907854655,0.039520318373036135,0.0028182441477759244,0.12028639849972084,0.11117491444362783,-0.09716742881580419,0.561215259717196,0.30991926142559634,0.3347494235041997,0.005574113124068483,-0.8756576967365564,-0.3016868966548566,-0.9641031987414387,0.10102932294177931,-0.2103850586153319,-0.14740166510847144,-0.6379876269922237,-0.5767943082140427,0.42155533321747046,0.29330862945930514
0.34552868707132955,0.8976922753711157,-0.370429842680527,-0.13095582581251333,0.12322538697712868,0.5333845521971395,0.5473215440179054,0.28067269799676375,-0.6840654641851505,0.020473801510295635,0.020687644553474396,0.0042311879384620155,-0.27293181047261067,-0.6036518206277477,-1.0973453162190143,0.1892502177759402,-0.1179079250629442,-1.0658202818938227,-0.9305551228387193,-0.6152936744837544,-0.2514165345155339,0.3930191297915088,-0.1554053737282024,0.2725551139219941,0.873450120679759,-0.2185552560220763,0.2260591550440313
-0.7032463474856087,-1.5061508724888206,0.08869972525879079,-0.22023013882037046,-1.3325008415307442,-1.1903225078882098,0.0883179264066075,0.055528439014765334,-0.034229960039226834,-0.03525807235667773,0.2260287751420053,-1.4414758735846236,-0.3436332327431313,0.39356877872732104,0.2643337967812511,-0.5544054913131212,-0.2598033146171889,0.0673151323114488,-0.22396270268984148,-1.5505628680596846,-1.2120855263334092,0.37474332524403897,0.38932294332368766,0.07381528822922215,0.29785965999202524,0.1331022993057601,-0.9913224947848167
0.1379427944604265,0.1470245883353896,0.2735045269504903,-0.048083931940471836,0.32486358379473723,0.03244092985667143,-0.9568988503512512,0.18907213856963762,0.2882288459297095,-0.05151261648363515,0.07328316716505268,-0.11475884234166236,0.11723089120817598,-0.11154538154282068,0.1668037695507356,0.46093043438922376,-0.26738143863284064,-0.05396109869995275,-0.2648778782746003,0.04270779757427097,0.3371690129798813,0.3680909721643064,-0.09600214314866831,-0.4845314309017243,-0.039777264907154365,-0.16585307090488421,0.16680567446780703
1.9534459447699137,-0.01825354139207226,1.3734978538305123,-2.130701597789532,-1.6653587403451249,0.45401416392715144,0.8558563844802601,0.3657660799400205,-2.5826576266488437,0.7523143977386034,-0.541814782839581,1.0986216948155048,-0.3408763267891148,1.2893437402068078,-0.9344411813667627,-0.15923226458604894,0.11425723902391022,0.10322305837480641,-0.817301134647761,-2.7223672818914584,0.23624541236815833,1.6498789954873778,0.20373471587076394,-0.4763921119039423,0.38902902168072073,1.6285756121518118,-0.36987392668481534
0.07412950479858366,-0.20766422286172959,-1.0597487324935082,0.3258007745147441,-0.0983029131259505,-0.5398553014810029,0.6467436918516454,0.0014979594218564938,-0.44103855405895215,-0.09500639277081846,0.47475879388423703,0.544953555527331,0.6931968203224653,-1.6552300072061659,-0.9856980032962952,0.3078434140597468,-0.1419207710875923,0.18516016541139083,0.12577529823274142,-0.3064350240347132,0.8699018652284579,-0.5901685430628416,0.008440431987414274,0.7806774757830279,0.24488336007024453,-0.3840878196649152,-0.0292530467835338
0.3291955612686664,0.2577865829674908,0.08635114174055727,0.2167592802956478,0.04591582156088481,0.6108406422782178,0.1924762564660419,0.030252878956849395,0.04591094042470901,0.06098729805978896,-0.04010185943127033,-0.39476102801864094,0.3511514998402988,0.12764143372139847,-0.1755256489783244,0.5094248276047311,0.13657659117855955,-0.36774367881817166,0.6560319164106434,-0.2717840086505131,-0.33380189193496135,-0.21402202231871434,0.14506593825482988,-0.09990881646846482,0.4329206047217333,-1.004732071664406,-0.6926925810082678
0.25979088395842576,-0.3495742419525245,-1.6721012616680124,-0.21663976745535082,0.007390667201722179,-0.49706308580431724,-0.3269306390273826,-1.1176758852999067,-0.5978469425459022,-0.1988692523116246,0.03827587035892768,-0.5518907187657464,0.19458578154818718,-0.10320694449664702,0.78812509788735,0.2886387715698337,-1.236871469006776,1.0655658485248998,0.8079675443388642,-0.6909583824964334,-0.36179455447188374,0.05920822938141948,0.3236722184746114,-2.3293857367276423,-0.18065560351705862,-0.09628881416288947,-0.9956084356934064
0.018676788387128485,0.18869833633983496,-0.5174309181763384,-3.1836471266083075,0.5268703406597711,0.5426749948766386,-0.9014428599020082,0.6408144240554448,-0.3777182372608808,0.30023420664719264,-0.08606109041224111,-0.5970521485830275,0.917417117519689,0.010253474144248976,0.2639384647396171,0.5888230809464733,-2.1238552625930662,-0.09053668512507533,-0.12179543193735626,0.1843353801654493,0.6041668873977623,-0.7232179683225537,-0.02227698727917312,0.06630384954242384,0.26575816072173863,-0.5005580445092941,-0.41960592881872943
0.7923257902797558,0.7767683015233325,1.0516983756215559,0.34505837267800776,0.027765579113280554,-0.048598006194120365,-0.20563544377307616,-1.1776965740674046,-0.45333783761309776,0.006297570266088801,1.0695185563730072,-1.9823336212056788,-0.9537804471867336,0.4529183277321525,-0.4838334309641847,-0.7274957204879245,-0.05906225195576862,0.19581774026420307,0.6035645441355513,0.5447905778384926,-0.9011077736332335,0.050944595680973405,0.30011699629533517,-1.4717366686446118,0.9390462310066587,-0.5571486785143395,-0.5834617363753021
0.5486685089621248,-1.1853423897400013,-0.7871310866703042,0.337997305723755,0.019966091006856677,-0.08352430908980198,-0.1759217783503967,-0.8353397193118611,-2.986141419786654,0.14038003515461156,-0.9923621728949583,-0.15574209111772208,-0.10493522850235586,0.6900876959293638,0.08372426304348751,0.9018265772004207,0.15989015147142088,-1.0212674770644385,0.1740861674247954,-0.23836457391226018,0.8117273355089004,0.9817390606688422,-0.049220348245985784,-0.6111327075866411,0.39352306421411287,-0.9067304575918607,0.46398730251752834
0.7421680966017021,-0.9260345094383443,-0.1778058786100077,0.6993496630382524,-0.014135880504925955,0.6568506889889768,-0.48022360006886333,-0.6065812583208382,0.645078421409903,0.16749766240792335,-2.0844276864805344,0.039786426594149105,0.3980956546347871,0.7496675074449192,0.502571326265577,0.6930977504192031,-0.32119435581931083,-0.11405900472614523,0.9776231503422104,0.3240942820630406,0.4952294293867457,0.07202082842404013,0.11024104165334851,-0.1417325595899979,-0.40590871446746135,-0.2661094168277273,-0.28885057245001833
0.44533515517106964,0.12314462843996206,0.7030298412991199,-1.0619850787097638,-0.46788401141208474,-0.10024036584817851,-0.5990933800522511,-0.8905077967169894,0.532373407170563,-0.3191406631232137,0.3921816213438058,-0.7278321176424669,-1.1154373744337136,-0.40562896481377403,-0.618496623613589,-0.2995268053517026,0.4714759214667814,-1.4102886649953925,-1.2955530348851358,0.10380832682661528,-0.19648243665233603,-0.2828632599101791,-0.024877685495113714,0.9923677390206201,0.12228873848715408,0.40036258906212147,-0.6509608176079033
-0.8873143462111855,0.007333296300794378,-0.13221178998655975,-0.7814457079793082,-0.8325648189343274,-0.07989028037755799,-0.5240101542561295,-0.36486691257371356,0.7507518033430761,0.770677409547993,-0.034114878165698845,-0.3131277720818764,-0.5060594880046618,0.5459634977083409,-1.8568489225455747,0.008563952740672724,0.18667904872538466,-1.437383560829485,-0.5318591083088706,0.4460952763783867,0.49357876863854977,0.3762217997258701,0.10878158982505408,-0.030009548622556316,-0.6425403480747776,-0.3876721792266223,-0.18879734866407819
-0.227866998218914,0.4480683833817794,0.0946151874216372,0.5328250102648955,-0.4809767021639333,0.35041444937006755,-0.29339936983315135,-0.6288113020688825,-0.3068041495898006,-0.1931935976238411,0.37429946317232216,-0.32083191932436034,0.47175838362798167,0.6573655879358044,0.17259203760878322,1.316037801257058,-0.6798788574209218,-0.9982950057659858,0.08972310282983934,-0.03119737560640211,-0.7255991863206496,-0.8321087505189952,0.03412823718295367,1.6168193078690043,-0.2685610402023194,-0.27679017452766186,-0.3498300068391316
0.18255429793083533,-0.42518477584668335,0.6148662446759569,-0.19631730590617189,0.4715350213824039,0.40191892132212126,0.2958530322157047,-0.991298862964747,0.13267183963799395,0.46440200705251383,0.01675977400176916,0.1668330984499765,-0.31985341895301117,-0.033265461804189905,0.5167961289472471,0.038349127154485026,-0.4989596605576997,0.36451425757110256,-0.2984241635500928,1.1145536017110993,0.400780173108923,-0.15431548230058545,-0.2685840566481189,0.31210838973216654,0.003803130424945631,-0.4531965859255774,0.4005308167916783
-0.02465452204218927,0.4879228626051574,0.5008702560644437,-1.4590095994094578,0.35461721909979904,-0.48118672411625807,-0.6186683011613376,-1.6751840085038938,0.33967315273753995,0.42540015737828146,-0.014506718993698204,0.0453647249079782,0.2265487928801533,-0.8809059806702607,0.10459373620482283,-0.7416666541364281,-0.00505078932397795,0.18640098794625312,0.196368987065729,1.2301259687366208,0.27842549983875964,-0.017216857761496798,-0.441992702795515,-0.196712155918172,0.10189506640817492,0.08973513368453452,-0.5100846924081386
-0.8545995713381398,-0.3907945746029409,-1.2586623795145757,0.8799683631003224,0.26908940785317437,0.16455121846446433,-0.1009153276919204,-0.29984773212364735,0.1146053640893658,-0.3769186907502454,-0.8079568736191064,-0.9767240621141621,0.26708253598965365,0.9543788174914142,-0.7461327407441056,-0.10018855361628116,-0.0633817333267262,0.18326791808069415,0.42675033642067467,-0.3760395630948523,0.3159223083381995,-0.31084568083637026,0.6508320256029076,-0.42423169041202496,0.5424668331523844,0.7344435823435508,0.18577992112186895
0.7457986556742268,0.06804136013346503,0.6018781581821447,0.8373089557854942,-0.67314976422603,0.021841239607984994,-0.5108019016013771,-0.14885520159875357,-0.21827456326921846,0.7470389981307238,0.19830462275526,0.5599328422551706,0.26170687055661446,0.7762743250098567,-0.3914544801739299,-1.0243141045498314,0.8053463875615812,-0.4720391240811381,-0.2819124806780755,-0.026886259945984023,0.25558643412537435,0.9621367674182202,0.045054683549874235,0.5163923141311146,-0.6003523676413985,-2.2261297029332767,0.2980474453673517
-0.018791982070308223,-0.543313593382399,0.26641485370073176,0.583691126824276,0.4057692094841211,-0.5070223678205904,0.23987947373494928,-0.2814388708527193,0.18040719899592011,-0.8743291316067364,-0.021826730507402237,0.1360391546654153,0.34397425040739177,-0.04740738144708313,-0.05428302281001526,0.266766248346906,0.1499781286643544,0.0038903828047926496,-0.11221304724042289,-0.5589728227850226,-0.16049971257667517,0.05561760898581229,0.05532606269252934,0.04018187268810627,-0.7212385722686177,-0.4153895488799466,0.45100348041279786
-0.18473036143420796,0.22464661349720777,-1.600246228212258,-0.2872159972299944,-0.5737711948482002,-0.9070742298894986,-0.4053443272454734,-0.4526774098975973,-0.6228839054648927,0.5817497486764792,0.16307407931891238,0.4852650996906616,-0.8877726780073634,-1.2389563601772802,0.18891260384528355,0.3417598485943852,0.006866681977718753,-0.20211388081194118,0.9146395301696657,-0.8906257083755434,1.2653651799714536,0.18110480501906429,-0.06769150549508227,0.5394189205873053,0.0194510343131494,-0.39317352428053215,-0.44831704665051025
0.01953550312204853,0.433303107129463,0.015532409493111368,0.4153701212995356,0.5258409321248159,-2.118820233981693,-0.17995810179435695,-0.176249815293309,-0.053045747366660255,0.17179946451024158,0.2457707905475311,-1.2405556501856263,-0.21403267971569545,0.7191137032702859,0.369061088383972,-0.06657282901061927,-0.23799384856542366,0.45361284893863174,0.49172200925285364,0.40483042580568945,-0.425650158353162,1.2725908666789774,-0.6737101647674403,0.24325795992146054,0.361581632532052,0.73640970200878,-0.1717811185106527
0.5700267631130023,-0.27520233015773293,0.1611568637888868,-0.36818354325090086,-0.426717739995376,-0.2055177568684596,0.09302659334599019,1.0187063246741344,0.017050468057744746,-0.0010974547103622793,0.10981288535830737,0.10108870358054693,-0.6009715048117589,-0.6199814145030536,0.648565669386129,0.9336828208784858,0.32618929933668994,-1.9357113604218208,-0.7176311663445911,-0.42190857049656094,0.44768461196686676,-0.8890547410476033,0.3545426782279855,0.1457016070192826,0.5494035588122219,-0.8329723323323486,-0.3537410366810463
0.4539218603437201,-0.5327705486753196,-0.235762516632373,-0.7709640388653589,-0.36181674167711414,-0.17654694436921442,0.23750837157646645,-0.18889262071619387,-0.31661751315876924,-0.39368287038675165,0.2896741808457658,0.39944295402200325,-1.4256812564164225,0.5327196028218552,-0.038298080213026005,-0.23108796043093874,1.2037314402564765,-1.2117064549014565,0.31475605770378423,0.9333587577987396,0.11083858063283238,-0.03512437123028137,0.14550632301955066,-0.005258299431771644,-0.8887121890821816,-1.2793135650629732,-0.11680333845896358
0.8536656790062409,0.8786680540420386,1.253601979421449,-0.36776758359629647,-0.7043167358961557,0.5784788108365257,0.08990327888583889,-1.1067569438545417,0.22525856831428492,0.5600089358552902,0.5153590280251047,0.0017488446144878892,-0.16981550899598344,0.31932162241804724,0.6541469847662664,-0.30595058993510965,-0.26240443102469985,0.5184673996421888,-1.250338476417656,-0.32290007143795124,0.3337888395054678,-0.14098379996239135,-0.24832149365435846,-2.037124779396432,-0.6530702442219196,0.04556742640647442,-0.8241310097203325
-0.22921950765878113,0.021792824541790927,0.06846771409603351,0.2228513751951979,0.43243104676347516,0.16732925213788818,-0.010766023903982567,-0.4232343860998631,-0.41919731067743543,-0.3328569369577432,-0.7658292977424487,-0.14120117560017145,-0.5004267173300864,-0.42357529617334155,-0.345595944297185,-0.09991043924206597,0.324047493323975,0.3417805547539856,-0.18028936258429643,-0.48134916198382643,0.375689356442284,0.5177510748857845,0.15483651246274527,0.3114191357635027,0.11648581623471262,0.35931256266248185,0.4057475832116127
0.3067039483447534,0.2946042016530478,-0.20393415432477016,-0.42868713613077203,-0.3295275673756634,0.44807853144609816,-0.6797759480388846,-0.181918136951079,0.0098269576865416,0.10225328334263135,-0.42598815309001864,-0.8288540902004701,0.7009440027410638,-0.8921362656609583,-0.49934203959766293,-0.36035487484627593,-0.4224730101793751,-0.8948018031764599,0.02174076761658654,-0.4424596857498859,0.35200408424216456,0.21180131215830675,-0.07663401826088766,-0.6499824049185482,0.004190021269428835,1.0063142822013866,0.22405476426712265
0.8919067784708088,0.603708231110604,1.4722633458106336,1.4530591390304108,0.35181267041097447,0.5587170625489346,-0.7772905481201399,0.6381335108870765,-0.2286472840554919,0.14833881315526395,-0.5315490561506558,-0.3593984214341473,0.2021334284496804,0.027880763937383334,0.21322901457046128,0.5069493474637143,-0.9294710809815355,0.439224140073908,-1.2202350910199298,0.5410467367957936,0.9799590437496409,0.2887059864654207,-0.49766789976111536,-0.07452081241366007,-1.1614059606969902,0.28255387544415256,0.7012031959944397
0.3779161785219106,-0.9979752823782868,-0.8712117153339127,0.21660606117811138,0.5652742279270162,-0.29970957422614697,0.26467048351300876,-0.0639825969658459,-0.46555989835376566,-0.09218764756694305,-0.7078785764602182,-0.3582922789724301,0.1914745179769577,-0.1749104845381354,-0.33384107088848436,0.08892433058795318,0.6472626881120072,0.6603542229753628,-0.794705493107884,0.1638193626510658,0.3946962937668493,-0.47253879533742105,-0.15929978997323754,-1.688662001397484,0.4720007051452237,0.41551825959633343,-0.23257101693313964
-1.7437187642127872,-0.07971669152512759,0.587353933439829,0.6026532370456988,-0.9770792451396852,1.0431535638821343,-0.4635952237874777,0.6463142735589742,0.213901255020757,-0.07858499909155717,-0.19470216590105308,1.312600719020371,1.295894007989356,-0.3431500057245875,-0.02404640980966426,0.6965616059261832,-1.540379042538801,-0.23968362577179783,0.05564460577132201,-0.2263200075901629,-0.2593596184461161,-1.15996346668249,-0.4672386968587613,0.2639772030078247,-0.5774915698714655,-0.15783599215213856,-0.11355562971043537
0.6616331650332115,-0.9204683648242648,-0.7538682764571865,-0.4801120371715946,-1.305312404699039,0.40512477594056073,0.42796904901708716,-0.6323066243713155,-0.11783396294272185,-0.4838470408056188,0.24614801583396517,0.24982796505377258,-0.05026779699928273,0.7463042251143023,-0.1006455930195899,0.08230860926692354,-0.27565911679008537,0.5891738235544594,0.04557980351777241,0.02674300354038785,-0.7074322504962742,0.19179612097906396,-0.05520548495609911,-0.20989370346625447,-0.5547884283275551,0.3191195589847995,0.5219796523294475
-0.17431594212235765,-0.24925334004678834,0.2945468182577402,-0.40244904485651106,-0.44722427274614546,-0.4519135679838967,-0.8380630343482818,-1.1575446637037032,0.11317727999034528,-0.0541938427255687,-0.30502994042572384,-0.050304168165092256,-0.3715405484755991,-0.0825789906487578,-0.008092328149599629,-1.252894263903131,-0.3192082641524076,-0.07113890668342185,-0.05462443693830127,-0.32968033002253,0.31236970262426134,0.4102501602617711,-0.32401149430139586,0.32026741381578805,0.8804622966115,0.43773037804661347,-0.32067007555099386
-0.46824955189611756,-1.8427188958586074,0.007520787893321983,-2.6342595121887546,-0.7610386222707057,-0.17899974478933806,-0.026018965257858358,-0.5622907541779041,0.5566101200221133,-0.5244550549474843,0.15175930133616505,0.5998320891556597,0.9531285671456659,-0.08245844279715026,0.5166356561554711,0.38130360540506836,0.7601329090327311,1.0841611833531655,1.31047923362356,-1.9084056004082905,-0.02139127506161836,0.7946324071361848,-0.4731182860241942,-0.1651358274188555,0.6483468088846954,-0.7136692051866039,-0.09277794342154343
0.033443506005463884,-0.32436333273231566,0.40585420915075526,-0.1833326920680598,-0.26817797919669695,-0.17415450049534983,0.42822054305107776,-0.04738449060135393,-0.18520176043602116,-0.16395521082147638,0.21536846556267858,0.5091722989827737,0.19938558761449524,0.5373489684236846,0.17843925861203436,-0.48480047276935906,0.7729657050982477,-0.29471780719316243,0.39625641539301804,0.19543240231530498,0.052055009371775283,-0.3446440402759198,-0.2683522600651317,-0.500354681050279,0.003792195097747745,0.04456117285524034,-0.18257499765090562
-0.587578244178009,0.1258826619263484,-0.48747232250176653,-0.010471946864155257,0.08877728905947764,0.44545550219658514,-0.8201652754803443,-0.19644939489328192,-0.1702976293706873,-0.006323932636846353,0.18757541017652565,0.5766253401221253,-0.1373006898733339,0.7813848298213462,-0.14378748976908992,0.46428119432842596,-0.41959532115488873,-0.46300948028479627,0.925578835963774,0.25800879635266905,-0.08601169028370399,-0.21913219404657763,0.021159759738172843,0.3170540914469837,-0.3393176398640796,-0.011475776737199949,0.1707608391379171
-1.9685649582052813,0.6091191394805221,1.7259040286636218,-0.5126545820771828,-0.10105527950936966,0.7285403994204079,-0.5163843985692744,-0.531197492312409,-0.046456776485322926,-0.1727581083729311,0.47110888831530773,-0.4040234953667219,0.9747820378840947,-0.2886198264200078,-0.5539287589178752,0.46831859539666104,-0.9218650861845066,0.18386995360330075,-0.6433083242817516,-2.164000991818912,-0.8840201221226743,0.20299062030244816,0.08655839515489933,-0.21881047148427524,-0.10003903954271194,0.09554408401711449,0.6008972393198028
-0.3541759888702927,-0.08691589236929921,-0.26230358707401646,-0.5630284494631677,-1.4691027630817863,-0.04329115049432449,0.2071136119209569,-0.7423476194610328,-0.03269570510493949,0.34792954305977347,-0.029407881428275204,-0.5703848653658867,-1.457453040232674,-0.014490002911302606,0.6581701948787038,-0.33342128950359917,-0.13610371365621993,0.4094695913604133,-0.7472095852292265,-0.15342339530426863,-0.016459970718570086,0.28490230433089714,-0.7807571154688164,-0.3070503290473174,0.7078143846772643,-0.760600358652378,0.2710297151410807
0.12220099659535917,-0.14249252256029707,-0.03215897045453581,-0.04842718710239831,-0.15800743970940573,0.103457171807115,-0.04402476291287029,-0.35622264452205665,-0.09448643362269112,-0.03697245487092698,0.29911490292419246,-0.25613625184776867,0.14004825607125235,0.24468925442817374,0.03694207224252694,-0.5849742065726341,0.385847270732978,-0.757455103411399,0.10472791104031169,-0.522759915272756,0.02192911164027527,-0.10334681454477017,0.11426253414947887,-0.7441076399823336,0.2397077759799608,0.11728724426216053,0.014610916906256686
-0.16724528563892455,-0.08378492051124115,-0.3274408271422803,0.38018803742901697,0.6353028101781463,-0.8004836552682592,-0.37102480260972526,0.3021479410753599,-0.08306200922987841,-0.24733656404333612,-0.21880641036682855,0.24078066860356961,-0.26830301465063944,-0.10306441223660055,0.3062479718682652,-0.0030982243561322492,-0.33831403832665635,-0.004812437545053055,-0.18782935442294194,-0.030617414866212177,-0.11226082188853606,-0.13288412067179886,-0.1943788830809922,0.32583491292421823,0.4080721020962314,0.6408107083998947,-0.8690471622103534
-0.5163049721766728,-0.09779915820161154,0.18146452825174075,-0.0953586838268244,-0.44832917155891727,-0.30979884606716923,0.09131145816337502,0.0598034618172238,-0.17872060836850262,-0.22029426668042992,0.024436268184195354,0.2321603356441194,-0.6431447092986722,0.07188872392855139,-0.43474230365249966,-0.35016409698972967,-0.3043006585742426,0.28964063580684024,0.06735629868164215,-0.29115932854769827,0.4312037804719995,-0.3884079172589543,0.04534139677462066,-0.009034082974989513,-0.2789143671842205,-0.04083474269470783,-0.09547793316840142
0.04617229603117063,0.6811265756234259,0.39031853592306837,0.3445585087117015,-0.3275015996237968,0.9951142818725706,0.4585647473980051,-0.10562341883542399,-0.007461802081025767,-0.07339527028965542,0.3323421391285053,-1.2898810103424883,-1.4986964848664557,-1.1719260016361506,-1.2916718614665808,-0.14601398302869364,-0.9411378400336987,1.2497570469589934,-0.5078386038408365,0.46578070890180634,-0.47826697425403103,-0.48163563114865793,0.23780601474927435,-0.155680734870981,-0.42493437714998533,0.4761842016837206,0.389353310365143
-2.5400822630076227,-0.5275337221402762,0.6550883079807774,-1.277315962556358,0.18767091508644407,-1.0411436375007246,-0.018835165921251826,1.0536877192051928,-1.0392463880526972,0.45199287979084624,-0.33359306597705757,-0.7269834760589726,1.0158427445020983,-0.08878231309198348,-0.8720533804552736,-0.5444575312310477,0.008252938043388246,0.3581012977393558,0.7727633000546492,-0.9630160259261699,1.3149833680879905,-1.325607854969422,0.29635862168464644,0.21407046252846867,-0.6472757631548692,0.04170099886170361,-0.49946676874980045
0.5394868085126047,0.19753041843622937,0.32975643781264613,-0.8932051629646819,-0.07951536040006411,-0.21590795513118835,-1.5408318412884274,-0.43783569873303446,-0.24601553836068332,-0.07127820247041682,0.1796622872296402,0.40212320522425776,0.04938560899263007,-0.1398068377032829,-0.819721389743473,-1.1535657706103306,-0.2523326306357942,0.09292231465551816,-0.11577701864294673,0.5605439479612492,-0.2983800280410428,-0.8688468143757151,-0.3771610858885247,0.1345967364119473,-2.1374455452204817,-0.15682654938485194,0.372207578550577
-0.25742472720373893,-0.4082048349412471,-0.5355359911935973,-0.4662436727270896,-0.017350825681678086,-0.5685309820418808,0.16262811706654012,-0.18448923316443283,-0.26044340540441274,-0.16851271628136763,-0.0696155668057617,0.5646852754509089,0.26718515969169665,-1.3366650184669786,-0.7912397584947043,0.015784562972056698,-0.6222300077538823,-0.54331704069696,-0.046911281760905976,-0.21789638327814598,-1.4242158887884422,-1.8286352564813138,-0.19633088907883292,0.3193374017063314,0.12273919912062545,-0.13942890404083688,0.2631467029760046
-0.580567547528023,0.043474381081845884,0.04953040820878305,0.5199695692774993,-0.48757609161387944,-0.07931046079128483,0.19099772147975536,-0.3516953886324471,0.08779804784801655,-0.3882222626498459,0.016785197100144936,-0.2886788873661132,0.2603416605323551,0.4268267531428785,-0.32446330927715683,-0.013531041890141182,0.48176176558684264,0.018166005979138797,-0.685660258802503,-0.43617925294300014,0.3832930570899252,0.16225144616270837,-0.5027792646644625,-0.2987038450255376,0.013355391127753477,0.10556938644208184,-0.04905225780869749
1.2806875689599362,0.357233086349913,-0.5630533462007777,-0.7581931949462438,1.6965579093593686,0.6966611637047792,0.9949584850768743,-0.2890443949271273,-0.5550885246881627,-0.4657013735317985,-0.012953269409528722,0.8356123402382234,0.03718484784833193,0.2534771268019265,-0.1793873474946789,-0.2395339233497322,0.830573548893693,0.5479942892939778,-0.42758209885037546,-1.0247837504479376,1.0715148380769468,-0.5720213892563665,-0.05838739988161097,0.6051166798350771,0.1589313807191605,-1.3548675069451244,-1.5468126196933272
-0.058362156119506674,-0.8363097225302689,-0.1831657037981448,-0.024284228583284398,-1.6598880816020904,0.1696139077977822,-0.5016227040125526,-0.7328789369966665,0.15255650670749044,0.41872590858109315,0.28521888010586766,0.6956431778487856,-0.6060789487758228,-0.010858837537563885,-0.2618396352319688,-2.071383244922439,-0.1503218942364273,-0.618147777350951,-0.5508189512798798,0.3173453837435366,0.23969607015255417,0.3663497918866658,0.15649376881660104,-0.3106747258484793,0.4366949217874812,-0.09848037762542185,0.33990438764627
